-0,15
-0,02
0,13
0,06
-0,19
-0,26
-0,02
0,01
0,16
-0,04
-0,3
-0,12
0,08
-0,21
0,06
0,28
-0,03
0,05
0,09
-0,08
-0,19
-0,12
-0,27
0,15
-0,09
0,27
0,19
-0,1
-0,1
0,08
0,11
-0,2
0,15
0,22
-0,24
0,04
-0,06
-0,27
-0,08
-0,2
-0,08
0,2
-0,11
-0,1
-0,02
0,07
-0,11
-0,06
0,28
-0,09
0,13
0,17
0,06
-0,26
-0,12
0,27
-0,06
0,27
-0,16
-0,17
-0,16
-0,23
-0,2
-0,23
0,14
0,19
0,02
0,16
-0,28
-0,29
0,03
-0,07
-0,17
-0,01
0,29
-0,1
0,29
0,13
-0,13
0,13
0,07
-0,05
-0,08
0,29
0,25
0,23
0,04
0,11
0,03
-0,21
-0,21
-0,04
0,18
-0,22
0,25
-0,15
0,09
-0,19
0,05
0,08
-0,26
0,03
-0,09
0,27
0,17
-0,41
-0,26
-0,54
-0,56
-0,02000001
0,27
0,11
0,1
0,01
0,05
0,19
0,14
-0,2
-0,18
0,2
-0,16
0,21
-0,18
0,23
0,21
-0,23
0,04
-0,26
0,04
0,13
0,1
0,18
-0,23
0,08
0,09
-0,26
-0,27
-0,05
-0,18
0,06
-0,11
-0,02
0,06
0,05
-0,18
-0,02
0,16
-0,13
0,02
-0,25
0,01
-0,01
0,28
0,14
-0,07
-0,17
-0,1
-0,02
-0,25
0,1
0,14
0
0,02
-0,1
-0,13
-0,21
0,03
-0,29
0,22
0,01
0,15
-0,12
0,28
0,06
0,01
0,16
-0,16
0,07
0,1
-0,08
-0,1
-0,14
0,01
-0,02
-0,18
-0,19
0,19
-0,07
-0,16
-0,05
0,14
0,05
-0,11
0,02
0,21
0,19
0,25
-0,15
-0,13
-0,27
0,55
0,44
0,25
0,01000002
-0,11
-0,18
0
-0,08
-0,17
0,06999999
0,28
0,42
0,47
0,42
-0,11
-0,03
0,28
-0,26
-0,23
-0,25
-0,11
-0,2
0,17
-0,04
0,16
-0,2
0,28
-0,05
0,14
0,11
0,21
0,29
-0,11
0,07
-0,03
0,06
0,21
-0,01
-0,22
-0,3
0,1
-0,04
-0,21
0,07
-0,03
-0,29
0,18
0,07
-0,18
-0,07
0,2
0,21
-0,23
-0,18
0,13
0,14
0,27
0,29
-0,16
-0,21
-0,17
-0,25
0,08
0,01
0,16
0,29
-0,07
-0,21
-0,15
0,13
0,06
-0,02
0,25
-0,23
-0,05
0,23
-0,3
-0,21
0,28
0,15
-0,09
-0,09
-0,17
-0,09
0,21
-0,3
0,21
-0,23
0,24
0,12
0,09
-0,09000002
-0,46
-0,02000001
0,17
0,05
0,18
0,07
0,21
-0,02
0,38
0,39
0,21
-0,00999999
0,17
-0,09
0,25
-0,3
0,17
0,2
0,13
0,17
0
0,29
0,48
0,51
0,51
-0,13
0,1
0,15
-0,23
-0,15
-0,16
0,02
-0,26
0,15
-0,16
0,26
-0,11
0,19
-0,26
-0,08
-0,12
0
-0,24
0,12
-0,3
0,13
0,03
-0,01
-0,26
0,21
-0,1
-0,26
0,28
0,21
0,2
0,14
-0,2
0,26
0,13
0,01
0,27
-0,25
-0,1
-0,08
-0,06
0,18
-0,05
-0,29
-0,23
0,28
0,11
0,27
0,15
-0,1
-0,02
0
-0,07
-0,25
0,2
-0,22
0,13
-0,19
0,1
-0,14
0,25
0,4
0,63
0,42
0,84
0,29
0,46
0,53
0,35
0,62
0,55
0,43
0,39
0,43
-0,13
-0,19
-0,12
0,02000001
-0,09
0,06000002
-0,2
-0,08
-0,12
0,07
0,22
0,2
0,21
-0,25
0,05000001
0,35
0,48
0,45
-0,06
-0,26
-0,03
-0,16
-0,16
0,13
0,07000001
0,38
0,12
0,18
0,21
-0,18
0,25
-0,15
-0,1
0,09
0,17
0,09
0,2
-0,2
0,2
0,04
-0,24
0,02
0,21
0,26
0,19
0,04
-0,22
0,1
-0,13
-0,01
0,14
0,09
0,19
-0,25
-0,14
-0,27
0,26
-0,26
-0,06
0,12
0,24
0,22
0,01
-0,24
0,12
-0,23
0,29
0,11
-0,13
-0,04
0,15
0,07
0,25
0,19
0,27
0,24
-0,08
-0,12
-0,07
0,02
0
0,01
0
0,21
0,28
0,15
0,5600001
0,45
0,53
1,04
1,02
1,05
0,76
0,37
0,6900001
0,44
0,31
0,75
0,13
0,42
0,34
0,2600001
0,23
0,51
0,44
0,06
0,74
0,29
-0,23
-0,09
0,4
0,38
0,41
0,51
0,12
0,23
0,51
0,09000003
0,37
-0,03999999
0,09999999
0,14
-0,12
0,03
0,43
0
0,51
0,48
0,09000002
0,13
0,23
0,07
-0,26
0,11
0,28
-0,26
-0,23
-0,21
0,07
-0,09
0,01
-0,03
-0,23
-0,29
-0,27
-0,26
-0,27
0,24
0,24
-0,14
-0,08
0,22
-0,23
0,16
-0,29
0,2
-0,23
0,19
-0,23
0,14
-0,15
0,25
0,19
-0,07
-0,02
-0,28
0,03
-0,3
0,23
-0,22
-0,15
0,12
0,01
-0,14
0,25
-0,17
0,06
-0,13
-0,01
0,38
0,56
0,5700001
0,53
0,53
0,2
0,3
0,9
0,78
0,9900001
0,67
1,16
0,77
0,61
0,82
0,36
0,65
0,67
0,44
0,32
0
0,31
0,03
0
0,46
0,01000002
0,4
0,5
0,81
0,51
0,47
0,14
0,5
0,5
0,59
0,48
0,17
0,02000001
0,56
0,03
0,27
0,02000001
-0,16
-0,09999999
0,15
-0,18
0,5700001
0,4
0,38
0,09000002
0,2
0,05
0,22
0,14
-0,01
-0,24
0,22
0,26
-0,24
0,21
0,09
0,1
0,08
-0,04
0,22
0,23
-0,25
0,27
0,01
-0,26
0,18
0,02
0,11
0,11
-0,26
-0,03
-0,14
0,13
-0,16
0,04
-0,26
0,29
0,11
0,11
0,01
-0,19
-0,08
-0,25
0,2
-0,08
0,25
-0,1
0,25
-0,26
-0,07
0,17
0,24
0,18
-0,02
0,52
0,06000002
0,59
0,08000001
0,33
0,51
0,77
1,13
0,7
1
0,61
1,1
0,6900001
1,02
0,92
0,77
0,7
0,8800001
0,56
0,55
0,4
0,31
0
0,06
0,09000003
0,09000003
0,27
0,37
0,67
0,47
0,16
0,33
0,28
0,15
0,51
0,5700001
0,34
0,5
0,06999999
-0,1
0,13
-0,13
-0,19
-0,05000001
0,19
0,02000001
0,46
0,38
0,53
0,47
0,73
0,79
0,8700001
0,52
0,47
0,21
0,05000001
0,52
0,59
0,24
0,53
-0,2
-0,14
0,23
-0,07
-0,02
-0,09
0,23
-0,1
-0,26
0,12
0,19
0,2
0,05
-0,19
-0,38
-0,41
-0,25
-0,43
-0,23
-0,38
-0,12
-0,47
-0,4
-0,26
-0,33
0,05
0,06
-0,03
-0,3
-0,08
-0,18
0,21
0,13
-0,03
0,03
-0,29
-0,12
-0,29
0,21
0,1
0,52
0,18
0,18
0,64
1,14
1,18
0,81
1
0,84
0,61
0,9
0,95
0,81
0,61
0,34
0,86
0,56
0,18
0,56
0,52
0,45
0,2600001
0,2
0,42
0,3
0,5700001
0,06999999
0,38
0,68
0,21
0,01000002
0,33
0,55
0,5600001
0,89
0,9
1,15
1,05
0,7
0,58
0,13
0,5500001
-0,28
0,28
0,21
0,06
-0,00999999
0,11
0,22
0,67
0,34
0,89
0,35
0,29
0,25
0,26
0,58
0,35
0,04000002
0,56
0,51
-0,17
-0,28
-0,27
-0,3
0,26
0,09
0,25
0,02
0,03
-0,3
-0,2
-0,23
-0,33
-0,22
-0,11
-0,37
-0,39
-0,09000002
-0,07000001
-0,33
-0,34
-0,14
-0,59
-0,44
-0,59
-0,02
-0,04
-0,29
-0,27
0,02
-0,11
0,11
0,14
0,07
-0,3
0,23
0,59
0,58
0,54
0,5700001
0,34
0,39
1,08
0,96
1,14
0,8200001
0,97
1,1
0,66
0,33
0,66
0,7399999
0,4
0,58
0,25
0,2600001
0
0,46
0,58
0,28
0,12
0,54
0,28
0,01000002
0,41
0,58
0,83
0,5
0,38
0,55
-0,07
-0,07
0,86
1,15
1,13
0,47
1,18
0,55
0,22
0,39
0,51
0,66
0,5500001
0
0,55
0,35
0
-0,15
-0,18
0,03999999
0,23
-0,18
0,59
0,26
0,45
0,4
0,4
0,47
0,55
0,25
0,28
0,46
-0,18
0,1
-0,21
-0,47
-0,13
-0,46
-0,25
-0,53
-0,32
-0,55
-0,66
-0,72
-0,53
-0,55
-0,62
-0,62
-0,85
-0,84
-0,32
-0,23
-0,22
-0,56
-0,58
-0,49
-0,37
-0,3
-0,5
-0,47
-0,24
-0,49
-0,31
-0,04000002
-0,2
0,04000002
0,24
0,44
0,21
0,42
0,77
0,75
1
0,64
0,65
0,77
0,78
0,71
0,78
0,6900001
0,71
0,42
0,71
0,79
0,5700001
0,8
0,38
0,38
0,68
1,17
1,4
1,07
0,9400001
0,51
0,91
0,77
0,05000001
0,27
0,08000001
0,32
-0,19
0,74
0,36
0,52
0,78
1,02
0,8700001
0,64
0,58
0,14
-0,07999998
-0,18
-0,19
-0,6
-0,59
-0,06
-0,00999999
0,09999999
-0,00999999
-0,41
0,26
-0,14
-0,24
0,53
0,52
0,3
0,11
0,18
0,33
0,48
0,11
-0,09999999
0,02000001
-0,44
-0,02000001
-0,34
-0,55
-0,42
-0,6
-0,75
-0,67
-0,8700001
-1,11
-0,67
-0,85
-0,82
-0,55
-0,86
-0,71
-0,84
-0,43
-0,65
-0,32
-0,12
-0,54
-0,36
-0,52
-0,77
-0,3
-0,12
-0,3
-0,52
-0,89
-0,8
-0,5700001
-0,58
-0,51
-0,35
-0,59
0,05000001
0,18
0,4
0,4
0,74
0,5600001
0,52
0,66
0,73
1,08
1,03
0,54
0,07000001
0,58
0,2600001
0,3
0,76
0,52
1,04
0,9900001
0,63
1,08
1,12
1,37
1,31
0,44
0,44
0,62
0,59
0,2
0,03
0,58
0,39
0,62
1,04
1,38
0,97
0,44
0,13
0,22
-0,17
-0,12
-0,36
-0,35
-0,13
-0,37
-0,37
0,09999999
0,03999999
-0,2
0,16
-0,21
-0,36
-0,15
-0,03
-0,14
-0,03999999
0,23
0,28
0,3
0,11
0,2
-0,23
0,22
0,15
-0,16
-0,15
-0,86
-0,77
-0,83
-0,97
-0,89
-1,12
-0,98
-0,94
-1,05
-0,97
-0,64
-0,9
-0,43
-0,4
-0,8600001
-0,63
-0,72
-1,17
-0,97
-0,8600001
-0,97
-1,16
-0,62
-0,68
-0,77
-0,44
-0,47
-0,8
-0,67
-0,2
-0,28
-0,2
-0,58
0,08000004
0,18
0,26
0,5700001
0,77
0,44
0,31
0,32
0,79
1,01
0,52
1,19
0,52
0,4
0,39
0,67
0,52
0,48
0,48
0,51
0,4
0,51
0,6
0,74
0,75
0,6900001
0,75
0,54
0,41
0,02000001
0,35
0,51
1,06
1,18
1,29
0,92
0,37
0,6
0,31
0,79
1,12
0,61
0,02999997
-0,07999998
-0,24
-0,38
-0,39
-0,8500001
-0,56
-0,27
0,00999999
-0,09
-0,47
-0,42
-0,09000003
-0,14
-0,42
-0,19
0,11
0,06999999
-0,02000001
-0,24
0,21
-0,14
-0,24
0
-0,78
-0,66
-1,19
-1,13
-0,91
-0,6900001
-1,04
-0,61
-1,21
-1,11
-1,32
-1,13
-1,12
-0,9800001
-1,02
-0,8
-1,3
-1,12
-1,19
-1,37
-1,12
-1,22
-1,14
-0,6800001
-1,07
-0,35
-0,71
-0,66
-0,4
-0,15
-0,2
-0,13
-0,14
0,05000001
0,09000003
0,26
0,04000002
0,27
-0,27
0,6900001
0,35
0,44
0,48
0,41
0,58
0,41
0,63
0,78
0,49
1,38
1,35
0,72
1,05
1,12
1,12
1,34
1,07
0,9800001
1,43
0,93
0,32
0,52
0,08000001
0,13
0,29
0,6
0,5
0,92
0,73
0,81
0,95
0,53
0,94
1,11
0,6800001
0,83
0,39
0,55
-0,06
-0,28
-0,38
-0,9
-0,8600001
-0,58
0,29
-0,03
-0,29
-0,37
-0,47
-0,36
-0,51
-0,04000002
-0,5700001
-0,3
-0,23
-0,18
-0,24
-0,26
-0,48
-0,03
-0,7
-1,2
-1,45
-1,23
-1,37
-1,28
-1,12
-0,97
-1,06
-1,22
-1,45
-1,28
-1,07
-1,29
-1,39
-1,48
-1,03
-1,45
-1,07
-1,19
-1,21
-0,93
-1,31
-1,02
-0,78
-0,81
-0,71
-0,86
-0,16
-0,05000001
-0,43
0,03999996
0,42
0,26
0,12
0,21
0,24
0,36
0,49
0,37
0,79
0,6800001
0,6900001
0,74
0,19
0,77
0,42
0,71
1,09
0,9400001
1,14
0,9
0,8
1,01
1,18
1,13
1,31
1,37
1,35
1,23
0,02000001
0,33
0,08000001
0,19
-0,19
0,3
0,7
-0,13
0,39
1,09
0,67
0,7
0,7600001
0,66
1,02
0,5
0,47
0,03999999
0,28
0,25
-0,03999999
-0,22
-0,75
-0,81
-0,6
-0,43
-0,47
-0,6
-0,32
-0,41
-0,51
-0,8300001
-0,09000003
-0,45
-0,2600001
-0,15
0,29
-0,4
-0,5700001
-0,42
-0,8400001
-0,95
-1,18
-1,21
-1,23
-1,37
-1,07
-1,36
-0,91
-1,43
-1,45
-1,13
-0,72
-0,7
-1,43
-1,26
-1,02
-1,22
-1,32
-0,96
-1,33
-1,11
-1,32
-1,31
-1,11
-0,61
-0,71
-0,89
-0,28
-0,34
-0,09000003
0,27
0,00999999
0,1
0,48
0,31
0,05000001
0,15
0,12
0,16
0,33
0,59
0,01000002
0,5
0,43
0,32
0,79
0,9
0,9800001
0,9900001
1,17
1,21
0,91
1,28
1,21
1,17
1,26
1,03
1,1
0,58
0,84
0,42
0,11
0,02
0,16
0,37
-0,25
0,08
-0,28
0,35
0,19
0,62
0,46
0,92
0,2
0,18
0,06999999
-0,03
0,06
0,06
-0,5
-0,41
-0,3800001
-0,38
-0,61
-0,41
-0,05000001
-0,38
-0,21
-0,7
-0,36
-0,6900001
-0,65
-0,46
-0,68
-0,39
-0,73
-0,61
-0,8600001
-0,8500001
-0,93
-1,39
-0,92
-1,18
-1,01
-0,96
-1,36
-1,21
-1,32
-1,08
-0,71
-1,12
-0,84
-0,77
-1,02
-0,8600001
-1,01
-1,32
-1,18
-0,9400001
-1,08
-1,08
-0,91
-1,09
-1,1
-0,93
-0,83
-0,28
-0,21
-0,01999998
0
0,08000004
0,23
0,3
0,08000004
0,89
0,21
0,2
0,62
0,35
0,05000001
-0,03999999
0,03
0,2600001
0,00999999
0,16
0,44
0,71
0,8600001
1,37
0,92
1,49
1,46
0,97
1,13
1,35
1,01
1,06
0,81
0,52
0,46
0,12
0,19
0,2
-0,18
0,1
-0,16
-0,54
-0,55
-0,42
-0,17
0,29
0,45
0,27
-0,09
-0,45
-0,22
-0,58
-0,5
0,24
-0,18
0,25
0,05000001
0,52
-0,34
-0,89
-0,48
-0,45
-0,54
-0,37
-0,73
-1,46
-1,52
-1,1
-0,42
-0,3800001
-0,8400001
-0,77
-0,7599999
-0,4
-1,19
-1,12
-1,14
-1,43
-1,17
-1,17
-1,37
-1,21
-0,74
-0,82
-0,84
-0,52
-0,84
-0,63
-1,11
-0,6900001
-0,84
-0,93
-1,26
-1,4
-1,22
-1,21
-1,5
-1,39
-0,89
-1,11
-1,2
-0,25
0,07999998
0,28
0,39
0,24
0,18
0,2
0,83
0,04000002
0,49
0,8800001
0,48
0,22
0,18
-0,18
-0,31
0,28
0,17
0,38
0,58
0,31
0,31
0,8700001
0,75
0,98
1,09
0,63
0,81
0,92
0,67
0,24
0,35
0,24
0,32
0,08
0,2
-0,13
-0,02
0,11
-0,7
-0,15
-0,8700001
-0,85
-0,59
-0,22
0,09000003
0,00999999
-0,38
0,15
0,59
-0,28
-0,06
-0,06999999
-0,19
0,29
0,34
0,41
0,43
-0,89
-0,55
-0,45
-0,32
-0,6900001
-0,34
-0,65
-1,28
-0,96
-0,9999999
-1,1
-0,6800001
-0,79
-0,61
-0,25
-0,42
-0,78
-0,93
-0,64
-0,65
-0,83
-0,61
-1,02
-0,5
-0,55
-0,58
-0,85
-0,61
-0,78
-0,77
-1,17
-1,17
-1,11
-1,46
-1,23
-1,44
-1,46
-0,73
-0,78
-1,12
-0,84
-0,45
0,14
0,41
0,72
1,13
0,77
0,92
0,79
0,35
0,58
0,31
0,68
0,15
-0,24
-0,59
-0,43
-0,25
-0,07999998
0,18
0,5
0,55
0,1
0,41
0,46
0,06000002
0,73
0,37
0,32
0,58
0,43
0,25
0,45
0,47
0,19
-0,09
-0,16
-0,24
-0,02
0,12
-0,16
-0,5700001
-0,8
-0,83
-0,76
-0,89
-0,35
-0,37
-0,01999998
0,25
0,19
0,29
0,54
0,53
-0,13
0,11
-0,25
0,03
0,54
0,06
0,4
-0,5
-0,3
-0,4
-0,39
-0,5700001
-0,74
-0,7
-1,24
-1,36
-0,73
-1,1
-1,14
-0,2
-0,8700001
-0,73
-0,46
-0,8700001
-0,94
-0,75
-0,5
-0,71
-0,22
-0,24
-0,51
-0,76
-0,9
-0,39
-0,6
-0,53
-0,74
-1,09
-1,08
-0,98
-1,18
-1,47
-1,17
-1
-0,45
-0,49
-0,45
0,05000001
0,8700001
0,44
0,68
0,68
0,8200001
1,33
1,09
0,3
0,5700001
0,00999999
-0,24
-0,21
-0,95
-0,1
-0,58
-0,06999999
-0,2
0,06
0,01999998
-0,06
-0,1
0,18
0,27
0,06
0,58
0,44
-0,22
-0,3
-0,16
0,24
0,47
0,45
-0,01
-0,25
-0,08
-0,06
0,27
-0,29
-0,09000002
-0,73
-0,8800001
-0,61
-0,8
-0,7600001
-0,8600001
-0,8800001
-0,34
-0,19
0,31
0,09000002
0,39
0,38
-0,22
-0,09000003
-0,15
-0,52
-0,14
0,02000001
0,7
0,37
-0,25
-0,11
-0,14
-0,8700001
-0,46
-0,4
-1,11
-1,3
-0,92
-0,8300001
-0,34
-0,51
-0,45
-0,7499999
-0,68
-0,4
-0,83
-0,77
-0,89
-0,65
-0,12
-0,34
-0,02000001
-0,26
-0,46
-0,22
-0,23
-0,52
-0,11
-0,77
-1,12
-0,66
-0,9900001
-1,07
-0,79
-1,08
-0,47
-0,83
-0,3
0,13
0,23
0,36
0,43
0,83
0,72
0,3
0,23
0,83
0,58
-0,36
-0,6
-0,5700001
-0,6
-0,7599999
-0,41
-0,81
-0,1
0,11
-0,12
-0,25
-0,47
-0,9
-0,6
-0,7599999
-0,00999999
-0,59
-0,12
-0,29
-0,26
-0,51
-0,54
-0,6
-0,18
-0,12
-0,28
-0,19
-0,17
0,04
-0,09000002
-0,77
-0,76
-0,47
-0,81
-0,95
-1,07
-1,45
-0,66
-0,54
-0,06
0,02000001
-0,09
0,32
0,78
-0,06
-0,31
-0,07999998
-0,25
0,59
0,54
0,11
0,12
0,22
-0,71
-0,41
-1,02
-1,2
-1
-1,38
-1,08
-0,23
-0,05000001
-0,7399999
-0,41
-0,8600001
-0,39
-0,61
-0,39
-0,85
-0,6
-0,36
-0,23
0,11
-0,24
-0,29
-0,12
-0,56
-0,49
-0,43
-0,12
-0,51
-0,84
-0,77
-0,8
-0,5
-1,19
-0,9900001
-0,66
-0,4
-0,24
-0,47
-0,16
-0,19
0,84
1,06
0,66
0,35
0,43
0,44
-0,27
-0,6
-0,29
-0,9
-0,01999998
-0,61
-0,86
-0,9
-0,15
-0,43
-0,9
-0,7599999
-0,42
-0,58
-0,36
-0,28
0,00999999
-0,18
-0,25
-0,52
-0,5700001
-0,31
-0,55
-0,3
-0,02000001
0,17
-0,21
0,25
0,17
-0,1
-0,35
-0,48
-0,39
-0,63
-0,76
-0,42
-0,82
-0,84
-0,75
-0,49
-0,24
-0,3
-0,24
-0,23
-0,11
0,22
-0,06
0,12
-0,13
-0,09000003
-0,16
0,54
0,3
-0,26
0,4
-0,5600001
-0,35
-1,19
-1,19
-1,4
-1,31
-1,12
-0,47
-0,66
-0,09000003
-0,72
-0,06999999
-0,09
-0,42
-0,55
-0,36
-0,05
-0,04
-0,06
0,02
0,02
0,22
-0,03
-0,5
-0,54
-0,67
-0,63
-0,52
-0,65
-1,14
-0,89
-1,38
-1,04
-0,74
-0,2
-0,06999999
-0,54
-0,55
0,04000002
1,11
0,5700001
1,06
0,41
0,15
-0,29
-0,00999999
-0,27
-0,66
-0,49
-0,64
-0,42
-0,63
-0,54
-0,89
-0,82
-0,49
-0,03
-0,39
-0,35
-0,13
-0,08000001
-0,6
-0,43
-0,42
-0,4
-0,54
-0,24
-0,26
-0,23
-0,48
-0,43
-0,1
-0,08
0,02
-0,26
-0,15
-0,19
-0,48
-0,82
-0,54
-0,7
-0,8700001
-0,64
-0,32
-0,43
-0,56
-0,55
-0,45
-0,52
-0,02000001
0,25
-0,15
-0,21
-0,13
0,29
0,27
-0,00999999
0,52
0,5400001
0,55
0,53
-0,62
-0,44
-0,62
-0,81
-0,32
-0,8600001
-0,27
-0,63
-0,68
-0,01000002
-0,15
-0,18
-0,72
-0,63
-0,42
-0,5700001
-0,11
-0,59
-0,44
-0,6
-0,39
-0,34
-0,51
-0,74
-1,19
-1,1
-1,15
-0,8700001
-0,8400001
-0,74
-0,72
-1,03
-0,77
-0,17
-0,09000003
-0,43
-0,02000001
0,79
0,48
1,19
0,92
0,48
-0,15
0,29
0,09999999
0,03
-0,39
-0,71
-0,8
-0,36
-0,81
-0,39
-0,52
-0,66
-0,58
-0,59
-0,53
-0,18
-0,23
-0,72
-0,31
-0,01000002
-0,4
-0,54
-0,49
-0,33
-0,31
-0,25
-0,25
-0,29
-0,25
0,29
-0,18
-0,14
-0,32
-0,28
-0,19
-0,51
-0,55
-0,62
-1,02
-0,45
-0,37
-0,49
-0,24
-0,04000002
-0,82
-0,72
-0,49
-0,4
0,09000002
0,15
-0,19
0
-0,3
0,01999998
-0,33
0,08000004
0,17
0,12
0,03
-0,44
-0,46
-0,22
-0,41
-0,2
-0,21
-0,68
-0,64
0,59
0,5
0,27
-0,24
-0,52
-0,01000002
0,13
0,06
-0,22
-0,00999999
-0,16
-0,11
-0,2
-0,36
-0,46
-0,6900001
-0,71
-0,43
-0,49
-1,05
-0,65
-1,15
-0,8800001
-0,08000004
-0,37
-0,35
-0,28
0
1,04
0,81
1,16
0,17
0,15
0,22
-0,19
-0,00999999
-0,48
-0,81
-0,8800001
-0,59
-1,03
-0,34
-0,72
-0,51
-0,5700001
-0,06999999
-0,08000001
-0,08000001
-0,01000002
-0,44
-0,6
-0,38
-0,33
-0,53
-0,29
-0,06000002
-0,42
-0,25
-0,17
-0,17
-0,04000002
-0,18
-0,09000002
-0,14
0,03
-0,04000002
-0,27
-0,42
-0,48
-0,15
-0,21
-0,81
-0,16
-0,5
-0,02000001
-0,02000001
-0,44
-0,37
-0,72
-0,31
-0,28
-0,5
-0,3
0,28
-0,39
-0,26
-0,11
-0,22
-0,1
0,17
0,41
0,37
0,56
-0,41
0,03999996
-0,26
-0,55
-0,29
-0,55
-0,23
-0,11
0,34
0,39
-0,16
0,06999999
-0,09
0,07000001
0,17
-0,21
0,02000001
-0,23
-0,05000001
0,17
-0,17
-0,19
-0,14
-0,19
-0,37
-0,35
-0,61
-0,23
-0,05000001
-0,02999997
-0,06
-0,27
-0,28
0,42
0,55
0,65
0,53
0,8300001
0,14
0,17
0,09999999
-0,2
-0,02999997
-0,9
-0,44
-0,4
-0,61
-0,64
-0,59
-0,31
-0,12
-0,2
-0,44
-0,4
-0,17
-0,53
-0,42
-0,38
-0,48
-0,85
-0,55
-0,6
-0,36
-0,24
-0,15
-0,2
-0,55
-0,52
-0,19
-0,48
-0,15
0,08
-0,08
-0,23
-0,24
-0,58
-0,47
-0,44
-0,05000001
-0,28
-0,04000002
-0,28
-0,85
-0,65
-0,81
-0,16
-0,13
-0,18
-0,31
-0,73
0,17
0,3
-0,19
0,07999998
-0,49
0,1
0,4599999
-0,09000003
0,7499999
0,35
0,15
0,21
-0,45
-0,42
-0,17
-0,51
-0,13
-0,21
0,13
0,4
0,53
0,00999999
0,5700001
0,09000002
0,09000002
-0,27
0,24
0,28
-0,03
-0,3
-0,06999999
-0,37
-0,52
-0,97
-0,95
-1,05
-0,93
-0,47
-0,65
-0,05000001
-0,74
-0,3800001
0,31
0,79
0,47
0,35
0,17
0,46
0,41
0,59
0,5700001
0,07999998
-0,62
0,19
-0,36
-0,75
-0,58
-0,58
-0,31
-0,52
-0,15
0,17
-0,06999999
-0,46
-0,78
-0,39
-0,78
-0,39
-0,37
-0,62
-0,48
-0,5700001
-0,17
-0,42
-0,37
-0,59
-0,6
-0,53
-0,39
-0,56
-0,15
-0,52
-0,14
-0,03
-0,58
-0,46
-0,05000001
-0,11
-0,01000002
-0,5
-0,18
-0,65
-0,76
-0,74
-0,81
-0,32
-0,02000001
-0,14
-0,23
-0,35
-0,38
-0,34
0,53
0,13
0,17
0,24
0,24
-0,21
0,2600001
0,22
0,14
0,25
0,1
-0,06
-0,37
-0,23
0,00999999
-0,03999996
0,41
0,5700001
0,26
-0,06999999
0,51
0,12
0,15
-0,14
0,18
-0,03
-0,22
0,24
-0,58
-0,47
-0,91
-0,64
-1,08
-1,01
-1,06
-0,58
-0,8
-0,52
-0,41
0,45
0,23
0,36
0,25
0,77
0,74
0,49
0,82
0,31
0,27
0,02000001
0,04000002
0,4
0,28
-0,31
-0,5600001
-0,5
-0,32
-0,6
-0,25
-0,33
-0,59
-0,59
-0,7
-0,89
-0,35
-0,16
-0,48
-0,56
-0,37
-0,32
-0,15
-0,27
-0,23
-0,19
-0,01000002
-0,45
-0,13
-0,32
-0,28
-0,02000001
0,04
0,07
0,27
0
-0,22
-0,11
-0,03
-0,18
-0,46
-0,8700001
-0,5600001
-0,81
-0,8700001
-0,08000001
-0,17
-0,09000002
-0,44
-0,06000002
-0,39
-0,6
-0,23
0,48
-0,22
-0,01999998
0,16
0,31
0,32
0,16
0,29
-0,11
0,23
0,29
-0,32
-0,54
0,23
-0,06
0,03999996
0,5
0,52
-0,25
0,16
0
-0,11
-0,11
0,24
-0,25
0
0,15
-0,02000001
-0,82
-0,62
-0,67
-1,14
-0,89
-0,6900001
-0,15
-0,62
-0,01999998
0,13
0,37
0,47
0,1
0,12
0,25
0,4
0,64
1,01
0,86
0,58
0,19
0,17
-0,03999999
-0,29
-0,44
-0,17
-0,53
-0,32
-0,11
-0,2600001
-0,49
-0,6
-0,43
-0,72
-0,39
-0,4
-0,3
-0,07000001
-0,03
-0,16
-0,52
0,25
-0,25
-0,24
-0,45
-0,42
-0,55
-0,43
-0,06000002
-0,22
-0,41
-0,06
0,03
0,17
0,08
0,2
-0,28
-0,09000002
-0,1
-0,73
-0,76
-0,73
-0,51
-0,36
-0,58
-0,24
-0,31
-0,38
0,21
-0,25
-0,5
-0,19
0,44
-0,19
-0,11
0,23
0,11
0,19
0,7599999
0,5700001
0,08000004
0,49
0,03999996
-0,2
-0,15
0,16
-0,02999997
-0,00999999
0,4
0
0,48
0,07999998
-0,27
0,09
0
0,21
-0,14
-0,19
0,03999999
-0,52
-0,42
-0,77
-0,95
-0,72
-0,92
-0,53
-0,21
-0,38
0,5700001
0,44
0,39
1,02
0,35
0,82
0,09000003
0,54
0,72
0,58
0,38
0,15
0,09000003
0
0,41
0,21
-0,44
0,00999999
0,08
-0,56
0,11
-0,02000001
-0,53
-0,6
-0,46
-0,83
-0,52
-0,36
-0,36
-0,15
-0,19
-0,23
-0,54
-0,25
0,02
-0,05
-0,09000002
-0,54
-0,27
-0,5
-0,3
-0,55
-0,52
0,17
0,02
-0,11
-0,01
0,18
-0,59
-0,5700001
-0,28
-0,33
-0,31
-0,55
-0,5
-0,02000001
-0,54
-0,22
-0,33
0,27
0,14
0,14
-0,6
-0,03
-0,14
-0,6
-0,52
-0,26
0,28
-0,14
0
0,1
0,5700001
0,5700001
0,03999996
0,35
-0,1
0,2
0,27
0,25
0,38
0,2
0,52
0,5
0,13
0,44
0,38
0,31
0,24
0,33
-0,12
-0,48
-0,22
-0,55
-0,64
-0,7499999
-0,8500001
-0,49
-0,6
-0,28
0,4
0,85
0,49
0,7499999
0,63
0,21
0,59
0,61
0,3
-0,26
-0,22
0,46
0,11
0,32
0,19
0,23
0,21
0,39
0,13
-0,58
-0,38
-0,24
-0,21
-0,05000001
0,27
-0,42
-0,28
-0,39
-0,59
-0,12
-0,3
-0,22
-0,41
0,25
0,14
-0,18
-0,6
-0,23
-0,14
-0,09000002
-0,15
-0,53
-0,29
-0,11
-0,06
0,01
-0,3
-0,25
-0,44
-0,58
-0,37
-0,65
-0,63
-0,32
-0,8
-0,27
-0,15
-0,36
0,17
-0,15
0,19
0,07
-0,3
-0,49
-0,26
-0,61
-0,33
-0,44
0,47
-0,24
-0,06999999
0,44
0,82
0,81
0,46
0,14
0,05000001
-0,11
0
-0,05000001
-0,13
0,5600001
0,35
0,8800001
0,55
0,34
0,4
0,5
0,75
0,1
-0,03999999
-0,25
-0,11
-0,59
-0,8800001
-0,8300001
-0,23
-0,41
-0,15
0,84
0,64
1,04
0,47
0,39
0,39
0,39
0,32
0,66
0,11
-0,05000001
0,28
0,55
0,54
0,22
0,5700001
0,22
0,31
0,31
0,46
-0,00999999
-0,41
-0,54
-0,29
0,06999999
-0,21
-0,13
-0,06000002
-0,39
-0,12
-0,52
-0,23
-0,15
-0,26
0,05
-0,09
0,03
-0,22
-0,04000002
-0,42
-0,15
-0,29
-0,26
-0,21
0,19
0,12
-0,29
0,1
-0,03
-0,26
-0,2
-0,24
-0,85
-0,5700001
-0,75
-0,55
-0,02000001
-0,47
-0,2
-0,01
0,21
0,15
-0,19
0,17
-0,27
-0,43
-0,48
-0,39
-0,71
-0,29
0,5400001
0,13
0,35
0,73
0,31
1,17
0,4399999
0,5700001
0,41
0,24
0,07999998
-0,23
0,5600001
0,76
0,38
0,62
0,62
0,42
0,48
0,59
0,22
0,2
-0,02000001
-0,34
-0,63
-0,61
-0,41
-0,43
-0,54
0,32
0,6
0,6900001
0,81
0,8600001
0,4
0,27
0
0,52
-0,28
-0,42
0,2
0,3
0,62
0,45
0,5
0,44
0,49
0,25
0,38
0
0,45
-0,00999999
-0,28
-0,41
0,08
-0,5700001
0,14
-0,51
-0,15
-0,59
-0,23
-0,03
-0,39
-0,52
0,24
-0,02
0,15
0,29
-0,24
-0,19
-0,28
-0,2
-0,2
-0,6
-0,21
0,21
0,18
0,12
0,05
-0,18
-0,2
-0,06000002
-0,52
-0,85
-0,43
-0,6
-0,24
-0,58
0,18
-0,24
0,12
0,2
-0,24
0
-0,2
-0,07000001
-0,81
-0,97
-0,39
-0,39
0,59
0,49
0,78
1,17
0,8800001
0,64
1,09
0,01999998
0,1
0,46
-0,15
-0,29
0,63
0,33
0,51
0,72
0,78
0,15
-0,09000003
0,24
0,52
0,12
-0,19
-0,6
-0,92
-0,79
-0,5700001
-0,81
-0,11
-0,15
0,42
0,55
0,81
0,43
0,13
0,2
0,06
-0,49
-0,53
0,12
0,09999999
0,04000002
0,52
0,02000001
0,5
0,7
0,47
0,02999997
0,08000004
0,27
0,05000001
0,53
-0,29
-0,03999996
-0,31
-0,14
-0,22
-0,42
-0,02000001
-0,14
-0,29
-0,21
-0,47
-0,06000002
-0,27
0,2
-0,2
-0,11
-0,41
-0,59
-0,24
-0,23
-0,22
-0,21
0,13
0,18
0,2
-0,22
0,09
-0,42
-0,37
-0,3
-0,59
-0,38
-0,81
-0,42
-0,36
-0,06
0,14
-0,03
-0,19
0,18
-0,18
0,2
-0,49
-0,6
-0,4
-0,33
-0,32
-0,6
0,3
0,8700001
0,73
0,67
0,81
0,8800001
0,75
0,21
0,42
0,71
0,25
0
0,68
0,4
0,22
0
0,07999998
-0,1
0,15
-0,15
-0,03999999
0,15
0,05000001
-0,6800001
-0,71
-0,12
-0,35
-0,13
-0,01999998
0,13
0,5700001
0,52
0,1
0,09
-0,43
-0,64
-0,13
-0,67
-0,59
0,11
0,02000001
0,01999998
0,42
0,02000001
0,01000002
0,41
0,39
0,31
0,28
-0,2
0,22
0
0,12
0,12
0,34
0,14
-0,08
-0,1
-0,42
-0,28
-0,58
-0,32
-0,08000001
-0,01000002
0,14
0,02
0,19
0,29
-0,08000001
-0,04000002
-0,48
-0,16
-0,11
-0,5700001
0,12
-0,07
-0,27
0,03
0,21
0,07
-0,22
-0,07000001
-0,41
-0,43
-0,39
0,26
0,1
-0,03
-0,25
-0,27
-0,27
0,26
0,05
-0,02
-0,22
-0,56
-0,51
-0,18
-1,03
-0,32
0,21
0,1
0,68
0,91
1,18
0,97
0,4
0,6800001
0,89
0,1
-0,19
0,18
0,29
0,4
0,54
0,09000003
0,09000002
0,05000001
0,07999998
0,17
0,22
-0,07999998
-0,06
0,19
-0,08000004
-0,44
-0,21
0,21
-0,06
0,07999998
0,13
0,2
0,15
-0,37
-1,04
-0,33
-1,05
-0,73
-1,01
-0,17
0,16
0,00999999
0,27
0,54
0,51
0,74
0,8700001
0,55
0,03
0,29
0,55
0,34
0,02999997
-0,00999999
0,35
0,59
-0,14
-0,12
-0,22
-0,19
-0,33
-0,12
-0,16
-0,39
0,26
-0,1
0,03
0,06
-0,36
-0,33
-0,07000001
-0,39
-0,45
-0,06000002
-0,29
-0,1
0,25
0,29
-0,02
0,07
-0,12
-0,46
-0,12
-0,06000002
0,13
0,08
-0,14
0,16
0,17
-0,14
-0,19
-0,04
-0,21
0,07
-0,44
0,28
-0,13
-0,55
-0,01999998
-0,6
0,41
0,51
0,61
0,66
1,26
1,24
0,79
0,6900001
0,58
-0,16
-0,26
-0,13
-0,1
0
0,23
0,13
-0,3
0,19
0,07999998
-0,13
-0,27
0,16
0,18
-0,23
-0,44
-0,03
-0,18
0,37
0,07999998
-0,28
0,33
0,49
-0,59
-0,63
-0,35
-0,63
-0,78
-0,79
-1,02
-0,81
-0,41
-0,53
-0,13
0,32
0,42
0,83
0,65
-0,22
-0,16
0,01999998
0,58
0,5700001
-0,03
0,09999999
0,56
0,55
0,02000001
-0,37
-0,1
-0,52
-0,39
-0,19
-0,29
-0,35
0,11
-0,16
-0,14
0,23
-0,56
-0,34
-0,3
-0,42
-0,29
-0,32
0,28
0,26
-0,01
-0,14
0,24
-0,08
-0,09
-0,27
-0,07
0,05
-0,26
0,06
-0,09
-0,09
0
-0,3
-0,06
-0,11
0,21
-0,2
0,47
0,06999999
-0,24
0,51
-0,09000003
-0,02999997
-0,23
0,12
0,02999997
1,38
1,22
1,29
0,5600001
0,89
0,71
0,3
0,25
0,16
0,28
0,58
1,06
0,78
0,48
0,85
0,51
0,34
0,83
0,84
0,22
0,04000002
0,01999998
0,11
0,5600001
0,51
0,41
0,21
0,5
0,37
-0,65
-0,33
-0,7600001
-1,11
-1,2
-0,85
-1,17
-0,66
-0,5
-0,6900001
0,09
0,3
0,34
-0,23
0,8
0,23
-0,06999999
0,29
0,18
0,09999999
0
0,16
0,03
0,12
0,19
0,29
-0,14
-0,4
-0,48
-0,56
-0,43
-0,4
0,09
0,18
0,21
0,01
-0,17
-0,24
-0,43
-0,17
-0,08000001
-0,04000002
0,24
0,01
-0,16
0,22
-0,01
0,24
-0,1
-0,27
0,27
-0,18
-0,28
0,09
-0,23
0,08
0,23
-0,29
-0,1
-0,29
0,19
0,42
0,12
-0,55
0,03
0,19
-0,1
-0,14
-0,45
0,18
0,9900001
1,36
0,11
0,95
0,78
0,63
0,51
0,32
0,5700001
0,8600001
0,29
0,81
1,19
0,39
0,37
0,35
0,47
0,89
0,7
0,42
0,38
0,41
0,46
0,46
0,84
0,39
0,44
0,79
0,27
0,55
-0,58
-0,18
-0,8200001
-1,18
-0,97
-1,1
-1,5
-0,64
-0,09000003
-0,27
0,17
-0,09
0,03
-0,06999999
0,00999999
0,27
0,72
0,01999998
0,58
0,28
-0,29
-0,1
-0,25
-0,28
0,09
0,28
0
-0,05000001
-0,19
-0,22
-0,11
-0,58
-0,26
0,02
0,24
0,16
-0,48
-0,03
-0,15
-0,04000002
-0,55
-0,09000002
-0,22
-0,23
-0,05
-0,13
-0,22
-0,08000001
-0,16
-0,04000002
-0,34
0,11
0,2
-0,01
0,23
-0,49
-0,24
-0,24
-0,38
-0,35
0,09999999
-0,25
0,15
-0,18
0,13
0,14
-0,44
-0,59
-0,31
0,4499999
0,74
0,75
0,16
0,31
0,82
-0,2
0,12
0,28
0,37
0,52
0,8
0,68
0,7
0,7399999
0,42
0,37
0,41
0,64
0,6900001
0,72
0,09000003
0,66
0,65
0,2
0,16
0,59
-0,24
0,55
0,23
0,41
-0,9
-1,14
-0,98
-0,61
-1,09
-1,09
-0,96
-0,71
-0,23
-0,47
-0,31
-0,52
-0,01000002
0,29
0,05000001
-0,59
0,24
-0,3
-0,6
-0,24
-0,28
-0,18
-0,07999998
0,16
0,05000001
-0,22
-0,21
0,26
-0,15
-0,08000001
-0,56
0,16
0,05
0,25
-0,09
0,13
-0,45
-0,49
-0,28
-0,3
-0,18
-0,38
0,27
0,25
-0,17
0,01
-0,23
-0,25
-0,15
-0,46
-0,55
-0,55
-0,05000001
-0,13
-0,52
-0,42
-0,16
-0,24
-0,36
-0,27
0,00999999
-0,02000001
0,33
0,14
0,09000003
0,4299999
-0,27
-0,27
0,38
-0,08000004
0,16
0,43
0,27
0,59
0,53
-0,2
0,15
-0,03999999
0,32
0,33
0,91
0,64
0,4
0,6
0,77
0,8800001
0,8
0,77
0,77
0,33
0,58
0,98
1,07
0,89
0,8800001
0,44
0,18
0,12
0,16
0
-0,33
-0,5600001
-0,34
-0,67
-0,92
-0,9900001
-1,13
-0,95
-0,97
-0,63
-0,8700001
-1,02
-1,17
-1
-0,58
-0,64
-0,43
-0,58
-0,34
-0,5
-0,08000001
-0,45
-0,15
0,05000001
0,23
-0,23
0,26
0,28
0
-0,21
0,21
0,02
-0,21
-0,28
0,05
0,26
-0,23
-0,43
-0,58
-0,35
-0,39
-0,35
0,23
0,19
0
-0,2
-0,25
-0,34
-0,03
-0,58
-0,04000002
-0,14
-0,44
-0,24
-0,23
-0,48
-0,42
-0,39
0,29
-0,09
-0,05000001
0,38
0,8400001
0,14
0,06
0
-0,22
0
0,14
0,05000001
-0,11
-0,9
0
0
-0,12
-0,34
-0,39
-0,35
-0,25
0,43
0,61
0,29
-0,29
-0,01999998
0,4299999
0,05000001
0,16
0,32
0,5500001
0,5300001
0,68
0,46
0,47
0,7
0,6
0,72
0,31
0,6900001
0,73
0,59
0,00999999
-0,2600001
-0,49
-0,6900001
-0,47
-0,64
-0,75
-0,45
-1,33
-1,4
-0,7
-0,38
-1,04
-0,74
-1,01
-0,65
-0,53
-0,65
-0,89
-1,2
-0,7600001
-0,85
-0,55
-0,7
-0,33
-0,8800001
-0,48
-0,11
-0,3
0,06
-0,05000001
-0,18
-0,18
-0,25
0,12
0,27
-0,13
-0,21
-0,15
-0,14
-0,11
-0,3
-0,16
-0,16
0,03
-0,15
-0,01000002
-0,29
-0,09000002
-0,55
-0,86
-0,84
-0,83
-0,48
-0,45
-0,35
-0,31
-0,4
-0,36
-0,2
-0,16
0,5500001
0,4499999
0,41
0,15
0,06999999
0,09999996
0,1
-0,26
0,22
-0,23
-0,01999998
-0,81
0,14
-0,19
-0,47
-0,4
-0,7
-0,13
0,41
0,02999997
0,4
0,8800001
0,25
0,31
0,49
0,35
0,89
0,8
0,7599999
0,8700001
0,5600001
0,74
0,65
0,92
0,84
0,15
0,63
0,8800001
0,5600001
0,03999996
-0,12
-0,02999997
-0,01999998
-0,63
-0,85
-0,64
-0,38
-0,89
-1,18
-1,16
-0,52
-0,5700001
-0,77
-1,14
-1,77
-0,93
-0,7
-1,1
-0,94
-0,89
-1,09
-0,4
-0,73
-0,36
-0,5
-0,46
-0,5700001
-0,18
0,17
0,27
-0,13
-0,38
-0,39
-0,23
-0,16
-0,18
-0,6
-0,33
-0,35
-0,38
-0,47
-0,03
-0,12
-0,18
-0,41
-0,07000001
-0,89
-0,62
-0,62
-0,34
-0,65
-0,68
-0,58
-0,36
-0,67
-0,32
-0,5
-0,56
-0,14
0,21
0,8200001
0,4
0,4399999
0,34
0,7599999
-0,14
-0,18
0,06
0,22
-0,39
-0,64
-0,68
-0,16
-0,26
-0,42
-0,47
-0,58
0,05000001
0,34
0,77
0,73
0,35
0,73
0,8
0,61
0,55
0,8
0,5600001
0,43
0,45
0,62
0,85
0,4
0,34
0,89
0,32
0,73
0,73
0,55
0,02999997
0,41
-0,05000001
0,05000001
-0,53
-0,3
-0,8700001
-0,23
-0,33
-0,85
-1,1
-0,64
-0,85
-0,61
-1,21
-1,43
-1,03
-0,94
-0,66
-1,18
-0,9900001
-0,95
-0,45
-0,68
-0,54
-0,42
-0,59
-0,49
-0,2
0,03999999
-0,15
0,29
-0,12
-0,21
-0,29
-0,85
-0,42
-0,31
-0,25
-0,4
-0,32
-0,13
-0,08
0,2
0,03
-0,11
-0,63
-0,64
-0,49
-0,64
-0,48
-0,55
-0,42
-0,49
-0,8700001
-0,23
-0,05000001
-0,58
0,28
0,19
0,8800001
0,8100001
0,8600001
0,5300001
0,2
0,1
-0,22
-0,05000001
0,28
-0,06999999
-0,41
-0,72
-0,39
-0,2600001
-0,2600001
-0,26
-0,8700001
-0,06
0,49
-0,13
0,21
-0,26
-0,00999999
-0,16
0,22
0,09999999
-0,2
-0,24
0,35
0,83
0,1
0,15
0,3
0,16
0,21
0,36
0,2
0,28
0,9
0,8300001
0,1
0,00999999
0,28
0,17
-0,24
-0,37
-0,16
-0,16
-0,53
-0,61
-0,5600001
-1,2
-1,07
-0,79
-0,92
-0,96
-1,59
-1,08
-1,49
-1,11
-1,21
-1,19
-1
-1,46
-1,07
-1,17
-0,42
-0,55
-0,77
-0,03
-0,17
-0,25
-0,66
-0,35
-0,54
-0,71
-0,24
-0,48
-0,52
-0,32
-0,05000001
-0,04000002
0,29
-0,25
-0,11
-0,51
-0,58
-0,42
-0,72
-0,64
-0,76
-0,82
-0,63
-0,4
-0,37
-0,51
-0,49
-0,06
-0,26
0,01999998
0,65
0,39
0,31
0,09000003
-0,14
0,58
0,06
-0,13
0,03999996
-0,22
-0,72
-0,51
-0,5600001
-0,28
-0,46
-0,58
-0,89
-0,46
0,14
-0,5700001
-0,29
0,29
-0,13
0,16
-0,18
-0,25
-0,53
-0,27
-0,28
0,5700001
-0,22
-0,19
-0,23
0,05000001
0,53
0,46
0,25
0,49
0,19
0,2
0,33
0,4399999
0,14
0,6900001
0,08000001
-0,26
-0,2600001
0,24
-0,24
-0,4
-0,83
-0,34
-1,11
-1,49
-1,49
-1,15
-0,9900001
-1,36
-1,24
-1,39
-0,9900001
-1,18
-0,75
-1,14
-0,6
-0,84
-0,8800001
-0,62
-0,52
-0,03
-0,23
-0,48
-0,35
-0,66
-0,91
-0,73
-0,16
-0,23
-0,22
-0,23
-0,6
-0,47
-0,03
0,11
0,2
-0,19
-0,28
-0,84
-1,16
-1,02
-0,66
-0,5
-0,68
-0,53
-0,31
-0,29
0,29
0,37
0,39
0,61
0,62
0,65
0,45
-0,22
-0,17
0,55
-0,29
-0,16
0,00999999
-0,46
-0,1
-0,7599999
-0,54
-0,11
-0,5
-0,23
-0,5600001
-0,27
0,16
0,19
0,33
0,55
0,24
-0,09999999
-0,27
0,27
0,19
-0,13
0,24
0,58
-0,13
-0,23
-0,02000001
0,36
0,35
0,55
0,27
0,48
0,58
0,85
0,09
-0,13
0,34
0,5
-0,02999997
0,4
-0,27
0,33
0,5700001
-0,09000003
-0,34
-0,35
-0,09000003
-1
-1,52
-1,44
-1,09
-0,36
-1,15
-1,05
-1,15
-0,46
-0,7
-0,8800001
-0,94
-0,47
-0,45
-0,9
-0,77
-0,45
-0,2
-0,44
-0,25
-0,39
-1,11
-0,74
-0,39
-0,5700001
-0,07000001
-0,38
-0,07000001
-0,45
-0,11
-0,27
-0,28
-0,38
-0,74
-0,82
-0,83
-0,62
-0,77
-0,8800001
-0,77
-0,48
-0,11
0,25
0,27
-0,29
0,54
0,7399999
0,8500001
0,33
-0,09999999
0,12
0,41
0,4
-0,11
0,29
-0,8
-1,08
-0,45
-0,53
-0,29
-0,17
-0,38
0,2
-0,36
-0,44
0
-0,27
-0,03
0,06
0,22
0,15
-0,29
0,06999999
-0,28
-0,06999999
-0,58
-0,17
-0,42
-0,41
-0,51
-0,22
-0,03
0,2
0,25
0,37
0,51
0,22
-0,28
-0,14
0,27
0,8500001
0,42
0,35
0,01000002
0,9
0,79
0,8800001
0,31
0,09999999
0,31
0,5
-0,44
-0,72
-0,8
-0,2600001
-0,5
-0,8600001
-0,83
-0,34
-0,33
-0,33
-0,67
-0,64
-0,62
-0,38
-0,44
-0,28
-0,05000001
-0,14
-0,36
-0,52
-0,89
-0,79
-0,51
-0,04000002
-0,58
-0,34
-0,24
-0,28
0,03
-0,27
0,12
-0,23
-0,43
-0,71
-0,39
-0,82
-0,51
-0,7
-0,03
-0,43
0,15
-0,25
-0,12
-0,3
0,01999998
0,46
0,37
0,08000001
-0,16
0,17
-0,27
0,14
-0,7499999
-0,67
-0,71
-1,15
-0,51
-0,47
-0,28
-0,16
0,27
-0,26
0,23
-0,06
-0,15
-0,14
0,38
0,08000001
0
-0,23
0,22
0,03999999
0,18
-0,23
-0,06999999
0,55
0,22
-0,22
-0,06
-0,15
-0,42
-0,32
-0,42
-0,15
0
0,5700001
-0,39
-0,36
-0,31
0,46
-0,00999999
0,25
0,47
0,73
0,49
0,7
0,42
-0,06
0,45
0,46
0,06999999
-0,01999998
-0,83
-0,54
-0,36
-0,32
-0,04000002
-0,22
-0,3
0,24
-0,77
-0,9
-0,41
0,16
0,25
-0,00999999
0,15
-0,23
0,23
-0,43
-0,36
-0,76
-0,51
-0,46
-0,23
-0,33
-0,13
-0,25
0,17
0,12
-0,18
-0,32
-0,08000001
-0,82
-0,82
-0,71
-0,7
-0,49
-0,09000002
0,00999999
0,00999999
0,12
0,24
0,35
0,93
0,8800001
0,06000002
0
0,47
0,5
-0,06
-0,5600001
-0,9
-0,93
-0,6900001
-0,97
-0,41
-0,3800001
-0,00999999
-0,33
-0,49
-0,1
-0,09000003
-0,43
0,11
-0,16
-0,53
-0,2
0,08
0,06
-0,21
0,03999999
-0,14
-0,07999998
-0,14
0,11
-0,11
-0,5700001
-0,19
-0,51
-0,4
-0,14
-0,73
-0,03
0,18
0,06999999
-0,03
-0,05000001
-0,13
0,45
0,59
0,27
0,72
0,84
1,1
0,4
0,21
0,06999999
0,53
0,48
-0,09999999
0,56
-0,07999998
0,1
0,1
-0,1
-0,12
-0,22
-0,19
-0,21
0,03
-0,44
-0,19
-0,11
0,06
0,24
0,03
-0,06999999
-0,00999999
-0,5700001
-0,43
-0,48
-0,37
-0,08000001
-0,23
-0,19
-0,09000002
-0,08
0,01
-0,24
0,2
-0,18
-0,51
-0,07000001
-0,12
-0,36
-0,36
-0,24
-0,14
-0,03
0,18
0,49
0,14
-0,23
0,42
0,42
0,16
0,52
0,17
0,25
-0,23
-0,63
-0,52
-0,71
-1,19
-0,8200001
-0,27
-0,00999999
-0,27
-0,61
-0,61
-0,04000002
0,06
-0,8600001
-0,41
-0,1
-0,54
-0,12
0,00999999
-0,18
0
-0,03999999
-0,23
-0,59
-0,15
-0,03
-0,32
-0,15
-0,2
-0,06000002
-0,35
-0,32
-0,86
-0,25
-0,31
-0,07999998
-0,86
-0,41
-0,09000003
-0,21
-0,09
0,24
0,03
0,46
1,18
0,8200001
-0,18
-0,21
0,48
-0,07999998
0,05000001
0,5700001
0,21
-0,2600001
-0,05000001
-0,5
-0,4
0,06
-0,56
-0,5700001
-0,51
-0,73
-0,42
-0,21
-0,2600001
-0,6
-0,09000003
-0,6
-0,25
-0,04000002
-0,45
-0,43
-0,34
-0,39
-0,09000002
-0,24
-0,07000001
0,2
-0,28
-0,08
0,14
-0,12
-0,33
-0,72
-0,72
-0,63
-0,23
-0,6
-0,5
-0,42
-0,28
-0,32
-0,46
0,17
0
-0,27
0,35
0,53
0,42
-0,02999997
-0,3
-0,78
-0,5600001
-0,6900001
-0,8400001
-0,12
-0,29
-0,61
-0,78
-0,72
-0,73
-0,61
-0,5700001
-0,49
-0,41
-0,09000003
-0,4
0
-0,09999999
-0,24
-0,37
-0,09000002
-0,11
-0,44
-0,06000002
-0,43
-0,28
-0,22
-0,39
-0,12
-0,3
-0,01000002
-0,82
-0,56
-0,08000001
-0,28
-0,46
-0,85
-0,19
0
0,26
-0,52
-0,12
-0,09
0,31
0,93
0,84
0,01999998
-0,01999998
0,08000001
0,13
0,05000001
0,02000001
0,06
0,03999996
0,07999998
-0,07999998
0,17
0,5700001
-0,11
-0,15
0,22
-0,53
-0,06999999
-0,12
-0,13
-0,09
-0,32
-0,41
-0,14
-0,84
-0,45
-0,12
-0,1
-0,5
-0,45
-0,27
-0,03
-0,16
-0,1
-0,07
-0,6
-0,51
-0,78
-0,85
-0,35
-0,33
-0,29
-0,3
-0,47
-0,51
-0,34
-0,53
0,22
-0,16
-0,27
0
-0,06
-0,5700001
-0,46
-0,78
-0,65
-0,47
-0,79
-0,58
-0,63
-0,74
-0,49
-0,65
-0,71
-0,55
-0,36
-0,8700001
-0,8300001
-0,04000002
-0,45
-0,18
0,24
-0,42
-0,38
-0,1
-0,11
-0,02000001
-0,25
-0,23
-0,2
-0,53
-0,35
-0,24
-0,53
-0,46
-0,22
-0,36
-0,3
-0,52
-0,03
-0,44
-0,92
-0,8
0,06999999
-0,22
-0,15
-0,54
-0,5
0,08
0,45
0,53
0,6
-0,34
-0,31
-0,4
-0,25
-0,25
0,09999999
0,54
-0,38
-0,34
-0,52
-0,56
-0,39
-0,4
-0,4
-0,85
-0,42
-0,55
-0,04000002
-0,31
-0,5700001
-0,62
-0,32
-0,02000001
-0,76
-0,46
-0,49
-0,77
-0,85
0,12
0,18
0,27
-0,09
-0,43
-0,24
-0,01000002
-0,23
-0,14
-0,82
-0,27
-0,17
-0,25
-0,45
-0,29
-0,52
-0,06999999
0,49
-0,14
0,18
0,39
0,47
-0,8500001
-0,49
-0,45
-0,41
-0,8800001
-0,33
-0,9
-0,8500001
-0,6900001
-0,66
-0,64
-0,71
-0,51
-0,53
-0,79
-0,78
-0,8600001
-0,17
-0,6900001
-0,32
-0,28
-0,04000002
-0,37
-0,14
-0,03
-0,18
-0,33
-0,11
-0,09000002
-0,06000002
-0,36
-0,35
-0,35
-0,05000001
-0,17
-0,45
-0,24
-0,33
-0,26
-0,89
-0,84
-0,2
0,17
-0,22
-0,43
-0,14
-0,55
0,23
-0,02999997
0,4
0,44
-0,5700001
-0,64
-0,19
-0,15
-0,21
0,17
0,29
0,22
-0,11
-0,3
-0,49
-0,76
-0,34
-0,31
-0,6
-0,37
-0,16
-0,36
-0,35
-0,8400001
-0,54
-0,82
-0,4
-0,38
-0,39
-0,82
-0,45
-0,32
-0,2
0,07
0,04
-0,08000001
-0,5
-0,5
-0,09000002
-0,02000001
-0,46
0,09
0,03999999
-0,02000001
0,06999999
0,05000001
-0,15
0,3
0,24
0,2600001
0,2
0,3800001
0,16
-0,37
-0,4
0,28
-0,58
0,03999999
-0,82
-0,36
-0,54
-0,72
-0,66
-0,9
-0,8800001
-0,6
-0,49
-0,48
-0,95
-1,01
-0,8700001
-0,74
-0,52
-0,59
-0,51
-0,55
-0,4
-0,04000002
-0,31
-0,59
-0,08000001
-0,41
-0,33
-0,35
-0,12
-0,54
-0,48
-0,13
-0,44
-0,25
-0,11
-0,24
-1,19
-0,94
-0,68
0,25
-0,16
-0,2600001
-0,04000002
-0,8400001
-0,06
-0,5700001
-0,26
0,05000001
-0,68
-0,8700001
-0,6
-0,16
-0,16
-0,15
0,38
0,05000001
-0,26
-0,23
0,02000001
-0,43
-0,39
-0,31
-0,48
-0,05000001
-0,42
-0,37
-0,65
-0,4
-0,61
-0,64
-1,06
-0,48
-0,51
-0,47
-0,1
-0,14
-0,6
-0,08
-0,24
-0,42
-0,46
-0,39
-0,58
-0,16
-0,54
0,28
-0,27
-0,6
0,27
0,13
0,00999999
0,54
0,54
0,04000002
0,34
0,75
-0,09
-0,6
-0,12
-0,6
-0,23
-0,16
-0,24
-0,05000001
-0,12
-0,43
-0,5600001
-1,2
-0,66
-0,3800001
-0,8500001
-0,78
-1,5
-1,07
-0,8700001
-0,61
-0,04000002
-0,33
-0,11
-0,4
-0,41
-0,35
-0,08000001
-0,15
-0,06000002
-0,4
-0,12
-0,25
-0,52
-0,25
-0,36
-0,01000002
-0,27
-0,55
-0,5
-0,01000002
-0,75
-1,13
-0,35
-0,42
-0,06999999
-0,28
-0,25
-0,8500001
-0,22
-0,41
-0,37
0,11
-0,59
-0,55
-0,42
-0,06
-0,19
-0,02000001
0,4
0,42
-0,07999998
0,2
-0,3
-0,02000001
-0,61
-0,31
-0,6800001
-0,11
-0,62
-0,8400001
-0,82
-0,36
-0,8800001
-0,8700001
-0,77
-0,71
-0,58
-0,6
-0,04000002
-0,13
-0,11
0,17
-0,23
-0,25
-0,34
-0,54
-0,27
-0,27
-0,44
-0,3
-0,13
-0,55
-0,05000001
-0,02000001
0,06
0,25
0,06
0,2600001
0,49
0,53
0,09999999
-0,15
0,06999999
0,31
0,41
0,59
-0,52
-0,33
0,21
-0,00999999
-0,6900001
-1,09
-0,58
-0,37
-0,67
-0,85
-1,08
-0,65
-0,8800001
-0,68
-0,34
-0,41
-0,27
-0,02000001
-0,41
-0,5700001
-0,31
-0,27
-0,34
-0,12
-0,18
-0,54
-0,19
-0,28
-0,83
-0,5700001
-0,51
-0,24
-0,36
-0,33
-0,63
-0,85
-0,49
-0,44
-0,82
0,06
-0,27
-0,59
-0,25
-0,59
-0,78
-0,79
-0,36
-0,64
-0,02999997
-0,39
-0,19
0,07999998
-0,18
0,68
0,29
-0,25
0,00999999
-0,27
0,16
-0,75
-0,91
-0,31
-0,44
-0,41
-0,65
-0,8400001
-0,59
-0,55
-0,66
-0,7
-0,53
-0,13
-0,11
-0,18
-0,3
0,27
0,28
-0,05
0,05
-0,29
-0,19
-0,16
-0,5600001
-0,14
-0,08000001
-0,29
-0,06
0,15
0,27
-0,08
-0,26
0,37
0,3
0,83
0,06000002
0,03
0,45
0,46
0,36
-0,54
-0,51
-0,41
-0,29
-0,23
-0,47
-0,66
-0,71
-0,91
-1,13
-0,8800001
-1,44
-1,45
-0,62
-0,76
-0,5700001
-0,16
-0,36
-0,6
-0,04000002
-0,06000002
-0,18
-0,15
-0,23
-0,29
-0,15
-0,6
-0,14
-0,05000001
-0,54
-0,04000002
-0,48
-0,48
-0,12
-0,31
-0,39
-0,6800001
-0,48
-0,63
-0,8800001
-0,03
-0,19
-0,36
-0,52
-0,35
-0,44
-0,32
-0,81
-0,15
-0,7
-0,39
-0,51
0,14
0,49
1,01
0,53
0,54
0,11
0,3
0,21
-0,17
0,07999998
-0,37
-0,67
-0,79
-0,71
-0,36
-0,7399999
-0,31
-0,98
-0,79
-0,89
-0,04000002
-0,03
-0,31
-0,18
0,17
-0,23
-0,18
-0,15
0,17
0,2
-0,6
-0,25
-0,16
0,17
0,27
0,23
0,07000001
0,05000001
0,5700001
0,09999999
0,42
0,66
0,49
0,49
0,47
0,31
0,2600001
0,05000001
-0,38
-0,79
-0,51
-0,07999998
0,07999998
-0,41
-1,08
-0,73
-1,01
-0,92
-0,84
-1,03
-0,92
-0,76
-0,5700001
-0,38
-0,23
-0,43
-0,22
-0,37
-0,09000002
-0,29
-0,51
-0,06000002
-0,35
-0,6
-0,11
-0,1
-0,23
-0,5
-0,35
-0,14
-0,2
-0,54
-0,07000001
-0,85
-0,8
-0,53
-0,34
-0,36
-0,5600001
-0,2
-0,8700001
-0,52
-0,32
-0,51
-0,48
-0,01999998
0,02000001
-0,33
-0,79
-0,31
0,22
0,02000001
0,7399999
0,8
0,61
0,15
0,5700001
0,38
0
-0,38
-0,81
-0,52
-1,17
-0,4
-0,8300001
-0,39
-0,6900001
-0,92
-0,79
-0,31
-0,6900001
-0,16
0,19
-0,2
-0,03
0,01
-0,05
-0,14
-0,12
0,2
-0,43
-0,5
-0,02000001
0,25
0,23
0,37
0,52
0,02000001
0,33
0,55
1
1,08
0,53
0,41
0,61
0,84
0,64
0,38
-0,58
-0,4
0,06
0,04000002
0,16
-0,78
-1,12
-0,8200001
-1,07
-1,17
-0,97
-1,2
-1
-0,49
-0,7
-0,51
-0,55
-0,01000002
-0,5
-0,53
-0,34
-0,31
-0,01000002
-0,42
-0,06000002
-0,14
-0,42
-0,58
-0,4
-0,53
-0,21
-0,5700001
-0,04000002
-0,14
-0,47
-0,62
-0,46
-0,78
-0,36
-0,74
-0,43
-0,45
-0,67
-0,41
-0,21
-0,27
-0,5600001
-0,31
-0,01999998
0,43
0,06000002
0,32
0,14
0,8700001
1,02
0,92
1,11
0,48
0,4
0,6
0,84
0,06
-0,43
-0,24
-0,36
-0,7
-0,56
-0,56
-0,63
-0,08000001
-0,35
-0,08000001
-0,55
0,23
-0,1
0,11
-0,25
-0,21
0,09
-0,1
-0,19
-0,42
-0,56
-0,24
0
-0,23
0,48
0,29
0,34
0,4
0,66
0,86
0,62
0,83
0,52
0,71
0,5700001
1,07
0,55
0,19
-0,31
-0,3
0,02000001
0,06000002
-0,13
-0,47
-0,93
-1
-0,84
-0,9
-0,93
-0,79
-1,12
-0,41
-0,72
-0,55
-0,59
-0,2
-0,55
-0,44
-0,29
-0,26
-0,31
-0,14
-0,45
-0,31
-0,1
-0,19
-0,29
-0,51
-0,47
-0,43
-0,16
-0,4
-0,09000002
-0,5
-0,14
-0,33
-0,71
-0,74
-0,8
-0,93
-0,67
-0,8700001
-0,47
-0,05000001
-0,73
-0,78
-0,26
-0,13
0,6900001
0,47
0,42
0,38
1,37
1,74
0,6
1,05
0,81
0,78
0,23
0,45
-0,11
-0,64
-0,73
-1,11
-0,34
-0,42
-0,32
-0,22
-0,12
-0,5700001
-0,39
0,18
0,06
-0,27
-0,19
-0,04
0,02
-0,11
-0,48
-0,22
-0,24
-0,16
-0,3
-0,03999999
0,35
0,36
0,32
0,86
0,6900001
0,6
0,66
0,91
1,13
0,84
0,67
1,16
0,75
0,34
-0,01000002
-0,01000002
-0,16
-0,03999999
-0,02000001
-0,25
-0,95
-0,67
-0,59
-0,77
-0,77
-0,8700001
-1,38
-0,59
-0,55
-0,45
-0,51
-0,55
-0,34
-0,1
-0,27
-0,41
-0,15
-0,59
-0,02000001
-0,12
-0,03
-0,1
-0,06000002
-0,48
-0,34
-0,46
-0,19
-0,32
-0,4
-0,78
-0,37
-0,8
-0,44
-0,65
-1,2
-0,79
-1,15
-0,42
-0,77
-0,54
-0,42
-0,25
0,25
-0,52
0,74
0,32
0
0,84
0,9
1,29
0,73
0,73
0,28
0,09000003
0,07999998
0,05000001
-0,01000002
-0,42
-0,73
-0,62
-0,6800001
-0,16
-0,49
-0,38
-0,39
-0,01000002
-0,41
-0,3
0,19
0,22
-0,16
0,26
0,17
0,22
-0,6
-0,6900001
-0,36
-0,44
-0,03
-0,06999999
0,14
0,16
0,27
0,4
0,59
0,4
0,42
0,66
0,77
0,25
0,42
0,46
0,61
0,45
-0,47
-0,5700001
-0,36
-0,28
-0,44
-0,75
-1,38
-0,91
-1,16
-1,12
-1,26
-1,33
-1,55
-0,85
-1,11
-1,04
-0,5
-0,78
-0,39
-0,66
-0,47
-0,84
-0,74
-0,6
-0,67
-0,8
-0,73
-0,47
-0,77
-0,96
-0,81
-0,32
-0,65
-0,8800001
-0,52
-0,34
-0,33
-0,98
-0,61
-1,38
-1,1
-1,36
-1,09
-1,01
-1,05
-0,48
-0,45
-0,8400001
-0,34
-0,6
0,45
0,29
-0,05000001
0,07000001
0,31
0,97
0,77
1,13
0,39
0,06
-0,01999998
-0,00999999
-0,14
-0,2
-0,62
-0,64
-0,6900001
-0,68
-0,03
-0,47
-0,41
-0,42
-0,47
0,08
0,13
-0,01
-0,05
-0,04
-0,16
0,11
-0,65
-0,79
-0,73
-0,47
-0,21
-0,21
0,03
-0,12
0,00999999
0,31
0,38
0,33
0,13
0,83
0,73
0,11
0,58
0,3
0,8
0,49
-0,1
-0,38
-0,51
-0,48
-0,79
-0,93
-1,34
-0,74
-0,97
-1,19
-1,09
-1
-1,42
-0,93
-1,1
-1,03
-0,78
-0,58
-0,89
-0,42
-0,38
-0,58
-0,9900001
-0,65
-0,55
-0,75
-0,86
-0,41
-0,66
-0,8800001
-0,6
-0,66
-0,55
-0,65
-0,4
-0,8700001
-0,8800001
-0,86
-0,89
-1,39
-1,27
-1,03
-0,66
-1,21
-0,71
-0,43
-0,65
-0,45
-0,77
-0,64
0,28
0,25
0,29
0,02000001
0,86
0,77
0,61
1,03
0,67
0,56
-0,07999998
-0,02999997
0,21
-0,09000003
-0,89
-0,73
-1,05
-0,48
-0,24
-0,54
-0,45
-0,52
-0,59
0,19
-0,05
-0,25
0,08
0,21
0,05
-0,13
-0,41
-0,72
-0,54
-0,63
-0,5700001
-0,56
-0,05000001
0,33
0,28
0,33
0,01999998
0,18
0,2600001
0,95
0,49
0,55
0,55
0,33
0,58
0,32
-0,28
-0,78
-0,51
-0,54
-1,09
-0,7
-1,26
-1,11
-0,84
-1
-1,11
-1,4
-1,73
-0,71
-1,14
-1,17
-0,4
-0,67
-0,73
-0,34
-0,38
-0,49
-0,7600001
-0,8700001
-0,86
-0,34
-0,49
-0,65
-1,2
-0,91
-0,8
-0,5600001
-0,67
-0,8700001
-0,75
-0,53
-0,81
-0,61
-1,04
-1,07
-1,11
-1,35
-0,64
-1,12
-0,67
-0,6800001
-0,8
-0,53
-0,61
-0,45
-0,25
0,31
0,15
0,31
0,6900001
1,11
0,8800001
0,66
0,32
0,14
0,09000003
0,29
-0,21
-0,53
-0,2
-0,86
-0,73
-0,56
-0,26
-0,31
-0,07000001
-0,39
-0,53
0,04
-0,14
0,06
0,14
-0,25
-0,21
-0,48
-0,44
-0,8700001
-0,34
-0,76
-0,66
-0,22
0,18
0,51
0,23
0,23
0,08000004
-0,27
0,27
0,61
0,33
0,4
0,06
0,79
0,8700001
0,79
-0,26
-0,84
-0,58
-0,31
-0,6900001
-0,7600001
-1,26
-1,09
-1,06
-1,47
-1,44
-1,28
-0,9400001
-0,71
-0,92
-1,15
-0,8800001
-0,35
-0,48
-0,89
-0,74
-0,35
-0,8
-0,8
-0,7
-0,4
-0,37
-0,84
-1,2
-0,54
-0,6
-0,36
-0,82
-0,7
-0,83
-0,51
-0,89
-0,34
-0,98
-1,1
-1,36
-1,14
-0,84
-1,3
-1,33
-0,44
-0,8400001
-0,52
-0,58
-0,62
-0,53
0,11
-0,23
0,55
0,62
0,39
0,55
0,81
0,68
0,00999999
0,5
-0,12
-0,19
-0,22
-0,28
-1,09
-0,76
0,06
-0,19
-0,11
-0,5700001
-0,54
-0,28
-0,28
0,17
0,09
-0,12
-0,11
0,23
-0,26
-0,47
-0,75
-0,5700001
-0,59
-0,32
-0,41
0,17
0,12
0,47
0,58
-0,17
-0,2
0,17
0,51
0,49
0,56
0,25
0,8800001
0,78
0,65
-0,29
-0,61
-0,04000002
-0,47
-0,96
-0,89
-1,12
-1,16
-1,12
-0,97
-1
-1,44
-0,92
-1,16
-1,03
-0,85
-0,46
-0,51
-0,51
-0,78
-0,66
-0,8800001
-0,71
-0,47
-0,55
-0,37
-0,42
-0,79
-1,07
-0,4
-0,77
-0,7
-0,59
-0,43
-0,8800001
-0,47
-0,72
-0,4
-1,43
-1,24
-1,1
-1,07
-1,17
-0,97
-1,43
-0,8300001
-0,79
-0,77
-0,5700001
-0,77
-0,79
0,16
-0,12
0,35
0,71
0,59
0,4
0,42
0,3800001
0,6
0,43
-0,02999997
0,21
-0,43
-0,51
-0,6
-0,25
-0,2
-0,59
-0,5700001
-0,43
-0,06000002
-0,28
-0,17
0,01
0,11
0,28
0,25
0,05
-0,03
-0,48
-0,5600001
-0,83
-0,31
-0,52
-0,63
-0,28
0,55
0,06
0,03
0,03
-0,25
0,41
0,96
0,43
0,13
0,51
0,75
0,74
0,97
-0,28
-0,29
-0,49
-0,31
-0,64
-1,03
-1,36
-1,15
-1,17
-1,5
-1,2
-0,7600001
-1,13
-0,8
-0,72
-1,12
-0,71
-0,38
-0,52
-0,78
-0,63
-0,51
-1,17
-0,62
-0,6
-0,79
-0,78
-0,35
-0,91
-0,72
-0,41
-0,77
-0,49
-0,32
-0,35
-0,2
-0,38
-0,83
-1,18
-1,29
-1,37
-0,9400001
-0,6900001
-1,44
-1,48
-0,42
-0,92
-0,89
-0,13
-0,5600001
-0,37
-0,00999999
-0,24
-0,29
0,39
0,82
0,5700001
0,43
0,89
0,45
0,05000001
-0,12
0,05000001
-0,15
-0,5
-0,43
-0,5700001
-0,21
-0,16
-0,52
-0,15
-0,48
0,19
-0,13
0,28
0
0,18
0,27
-0,05
0,12
-0,18
-0,8
-0,82
-0,36
-0,65
-0,41
-0,24
0,39
0,48
-0,27
0,13
0,09
0,07999998
-0,13
0,16
0,55
0,21
0,66
1,15
1,04
0,15
0,49
-0,43
-0,51
-0,71
-0,79
-1,4
-1,01
-1,17
-1,12
-1,16
-1,2
-1,32
-0,74
-1,18
-0,66
-0,81
-0,5
-0,7
-0,6900001
-0,79
-0,67
-0,7
-0,49
-0,65
-0,84
-0,5700001
-0,58
-1,19
-0,8700001
-0,81
-0,48
-0,89
-0,5
-0,33
-0,07000001
-0,07000001
-0,61
-1,15
-1,07
-1,11
-1,33
-0,84
-1,11
-0,91
-0,47
-0,9999999
-0,3800001
-0,46
-0,68
-0,45
0,09999999
0,15
0,03999999
0,63
0,81
0,8800001
0,65
1,04
0,72
0,3800001
0,37
0,47
-0,01000002
-0,00999999
-0,39
-0,32
-0,23
-0,11
-0,51
-0,6
-0,2
0,05
0,06
0,11
0,23
0,17
0,11
0,12
0,11
-0,15
-0,2
-0,43
-0,21
-0,43
-0,32
0,26
0,5700001
0,06999999
0,35
0,54
0,17
0,15
0,22
0,95
0,31
0,59
1,26
1,29
1,27
0,44
1,03
0,02000001
-0,25
-0,39
-0,85
-1,15
-1,11
-0,38
-0,51
-0,5600001
-0,74
-0,67
-0,58
-0,33
-0,63
-0,4
-0,52
-0,18
-0,6
-0,35
-0,3
-0,61
-0,47
-0,46
-0,17
-0,36
-0,48
-0,9
-0,2
-0,36
-0,5
-0,59
-0,56
-0,03
-0,28
0,08
-0,48
-0,73
-1,09
-0,98
-0,74
-0,5600001
-0,63
-1,19
-0,22
-0,67
-0,17
-0,05000001
-0,52
-0,19
-0,09999999
0,54
0,38
0,41
0,43
0,43
1,08
1,11
0,67
0,71
0,53
-0,52
-0,18
-0,15
-0,37
-0,75
-0,12
-0,26
-0,05000001
-0,12
-0,22
0,2
0
0,08
0,08
0,26
-0,28
-0,18
0,06
-0,41
-0,19
-0,13
-0,08000001
-0,02000001
-0,5700001
-0,15
0,52
0,53
0,43
0,48
0,49
0,2
0,39
0,6
0,59
0,97
1,12
1,01
1,27
0,22
0,95
0,3800001
0
-0,11
-0,5700001
-0,91
-0,97
-0,6
-0,58
-0,73
-0,79
-0,54
-0,75
-0,72
-0,31
-0,54
-0,44
-0,47
-0,48
-0,52
-0,08000001
-0,35
-0,09000002
-0,54
-0,01000002
-0,13
-0,5
-0,9
-0,51
-0,6
-0,27
-0,1
-0,26
-0,47
-0,16
0,03
-0,73
-0,58
-0,65
-0,8700001
-0,6900001
-0,68
-0,7
-0,95
-0,53
-0,47
-0,8500001
-0,09
-0,3
-0,37
-0,09
-0,22
0,59
0,59
0,6
0,9900001
0,7600001
0,53
0,5
0,75
-0,12
-0,06999999
0,21
0,02000001
-0,47
-0,4
-0,59
-0,58
-0,26
-0,04
0,19
0,13
0,18
0,08
-0,14
0
0,05
-0,05
-0,01
-0,15
-0,18
-0,11
-0,31
-0,14
-0,21
-0,05000001
0,5
0,05000001
0,43
0,04000002
0,16
0,23
0,12
0,39
0,44
0,8800001
1,2
1,38
1,32
1,06
0,72
0,63
0,7599999
-0,26
-0,27
-0,53
-0,7
-0,4
-0,77
-0,9
-0,8700001
-0,4
-0,36
-0,55
-0,8700001
-0,31
-0,06000002
-0,55
-0,08000001
-0,42
-0,3
-0,34
-0,41
-0,31
-0,51
-0,05000001
-0,3
-0,82
-0,36
-0,13
-0,01000002
-0,13
-0,17
-0,48
-0,28
0,08
-0,5700001
-0,66
-0,78
-1,19
-0,85
-0,6
-0,39
-0,78
-0,89
-0,35
-0,01999998
0,06999999
-0,25
0,15
0,03
-0,05000001
0,55
0,53
1,06
0,7600001
0,7399999
0,46
0,84
0,38
-0,23
-0,19
0,26
-0,05000001
-0,9
-0,44
-0,53
-0,18
-0,58
-0,06
-0,04
-0,01
0,23
0,21
-0,17
-0,3
-0,26
0,06
-0,02
-0,16
-0,03
-0,37
-0,5700001
-0,52
-0,76
-0,5600001
0,21
0,2
0,2600001
0,16
0,54
0,16
0,3
0,03999999
1,14
1,13
0,93
1,15
1,32
1,34
0,78
0,7600001
0,65
0,1
-0,41
-0,8700001
-0,58
-0,56
-0,8
-0,44
-0,79
-0,82
-0,42
-0,8
-0,49
-0,47
-0,23
-0,42
-0,49
-0,34
-0,36
-0,44
-0,45
-0,15
-0,3
-0,21
-0,01000002
-0,72
-0,04000002
-0,41
-0,34
-0,22
-0,07000001
-0,16
-0,35
0,1
-0,73
-0,68
-0,72
-0,8
-0,89
-0,43
-0,81
-0,21
-0,8500001
-0,44
-0,33
-0,4
-0,06999999
0,09999999
-0,15
-0,45
0,14
1,05
0,79
0,61
0,3
0,8
0,7
0,39
-0,26
-0,47
-0,52
-0,4
-0,71
-0,58
-0,76
-0,86
-0,16
-0,6
-0,05000001
-0,45
-0,01000002
-0,6
-0,36
0,07
0,07
0,06
0,09
-0,17
-0,49
-0,51
-0,65
-0,75
-1,17
-1,09
-0,36
0,06999999
-0,06
0,24
0,09000003
-0,33
0,12
0,09
0,06
0,78
0,6900001
0,79
0,79
0,93
0,62
0,83
0,65
0,52
-0,16
-0,6
-1,05
-0,76
-0,7
-0,78
-0,66
-0,96
-1,1
-0,63
-0,63
-0,66
-0,43
-0,38
-0,43
-0,82
-0,82
-0,84
-0,81
-0,4
-0,7
-0,62
-0,5700001
-0,7
-0,37
-0,54
-0,32
-0,73
-0,74
-0,84
-0,8
-0,43
-1,17
-0,8700001
-0,89
-0,8800001
-0,65
-1,11
-0,73
-0,18
-0,31
-0,7499999
-1,04
-0,7600001
-0,79
-0,19
-0,3
-0,13
0,31
0,11
0,25
0,55
0,14
0,45
0,00999999
0,16
-0,03
-0,05000001
-0,7
-0,7599999
-0,47
-0,54
-0,82
-0,56
-0,14
-0,51
-0,39
-0,46
-0,4
-0,16
-0,48
0,28
0,19
0,27
0,2
-0,85
-0,78
-0,42
-0,51
-1,08
-0,85
-1,09
-0,44
-0,56
0,1
-0,16
-0,27
-0,42
-0,29
0,15
0,05000001
0
0,79
0,62
1,48
1,43
0,37
0,41
0,8800001
0,31
-0,09999999
-0,14
-0,64
-0,13
-0,61
-0,94
-1,14
-1,04
-0,65
-0,94
-1,16
-0,51
-0,74
-0,82
-0,52
-0,59
-0,4
-1,17
-0,96
-0,59
-0,54
-0,8700001
-0,78
-0,85
-0,81
-0,79
-0,82
-0,74
-0,31
-0,63
-0,32
-0,9
-0,71
-1,12
-0,39
-0,42
-0,45
-0,62
-1,15
-0,46
-0,82
-0,73
-0,98
-1,15
-0,79
-0,05000001
-0,16
-0,49
0,24
-0,03999999
0,02000001
-0,27
0,17
-0,02999997
0,25
0,17
0,03999999
-0,7
-0,53
-0,13
-0,73
-0,4
-0,43
-0,33
-0,32
-0,5700001
-0,11
-0,52
-0,44
-0,11
-0,14
0,21
0,28
-0,2
-0,07
-0,72
-0,5
-0,53
-0,36
-1,07
-0,93
-0,93
-0,68
-0,28
0,24
0,24
-0,48
-0,38
0,12
0,34
-0,16
0,24
0,21
0,48
1,46
1,37
0,3
0,85
0,37
0,37
-0,24
0,06
-0,36
-0,56
-0,5
-0,5
-1,15
-0,83
-1,17
-0,84
-0,83
-0,33
-0,64
-0,66
-0,71
-0,4
-0,62
-0,7600001
-0,8800001
-0,5700001
-0,4
-0,64
-0,35
-0,49
-0,55
-0,68
-0,6
-0,51
-0,77
-0,85
-1,02
-0,7600001
-0,91
-0,44
-0,83
-0,4
-0,8700001
-1,03
-0,3800001
-0,17
0,18
-0,25
-0,72
-0,8400001
-0,33
-0,73
-0,33
-0,34
0,28
-0,24
0,19
-0,15
-0,38
0,02999997
0,16
0,39
-0,49
-0,48
-0,31
-0,43
-0,8
-0,35
-0,37
-0,02000001
-0,42
-0,08000001
-0,33
-0,21
-0,44
-0,31
-0,13
-0,2
0,22
-0,12
0,14
-0,45
-0,83
-0,72
-0,46
-1,03
-0,96
-0,8700001
-0,49
-0,83
-0,45
-0,28
-0,38
0,25
0,3
0,27
-0,21
-0,09999999
0,48
0,64
0,63
1,43
0,71
0,49
0,47
0,35
0,49
-0,12
0,4
-0,32
-0,71
-0,52
-0,68
-0,56
-0,71
-1,19
-0,89
-0,68
-0,32
-0,79
-0,37
-0,53
-0,77
-1,05
-0,77
-0,74
-0,6
-0,59
-0,81
-0,41
-0,71
-0,64
-0,68
-0,72
-0,75
-0,6900001
-1,17
-1,03
-0,89
-0,51
-0,62
-0,84
-0,37
-0,78
0,18
0,06
0,39
-0,13
-0,8400001
-0,62
-0,35
-0,43
-0,9900001
-0,54
-0,2
-0,03999999
0,09
0,26
-0,24
-0,29
0,34
-0,42
-0,82
-0,09000003
-0,51
-0,08000001
-0,74
-0,56
-0,12
-0,33
-0,02000001
-0,16
-0,4
-0,42
-0,17
-0,13
-0,17
0
-0,03
-0,24
0,06
-0,18
-0,66
-0,49
-0,37
-0,8800001
-1,16
-0,74
-0,83
-0,42
-0,18
-0,53
-0,19
-0,3
-0,56
0,09000003
0,5700001
-0,28
0,02999997
0,86
0,5
1,55
1,18
0,9900001
0,59
0,41
0,5600001
0,33
0,52
0,52
-0,48
-0,82
-0,32
-0,31
-0,66
-0,68
-0,67
-0,63
-0,33
-0,53
-0,43
-0,61
-0,94
-1,2
-0,7600001
-0,39
-0,58
-0,7
-0,76
-0,5700001
-0,4
-0,49
-0,63
-0,6
-0,44
-1,19
-1,07
-0,7600001
-0,79
-0,49
-0,85
-0,89
-0,06999999
0,44
0,06
0,34
0,38
-0,19
0,05000001
-0,48
-0,7499999
-0,61
-1,16
-0,35
-0,82
-0,4
-0,52
-0,32
0,24
0,38
0,09
-0,55
-0,12
-0,41
-0,58
-0,6
-0,2
-0,03
-0,18
-0,38
-0,21
-0,52
-0,44
-0,44
-0,29
-0,15
-0,24
0,11
0,23
-0,2
-0,17
0,21
-0,16
-0,58
-0,73
-1
-0,83
-1,19
-0,98
-0,34
-0,37
-0,76
0,19
0,01999998
-0,58
0
0,13
0,03999999
0,12
0,35
0,83
1
1,48
0,72
0,62
0,67
0,72
1,07
0,84
0,22
0,13
-0,03999999
0,05000001
-0,16
-0,35
-0,42
-0,7
-0,7399999
-0,89
-0,79
-0,97
-0,81
-1,15
-1,04
-1,21
-0,96
-1,01
-0,77
-1,06
-0,89
-0,58
-0,8800001
-0,31
-0,43
-1,03
-0,5700001
-0,6800001
-0,8800001
-0,91
-1,1
-0,82
-0,1
-0,53
0,89
0,72
0,2600001
0,09
0,05000001
-0,23
-0,46
-0,51
-0,63
-0,8700001
-1,2
-0,78
-0,77
-0,56
-0,78
0,43
0,07999998
0,17
-0,31
-0,27
-0,38
-0,1
-0,19
-0,33
-0,13
-0,34
-0,09000002
-0,05000001
-0,12
-0,14
-0,1
-0,27
-0,27
-0,28
0,06
-0,26
-0,28
0,15
-0,17
0,06
-0,6
-0,08000001
-0,55
-0,92
-0,62
-1,15
-1,17
-0,92
-0,5
-0,12
-0,1
-0,38
0,39
0,16
0,44
-0,22
0,6
0,89
1,11
0,98
0,75
0,48
0,8
0,4
0,73
0,5700001
0,09000002
0,41
0,28
0,07000001
0,09999999
0,23
-0,2600001
-0,37
-0,5700001
-0,6
-0,7499999
-0,47
-0,62
-0,78
-0,97
-0,97
-1,05
-1,2
-0,65
-0,93
-0,36
-0,74
-0,43
-0,63
-0,8600001
-0,8700001
-0,67
-0,8600001
-0,4
-0,19
-0,59
-0,36
-0,15
0,00999999
0,56
0,52
0
0,01999998
-0,23
-0,33
-0,12
-0,15
-0,77
-1,06
-0,67
-0,73
-0,9
-1,11
-1,05
-0,08000001
-0,28
0,5
-0,45
-0,45
0,03
0,53
0,54
-0,3
0,03
0,07
0,29
0,29
0,02
0,21
-0,02
0,2
0,27
0,27
0,16
-0,3
-0,08
0,13
0,22
0,27
-0,22
-0,52
-0,28
-0,27
-0,5700001
-0,44
-0,8800001
-0,17
-0,41
-0,33
-0,21
-0,19
0,09000003
0,59
0,8800001
0,32
0,28
0,89
1,18
0,9
1,18
1,08
0,73
1,12
1,05
0,63
1,09
0,63
0,53
0,44
0,59
0,19
0,28
-0,13
0,06999999
-0,06
-0,4
-0,39
-0,34
-0,44
-0,8600001
-0,7499999
-0,2
-0,55
-0,48
-0,43
0,09999999
-0,03
0,59
0,43
0,32
0,22
0,14
-0,09
0,29
0,19
0,25
0,4
0,47
0,6
1,16
0,89
0,5
0,64
0,5700001
-0,11
-0,48
-0,3800001
-0,9800001
-0,5700001
-0,48
-0,84
-1,18
-1,09
-0,94
0,42
0,3800001
-0,22
0,09
-0,03
0,22
0,22
0,03
0,1
0,12
-0,24
0,04
0,06
-0,13
0,17
-0,01
0,1
0,03
0,26
0,2
-0,26
0,25
0,05
-0,23
0,22
-0,26
-0,12
-0,25
-0,35
-0,59
-0,35
-0,41
-0,28
-0,05000001
-0,44
-0,49
-0,13
-0,3
0,19
0,06999999
0,64
0,25
0,39
0,8200001
1,1
1,05
0,96
0,94
0,35
0,64
0,61
0,93
0,96
0,81
0,51
0,77
0,63
0
0,17
-0,07999998
0,03999999
0,17
-0,23
0,09
-0,44
-0,43
-0,59
0,11
-0,29
-0,24
0,12
0,4
0,14
0,48
0,15
0,39
-0,15
-0,17
-0,14
-0,23
0,28
0,13
0,29
0,51
0,89
0,82
0,43
0,71
0,63
0,29
0,08000001
-0,44
-1,08
-0,04000002
-0,27
-0,43
-1,02
-1,5
-0,85
-0,27
0,13
0,54
0,03
0,59
0,21
0,2
0,19
0,17
-0,24
0,12
0,02
-0,11
0,14
0,1
0,23
-0,1
-0,13
0,15
0,09
-0,07
-0,27
0,2
-0,23
0,02
0,28
0,25
-0,03
-0,43
-0,45
-0,32
-0,6900001
-0,76
-0,83
-0,18
-0,37
-0,5600001
-0,5
-0,3
-0,6
0,38
0,63
0,5600001
0,35
0,81
1,16
1,08
0,31
0,92
0,62
0,73
0,59
0,92
0,81
1,02
0,9
1,12
1,07
0,31
0
0,25
0,53
-0,28
0,02000001
0,06999999
-0,09
-0,43
-0,48
-0,29
-0,14
-0,11
0,4
0,76
0,45
0
0,5
0,37
0,15
0,16
0,35
0,09000003
0,54
0,54
0,44
0,32
0,8800001
0,79
0,83
0,55
0,12
0,31
-0,13
-0,21
-0,61
-0,5600001
-0,45
-0,89
-0,67
-0,93
-0,3
0,09
0,05000001
-0,3
0,16
0,43
0,33
0,42
0,46
-0,1
0,21
0,23
-0,23
0
-0,05
0,21
0,01
0,28
0,17
0
0,08
0,02
-0,07
0,17
0,19
0,15
0,02
-0,3
-0,13
-0,19
-0,46
-0,41
-0,47
-0,72
-0,45
-0,34
-0,27
-0,67
-0,83
-0,59
-0,02000001
-0,14
0,01999998
0,32
0,93
0,48
0,54
0,7600001
0,73
0,68
0,62
1,06
1,03
0,53
0,78
1,17
0,75
1,08
0,7
0,61
0,4
0,62
0,55
0,64
0,35
0,32
0,1
0,48
0,14
0,29
0,17
0,68
0,8
0,46
0,31
0,52
0,59
0,51
0,13
0,3
0,21
0,16
0,47
0,07999998
0,09000003
-0,03
0,35
0,49
0,59
0,48
0,4
0,15
-0,18
-0,84
-0,4
-0,34
-0,7
-0,92
-0,93
-0,89
-0,52
-0,25
-0,59
-0,17
0,21
0,24
0,26
0,27
0,22
-0,04
-0,02
-0,06
0,05
0,1
-0,2
0,24
0,15
0,16
-0,05
0,07
0,26
0,2
-0,11
0,26
0,18
0,02
0,25
-0,16
0,26
-0,26
0,01
-0,9
-0,67
-0,78
-0,6900001
-0,45
-0,46
-1,17
-1,03
-0,7600001
-0,59
-0,22
0,26
0,01999998
0,49
0,46
0,09000002
0,02000001
1,15
0,85
0,41
0,64
0,63
1,09
0,64
0,48
0,45
0,94
1,15
1,09
0,59
0,41
0,6
0,48
0,84
0,5700001
0,3
0,52
0,48
0,84
0,4
0,71
0,59
0,7
0,66
0,78
0,54
0,16
0,06999999
0,01999998
-0,07999998
0,22
-0,12
0,3
0,23
0,27
0,8700001
0,64
0,08000004
-0,27
0
-0,51
-0,52
-0,02000001
-0,15
-0,1
-0,83
-0,8200001
-0,82
-0,09000003
-0,44
0,16
-0,46
-0,59
-0,7499999
0,29
0,35
0,23
-0,17
-0,15
-0,07
0,28
0,27
-0,07
-0,04
0,07
0,23
-0,3
-0,05
-0,03
0
-0,05
-0,16
-0,16
0,24
-0,3
0,03
-0,3
-0,06
0,15
-0,2
-0,45
-0,82
-0,45
-0,75
-0,85
-1,12
-0,43
-1,05
-0,67
-0,08000001
-0,27
-0,09
0,52
0,6900001
0,61
0,42
0,45
0,01000002
0,68
0,8700001
0,37
0,43
1,01
0,8
1,4
1,22
0,89
0,97
0,75
1,46
0,94
1,18
0,8700001
0,65
0,6800001
0,8
0,41
0,06999999
0,81
0,59
0,35
0,74
0,31
0,34
0,56
0,04000002
0,22
0,34
0,22
0,47
0,48
0,59
0,46
0,48
0,63
0,01999998
-0,33
-0,36
-0,06
-0,5700001
0,07999998
-0,21
-0,3
-0,03999999
-0,43
-0,55
-0,36
-0,13
-0,29
0,11
-0,89
-0,53
-0,8
-0,81
-0,39
0,22
-0,19
-0,24
-0,06
0,16
-0,21
0,24
-0,16
-0,03
-0,22
0,05
-0,19
0,08
0,01
-0,24
-0,08
0,16
0,12
0,18
0,2
0,26
0,14
0,04
-0,14
-0,39
-0,51
-0,25
-0,8700001
-0,8
-0,74
-1,1
-0,71
-0,53
-0,33
-0,5
-0,1
-0,09
0
0,37
0,83
0,74
0,84
0,62
0,48
1,02
0,84
0,75
0,45
0,85
0,79
0,44
1,14
0,81
0,78
0,85
0,38
0,66
0,49
0,02000001
0,36
0,64
0,5
0,64
0,71
0,8700001
0,76
0,33
0,41
0,51
0,15
0,00999999
0,46
0,05000001
0,55
-0,24
0,01000002
0,11
0,15
0,34
0,56
0,54
0,19
0,38
0,21
0,00999999
-0,15
-0,03
-0,11
-0,58
-0,29
-0,17
-0,29
-0,03
-0,3
-0,42
-0,37
-0,7
-0,39
-0,6900001
-0,34
-0,4
-0,27
-0,06
-0,21
-0,13
-0,02
0,19
-0,04
-0,19
0,23
0,27
-0,09
-0,15
-0,25
0,12
-0,15
-0,18
-0,18
-0,21
0,11
-0,12
-0,16
0,08
-0,11
-0,58
-0,31
-0,12
-0,86
-0,53
-1,07
-0,8
-1,01
-0,06
-0,22
-0,54
-0,4
0,25
-0,02000001
0,03
0,33
0,8600001
0,61
0,67
0,6800001
0,93
0,82
0,7600001
1,11
0,48
0,62
1
0,6800001
0,72
0,6900001
0,97
0,96
1,14
0,64
0,36
0,48
0,09
0,45
0,49
0,28
-0,18
0,06999999
-0,03999999
0,06
0,29
-0,09
-0,09999999
0,13
-0,52
-0,55
-0,15
-0,13
-0,23
0,3
0,76
0,4
0,12
0,56
0,46
0,34
0,32
0,32
0,37
-0,16
-0,59
0
0,26
0,51
-0,07999998
-0,45
-0,67
-0,49
-0,78
-0,82
-0,34
-0,35
-0,95
-0,5
-0,08000001
-0,03
-0,18
0,26
0,29
0,06
-0,06
-0,11
-0,02
-0,06
-0,12
0,26
0,05
0,12
0,28
-0,16
-0,05
0,09
-0,3
-0,18
0,05
-0,32
-0,05000001
-0,32
-0,39
-0,37
-0,48
-0,5600001
-0,86
-0,62
-0,5700001
-0,1
-0,16
-0,28
-0,56
0,48
0,51
0,66
0,63
0,61
1,09
1,01
0,61
0,61
0,93
0,85
0,9900001
1
0,72
1,17
1,03
0,7600001
1,15
0,73
0,34
0,53
0,32
0,43
0,35
-0,24
0,24
0,2
-0,16
0
-0,1
-0,33
-0,48
-0,5700001
0,07999998
-0,2
0,23
0,49
0,06
0,59
0,52
0,84
0,8700001
0,54
0,55
0,56
0,13
0,00999999
0,51
0,06999999
-0,15
-0,13
0,54
0,61
0,8700001
0,71
0,46
-0,53
-0,9
-0,64
-0,8400001
-0,31
-0,64
-0,89
-1,1
-0,85
-0,78
-0,54
-0,58
-0,28
0,04
0,23
-0,21
0,25
0,2
-0,2
0,26
-0,22
-0,12
0,08
0,22
0,23
0,28
-0,23
-0,15
0,03
-0,27
-0,2
-0,25
-0,04000002
-0,37
-0,45
-0,42
-0,51
-0,38
-0,37
-0,33
-0,34
-0,17
-0,1
0,13
0,06
0,58
0,19
0,62
0,51
0,38
1,18
1,01
0,77
1,05
0,98
0,79
0,8200001
0,94
1,03
0,6
0,48
0,75
0,96
0,92
0,92
0,61
0,36
0,08000004
0,18
-0,26
0,29
0,03
0,26
0,42
0
0,24
0,28
0,25
0,15
0,54
0,39
0,64
0,83
0,55
0,64
0,59
0,17
0,11
0,44
0,26
0,26
0,05000001
0,38
0,23
0,39
1
0,67
0,47
0,41
0,35
0,22
-0,8
-0,47
-0,73
-0,52
-0,65
-1,05
-0,85
-0,45
-0,76
-0,4
-0,64
-0,42
-0,41
-0,1
0,13
-0,08
-0,19
0,28
0,02
0,13
0,24
-0,07
-0,08
0,08
-0,06
-0,05
-0,28
0,03
-0,41
-0,43
-0,5
-0,16
-0,2
-0,58
-0,62
-0,4
-0,24
-0,13
-0,22
-0,16
0,12
0,26
0
0,05000001
0,29
0,47
0,19
0,02000001
0,55
0,47
0,85
0,79
0,98
1,11
1,17
1,07
0,81
0,98
0,74
0,9
0,42
0,01000002
0,55
0,8700001
0,7
0,72
0,67
0,16
0,52
0,53
0,46
0,24
0,19
0,48
0,01000002
0,27
0,53
0,46
0,39
0,36
0,35
0,89
0,37
0,01999998
0,21
0,51
0,35
0,79
0,34
0,71
0,29
0,5700001
0,33
0,6800001
0,61
0,7
0,31
0,32
0,55
0,16
-0,21
-0,8800001
-0,8
-0,58
-0,89
-0,89
-0,9
-0,41
-0,41
-0,61
-0,37
-0,5600001
-0,01000002
0,07
-0,06
-0,17
0,24
-0,08
0,06
0,18
0,07
0,18
-0,18
-0,19
-0,07
0,18
0,21
-0,5
-0,43
-0,39
-0,34
-0,4
-0,1
-0,38
-0,33
-0,8700001
-0,11
-0,25
-0,29
0,2
0,2
-0,14
0,29
0,34
0,47
0,54
0,28
0,55
0,44
0,48
0,76
0,68
1,16
0,66
0,9900001
0,8
1,1
1,18
0,6800001
0,72
0,6900001
0,79
0,62
0,58
0,03
0,32
0,44
0,37
-0,21
-0,09999999
-0,06999999
-0,12
0,2
0,45
0,58
0,2
0,49
0,37
0,53
0,59
0,8
1,15
0,8600001
0,8800001
0,65
0,77
0,54
0,73
0,72
0,06
0,13
0,8
0,8700001
0,79
0,4
0,3
0,43
0,3
0,31
0,15
0,1
0,21
-0,14
-0,97
-0,66
-0,63
-0,43
-0,8
-0,82
-0,72
-0,59
-0,77
-0,5600001
0,09
0,22
0,14
-0,07
0,03
0,23
-0,15
-0,22
-0,3
0,24
-0,28
-0,23
0,02
0,21
-0,59
-0,25
-0,03
-0,23
-0,42
-0,55
-0,52
-0,41
-0,01
-0,21
-0,28
-0,26
-0,23
0,29
-0,17
0,05
-0,06
0,35
0
0,16
0,48
0,5700001
0,5600001
0,66
0,4
0,67
0,45
0,66
0,6900001
0,8700001
1,03
0,45
0,51
0,65
0,76
0,65
0,4
0,71
0,42
0,06999999
0,25
0,19
0,53
0,65
0,51
0,59
0,7499999
0,46
0,8400001
0,54
0,9
0,8700001
0,67
0,7600001
0,63
0,34
0,3800001
0,5
0,5600001
0,71
0,5
0,01999998
0,39
0,32
0,85
0,76
0,72
0,31
0,13
0,37
0,24
0,42
0,23
0,53
0,5
-0,02
-0,26
-0,39
-0,75
-0,49
-0,39
-0,31
-0,79
-0,45
-0,34
-0,75
-0,52
-0,25
0,02
0,11
-0,03
0,2
-0,16
0
-0,13
-0,07
-0,2
-0,09
-0,21
-0,26
-0,13
-0,46
-0,58
-0,43
-0,6
-0,13
-0,56
-0,46
-0,04
0,05
0
-0,13
-0,26
0,15
0,2
0,2
0,2
-0,06
-0,25
0,1
0,38
0,37
0,59
0,62
0,4
0,64
0,8800001
1,12
0,96
0,8600001
0,77
0,72
1,02
1,01
1,13
0,96
1,16
1,14
1,05
0,6900001
0,71
1,14
0,98
1,17
0,4
0,39
0,7499999
0,58
1
0,8600001
0,93
1,06
0,75
1,19
1,16
0,4
0,45
0,6
0,67
0,55
0,49
0,42
0,68
0,89
0,47
0,17
0,35
0,23
0,51
0,13
0,53
0,55
0,38
0,25
0,28
0,13
0,28
-0,58
-0,39
-0,9
-0,42
-0,31
-0,79
-0,81
-0,37
-0,29
-0,03
-0,18
0,15
0,13
-0,09
-0,04
0,17
-0,11
0,2
0,28
-0,14
0,09
-0,21
-0,08000001
-0,26
-0,38
-0,24
-0,33
-0,28
-0,23
-0,53
-0,1
-0,3
-0,18
-0,19
-0,17
-0,22
-0,23
0,06
-0,11
-0,3
-0,02
-0,24
0,15
-0,1
0,52
0,38
0,08000001
0,81
0,5700001
0,38
0,49
0,35
1,19
0,8700001
0,49
0,52
0,58
0,55
0,8600001
0,8200001
1,03
0,97
0,7600001
0,84
0,96
1,02
0,92
0,92
0,9800001
1,07
1,3
1,32
1,2
1,47
1,37
1,22
1,44
1,22
1,02
0,74
0,58
0,65
0,04000002
0,28
0,48
-0,16
0
0,45
0,52
0,51
0,39
0,41
0,1
0,5700001
0,16
0,21
0,19
-0,09
0,13
-0,21
-0,25
-0,25
-0,17
-0,51
-0,62
-0,54
-0,55
-0,59
-0,21
-0,14
-0,32
0,26
0,12
0,12
0,23
-0,22
0,02
0,17
0,05
-0,08
0,12
-0,13
-0,21
-0,43
-0,23
-0,02000001
-0,28
-0,28
-0,2
-0,04000002
0,12
0,02
0,18
0,02
0,08
0,22
0,21
0,25
0,29
-0,19
0,09
0,28
-0,25
-0,24
-0,08
0,12
0,28
0,28
0,03
0,38
0,48
0,32
0,75
0,51
0,5700001
0,48
0,86
0,5600001
0,61
0,6
0,34
0,32
0,51
0,72
0,33
1,15
0,9800001
0,9900001
0,93
0,9
1,06
1,27
1,38
1,14
1,32
1,03
1,01
0,63
0,54
0,54
0,59
0,02999997
0,29
0,02000001
0,08
0,4
0,46
0,26
0,05000001
0,19
0,56
0,24
0,23
0,28
-0,24
0,07
0,07
-0,08
-0,28
-0,03
0,04
0,18
-0,06
-0,58
-0,09000002
-0,19
-0,47
-0,39
-0,21
-0,17
-0,23
-0,08
0,02
0,07
0,01
-0,3
0,02
0,18
-0,26
-0,08
-0,21
-0,18
-0,56
-0,17
-0,56
-0,09000002
-0,46
-0,41
-0,43
-0,25
-0,24
-0,12
0
-0,03
-0,1
-0,2
0,09
-0,04
0,1
0,26
-0,03
-0,05
0,17
-0,09
0,12
0,03
0,22
0,15
0,27
-0,25
-0,26
0,48
0,48
0,7
0,47
0,82
0,44
0,4
0,58
0,59
0,27
0,84
0,33
0,63
0,97
0,79
1,12
0,65
0,46
0,5
0,51
0,35
0,37
0,37
0,85
0,73
0,84
0,72
0,31
0
0,29
-0,02000001
-0,09
-0,18
0
0,17
0
0,49
0,09000002
0,28
0,26
0,58
0,28
0,1
-0,01
0,03
-0,08
-0,17
0,14
-0,07
0,11
0,17
-0,01
0,07
-0,16
-0,02000001
-0,19
-0,5
-0,15
-0,26
0,27
-0,29
0,09
-0,03
-0,3
0,28
0,02
0,2
0,03
-0,1
-0,11
-0,28
-0,04000002
-0,12
-0,06000002
-0,38
-0,23
-0,34
0,08
-0,09
-0,09
0,11
0,28
0,07
0,19
-0,18
0,29
0,14
-0,03
-0,28
0,06
0,19
-0,26
0,04
0
-0,06
-0,11
-0,29
0,1
0,01
-0,3
0,01
0,1
-0,06
0,04000002
0,38
0,5
0,4
0,43
0,21
0,21
0,14
0,32
0,23
0,13
0,16
0,03
0,02000001
0,38
0,48
0,59
0,48
0,22
0,3
0,43
0,29
0,58
0,21
0,17
0,29
-0,27
0,06
0,16
0,07000001
0,21
0,49
0,01000002
0,33
0,32
0,11
0,21
-0,12
-0,29
-0,24
0,1
-0,08
-0,13
0,1
-0,09
-0,16
-0,1
-0,14
-0,08
0,22
0,01
-0,48
-0,52
-0,51
-0,2
0,05
0,1
-0,01
-0,08
-0,17
-0,12
0,15
-0,03
-0,05
-0,28
-0,07
-0,15
-0,01
-0,01
-0,33
-0,34
-0,19
-0,13
-0,14
0,2
-0,09
-0,19
-0,13
0,29
-0,27
-0,21
0,16
-0,17
0,24
0,05
-0,21
0,11
0,21
0,23
0,27
0,01
0,22
0,25
0,17
0,18
0,25
0,24
0,22
0,08
0,28
0,29
0,21
0,17
0,55
0,25
0,5
0,24
0,51
0,18
0,19
0,23
0,22
0,3
0,19
0,04000002
0,31
0,32
0,32
0,49
0,52
0,41
0,23
0,36
0,31
0,55
0,34
0,45
0,59
0,28
0,55
0,26
0,18
0,38
0
0,04000002
0,17
0,28
-0,13
-0,01
0,15
0,14
0,19
0,02
0,04
0,03
-0,22
-0,09
0,06
0,13
-0,14
-0,08
-0,09
-0,28
0,15
-0,14
0,06
-0,16
-0,14
0,29
0,2
-0,26
-0,06
-0,07
-0,07
0,22
-0,26
0,13
-0,01
-0,15
0,16
0,02
-0,16
-0,27
-0,26
-0,23
0,22
0,2
-0,28
0,27
0,17
-0,18
-0,21
-0,14
-0,19
0,02
-0,26
-0,14
0,23
0,14
-0,02
-0,27
0,12
-0,13
0,08
0,11
-0,11
-0,05
-0,21
0,11
-0,02
-0,05
0,22
-0,09
0,27
0,13
-0,22
0,18
0,58
0,37
0,23
0,45
0,12
0,18
0,12
0,38
0,54
0,08000001
0,11
0,51
0,47
0,48
0,5
0,44
0,47
0,43
0,5
0,5700001
0,25
0,23
0,47
0,27
0,41
0,2
0,28
-0,08
-0,11
0,18
-0,12
-0,02
-0,06
0,16
-0,13
-0,15
-0,1
0,12
0,2
-0,07
-0,25
-0,3
0,16
-0,19
-0,16
-0,13
0,24
0,1
0,04
-0,23
0,03
-0,16
0,23
-0,2
0,23
0,05
0,19
0,26
-0,26
0,21
0,19
0,2
-0,12
-0,24
0,2
0,13
-0,04
-0,3
0,01
0,05
-0,06
-0,26
0,22
-0,04
0,21
-0,05
0,06
0,06
-0,18
-0,07
-0,04
0,18
0,17
-0,19
-0,16
-0,26
0,05
-0,17
0,23
0,11
-0,05
-0,07
0,07
0,29
0,04
-0,16
0,11
0,1
-0,09
0,01
0,2
0,23
-0,22
0,59
0,43
0,29
0,21
0,26
0,18
0,28
0,58
0,13
0,43
0,41
0,25
0,01000002
0,02000001
0,06000002
0,51
0,45
0,07000001
0,13
0,07000001
0,2
-0,2
-0,29
-0,04
0,22
0,22
0,07
0,13
0,26
-0,15
0,11
0,02
0,03
0,1
0,17
-0,02
0,15
0,12
-0,22
0,24
-0,05
0,12
-0,18
0,09
0,26
0,04
0,03
-0,19
0,05
0,18
0,05
-0,07
0,07
