0,12
0,21
0,04
0,03
0,27
-0,02
0,09
0,16
-0,21
-0,02
0,07
0,09
-0,05
0,26
0,07
-0,03
-0,21
0,24
0,23
0,07
0,11
-0,05
-0,16
0,27
-0,22
0,02
-0,05
-0,25
0,28
0,52
0,18
0,48
0,07000001
0,22
0,28
0,32
0,49
-0,3
-0,18
0,14
-0,17
-0,02
-0,15
0,01
0,21
-0,13
-0,14
-0,09
-0,21
-0,17
0,18
-0,01
0,04
-0,2
-0,3
-0,14
0,06
0,07
-0,05
-0,05
-0,28
0,04
-0,13
-0,13
-0,2
0,18
0,01
-0,28
-0,02
-0,25
0,08
-0,21
0,12
-0,21
-0,06
-0,18
-0,2
0,12
-0,25
0,21
-0,14
-0,26
0,25
-0,15
-0,27
0,18
-0,16
0,26
-0,08
-0,19
-0,05000001
-0,48
-0,26
-0,14
-0,19
0,09
-0,19
0,27
-0,09
-0,27
0,15
-0,17
0,23
-0,26
0,04
0,08
0,17
-0,06
0,16
0,17
-0,24
0,23
0,01
0,03
-0,22
0,28
0,08
-0,29
-0,17
-0,09
0,03
0,05
0,1
-0,14
-0,21
-0,04
0,04
0,55
0,27
0,44
0,01000002
0,42
0,51
0,32
0,35
0,33
0,41
0,81
0,11
-0,05
-0,29
0,19
-0,21
0,05
-0,25
-0,28
0,1
-0,29
0,08
0,43
0,01000002
-0,21
0,13
0,29
-0,00999999
-0,2
0,03
-0,24
-0,06000002
-0,52
-0,5700001
-0,09000002
0,26
-0,28
0,45
0,53
0,32
0,29
0,27
0,05000001
0,16
0,16
-0,4
-0,12
-0,41
-0,16
-0,35
-0,56
-0,49
-0,53
-0,15
-0,27
-0,43
-0,16
-0,17
-0,08000001
-0,32
-0,39
-0,28
-0,05000001
-0,31
-0,26
-0,03
-0,27
-0,39
-0,5
0,22
-0,23
0,19
-0,19
0
-0,19
0,03
0,02
0,26
-0,16
0,19
0,25
0,09
0,45
0,44
0,28
0,25
0,47
0,22
0,3
0,34
-0,18
-0,11
0,23
-0,06
-0,2
0,27
0,01
0,05
0,12
0,49
0,46
0,26
0,09000002
0,81
0,48
0,45
0,89
0,66
0,64
0,89
0,74
0,77
0,28
0,02000001
-0,27
-0,19
-0,13
-0,49
-0,59
-0,51
-0,21
-0,19
0,21
0,06
0,09999999
0,18
0,26
0,16
-0,11
-0,16
-0,28
0,26
0,14
-0,05000001
-0,58
-0,32
-0,3
-0,07000001
-0,35
-0,47
-0,35
-0,5
-0,12
-0,3
-0,11
-0,36
-0,1
-0,1
-0,09000002
-0,32
-0,5
-0,4
-0,26
-0,58
-0,21
-0,25
-0,25
-0,27
-0,49
-0,3
-0,42
-0,47
-0,44
-0,4
-0,03
-0,13
-0,5700001
-0,5700001
-0,6
-0,56
-0,19
0,23
0,15
0,17
0,14
0,29
-0,08
-0,1
0,16
0,15
0,5700001
0,05000001
0,55
0,51
0,04000002
0,71
0,51
0,72
0,75
0,5600001
0,83
0,56
0,42
-0,05000001
-0,06000002
-0,48
-0,07000001
-0,03
0,03
-0,29
-0,09
0,17
0,8
0,76
0,47
0,46
0,64
0,77
0,48
0,7
0,42
0,44
0,77
0,56
0,33
0,13
-0,42
-0,35
-0,45
-0,15
-0,05000001
-0,09999999
-0,13
0,33
0,11
0,14
0,1
0,5
-0,08000004
-0,29
-0,25
0,24
0,17
-0,16
-0,07000001
-0,51
-0,45
-0,52
-0,27
-0,13
-0,53
-0,26
-0,37
-0,55
-0,46
-0,22
-0,51
-0,44
-0,6900001
-0,19
-0,06000002
-0,33
-0,48
-0,43
-0,25
-0,6
-0,3
-0,43
-0,25
-0,58
-0,55
-0,17
-0,06000002
-0,14
-0,26
-0,43
-0,33
-0,58
-0,58
-0,37
0,28
-0,21
0,22
-0,02
-0,23
0,21
0,27
0,11
0,19
0,32
0,05000001
0,24
0,28
0,71
0,97
0,98
1,02
0,9
0,3800001
0,8300001
0,6900001
0,8700001
0,32
0,3
0,11
-0,36
0,09999999
0,06
0,00999999
0,26
-0,19
0,06999999
1,03
0,8800001
0,73
1,04
1,25
1,33
0,9900001
1,34
0,93
1,08
1,18
0,62
0,8700001
0,7
0,44
0,73
-0,21
0,25
0,03999999
0,56
0,23
-0,21
0,14
-0,3
0,06999999
-0,09
0,16
0,43
-0,19
-0,4
-0,2
-0,38
-0,6900001
-0,03
-0,19
-0,3
-0,32
-0,06999999
-0,28
0,29
-0,09999999
-0,06
0,19
-0,09999999
0,29
-0,3
-0,58
-0,9
-0,81
-0,03
-0,33
-0,25
-0,39
-0,46
-0,47
-0,26
-0,47
-0,18
-0,53
-0,46
-0,04000002
-0,35
-0,27
-0,17
-0,23
-0,25
-0,19
-0,6
0,29
0,13
-0,16
-0,14
0,23
0,05
0,36
0,28
0,19
0,23
0,01000002
0,06000002
1,08
1,05
0,94
1,03
1,12
0,65
0,61
0,66
1,04
0,36
0,47
0,45
0,45
0,48
-0,28
-0,06
-0,1
-0,54
-0,17
0,24
0,19
0,02000001
-0,29
0,25
0,42
0,71
1,02
1,65
1,58
1,64
1,35
1,39
1,01
0,3
0,55
0,7
0,81
0,19
0,5
0,00999999
0,33
0,34
0,15
-0,06999999
0,26
0,28
0,3
-0,26
-0,27
-0,19
0,06999999
-0,48
-0,2
-0,24
-0,43
-0,45
-0,16
-0,52
-0,29
0,09999999
-0,06999999
-0,15
-0,02000001
0,29
0,21
-0,03
-0,26
-0,15
-0,67
-0,39
-0,8700001
-0,29
-0,44
-0,79
-0,4
-0,76
-0,44
-0,53
-0,02000001
-0,47
-0,19
-0,23
-0,48
-0,04000002
-0,54
-0,58
-0,51
-0,56
0,13
-0,2
-0,04
0,12
0,17
0,09000002
0,08000001
0,18
0,05000001
0,16
0,01000002
1,19
0,84
1,35
1,31
1,01
0,97
0,66
1,16
0,8800001
1,06
0,32
0,58
0,67
0,4
0,17
-0,31
-0,45
-0,27
0,00999999
0,82
0,79
0,47
0
0,32
0,42
0,55
0,81
1,03
1,26
0,93
0,92
0,9800001
0,9
0,96
1,19
1,09
0,8600001
1,16
1,2
0,79
0,3
0,05000001
0,4
0,17
0,4
-0,49
0,18
0,02000001
-0,3
-0,21
-0,07999998
-0,16
-0,2600001
-0,36
-0,48
-0,49
-0,36
-0,18
-0,32
-0,44
-0,44
-0,38
-0,11
-0,35
-0,46
-0,06
-0,02000001
-0,3
-0,5
-0,62
-0,8700001
-0,72
-0,8700001
-1,38
-0,6800001
-0,77
-0,84
-0,78
-0,68
-0,59
-0,24
-0,12
-0,47
-0,04000002
-0,2
-0,43
-0,26
-0,25
-0,07000001
-0,13
-0,05
-0,17
-0,02
0,13
0,02000001
0,37
0,15
0,75
0,33
1,95
2,23
2,28
2,01
0,61
0,66
0,94
1,01
0,81
0,62
0,8800001
0,64
0,41
-0,1
-0,02999997
0,4
0,8800001
0,39
0,83
1,34
1,46
0,79
0,22
0,37
0,23
0,02999997
1,09
1,09
1,09
0,4
0,7399999
0,8700001
1,11
1,28
1,56
1,37
0,48
0,5700001
1,02
1,1
0,66
0,66
0,12
-0,27
0,24
0,42
0,43
-0,08000004
-0,29
0,33
0,34
0,28
0,52
0,61
0,06
-0,64
-0,4
-0,49
-0,63
-0,32
-0,7399999
-0,7599999
-0,6900001
-0,79
-0,73
-0,89
-0,77
-1,17
-0,16
-0,21
-0,68
-0,9
-0,33
-1,47
-1,12
-1,3
-1,13
-1,01
-1,08
-0,8
-0,71
-0,33
-0,72
-0,14
-0,25
-0,14
-0,56
-0,1
-0,29
-0,5
0,26
0,07
0,29
0,13
0,33
0,52
0,14
0,3
0,75
2,03
2,09
1,59
0,97
0,8200001
0,7
0,33
0,3
0,19
0,8300001
0,7599999
-0,12
0,61
0,8800001
0,77
0,68
0,49
0,8600001
0,65
0,96
0,91
0,56
0,83
0,91
0,64
0,12
0,75
0,31
1,03
0,89
0,75
0,05000001
0,37
0,93
0,48
0,41
1,29
1,39
1,45
0,95
0,61
0,75
1,05
0,8700001
0,45
-0,09000003
-0,65
-1,12
-0,48
-0,8600001
-0,7599999
-0,04000002
0,38
0,24
0,14
0,2600001
0,05000001
-1,12
-1,17
-1,7
-1,25
-1,18
-0,73
-0,7
-1,13
-0,5
-0,79
-0,32
-0,5
-0,55
-0,32
-0,00999999
-0,6
-0,9
-0,5600001
-1,34
-1,39
-0,95
-0,74
-0,78
-1,04
-0,54
-0,42
-0,82
-0,75
-0,41
-0,33
-0,18
-0,41
-0,39
-0,25
0,01
-0,15
-0,15
0,09000002
0,29
0,28
0,85
0,79
1,54
1,6
1,16
0,8700001
0,67
0,66
0,74
0,55
-0,8200001
-0,41
-0,33
0,15
0,39
0,21
0,5
1,13
1,38
1,33
0,68
0,94
0,77
0,43
1,18
0,98
0,78
0,89
0,5700001
0,4400001
0,74
0,5
0,04000002
1,08
0,46
0,36
0,72
0,32
0,49
0,6800001
1,31
1,22
0,9
1,13
1,38
1,43
0,51
-0,24
-0,34
-1,1
-0,66
-0,3800001
-0,7
-0,45
-0,11
-0,1
0,32
0,81
0,12
0,17
-0,21
-1,13
-1,71
-1,5
-1,1
-0,73
-0,7499999
-1,11
-0,32
-0,27
-0,21
-0,12
-0,5700001
-0,51
-0,58
-0,55
-0,8700001
-0,96
-1,26
-1,15
-1,33
-1,38
-1,17
-1,04
-0,41
-0,38
-0,91
-1,01
-0,92
-0,9400001
-0,8700001
-0,39
-0,4
-0,29
0,29
0,03
-0,07
0
0,42
0,3
0,37
0,11
0,37
1,12
1,21
0,66
0,79
0,7
0,43
0,44
0,16
-0,23
0,2600001
0,06
0,3
0,8700001
0,64
1,12
1,61
1,38
1,08
0,8600001
0,41
0,92
1,19
0,78
0,8800001
0,61
1
0,8800001
0,11
-0,27
0,11
0,23
0,5700001
0,05000001
-0,26
0,71
1,65
1,32
1,23
1,39
0,95
1,04
1,29
0,8600001
0,24
-0,77
-0,59
-0,8800001
-0,31
0,00999999
0,19
0,24
0,1199999
0,41
0,3
0,05000001
0,5200001
0,72
0,06999999
0,17
-0,9
-1,35
-1,48
-1,07
-0,64
-0,8800001
-0,81
-0,66
-0,08000001
-0,06999999
-0,54
-0,62
-0,7600001
-0,92
-1,3
-0,64
-0,98
-1,47
-1,57
-1,36
-0,91
-1,13
-0,62
-1,1
-1,07
-1,33
-1,09
-1,05
-1,45
-0,61
-0,72
-0,58
0,04
0,15
0,18
0,49
0,41
0,26
-0,31
-0,07999998
0,64
1,27
0,6900001
0,06
0,25
0,2
0,39
0,13
-0,4
-0,8700001
-0,48
-0,42
-0,41
0,53
1,38
1,12
1,07
1,72
0,89
0,9900001
1,11
0,53
0,78
1,13
0,64
0,63
0,83
0,29
0,1
-0,3
-0,16
-0,34
-0,2600001
-0,29
-0,2
-0,08000004
0,28
1,41
1,35
1,43
1,27
0,5700001
0,54
-0,58
-0,13
-0,3
-0,47
-0,49
-0,02999997
-0,03999999
0,32
0,19
0,26
-0,4
-1,19
0,0999999
0,7800002
0,46
0,92
0,21
-0,34
-1,1
-1,47
-1,3
-1,32
-0,75
-0,46
-0,42
-0,78
-0,05000001
-0,06
-0,65
-1,13
-1,14
-1,19
-1,27
-0,92
-1,34
-1,45
-1,77
-1,6
-1,08
-1,48
-1,36
-0,92
-1,25
-0,91
-1,06
-0,91
-1,5
-1,16
-0,49
-0,41
-0,07
0,26
0,5700001
0,53
-0,5600001
-0,17
1,21
1,06
0,54
0,59
-0,29
-0,29
-0,53
-0,48
-0,4
-0,42
-0,8300001
-0,49
-0,29
-0,2
0,58
0,3
1,34
0,98
1,09
1,41
1,13
1,06
0,59
1,08
1,32
1,71
1,62
0,35
0,43
0,39
0,34
-0,6
-0,66
-0,5700001
-0,56
-0,73
-0,64
-1,08
-0,6
0,42
0,8000001
0,72
1,58
1,16
0,82
0,48
0,01999998
0
-0,1
-0,06999999
0,11
0,19
0,34
0,4299999
0,4900001
0,1499999
-0,1400001
-0,25
-0,13
0,09000003
0,4800001
-0,29
-0,91
-1,09
-1,37
-1,43
-1,33
-0,62
-0,54
-0,79
-1,16
-0,89
-0,53
-0,8300001
-1,5
-1,39
-1,73
-1,47
-0,95
-0,96
-1,31
-1,38
-1,36
-1,01
-1,23
-1,35
-1,24
-1,1
-1,07
-1,31
-1,5
-0,7
-0,65
-0,1
0,23
0,19
0,12
-0,02999997
-0,78
1,05
0,9
0,64
0,8400001
-0,21
-0,12
-0,2
-0,19
-0,04000002
-1,08
-1,42
-1,13
-0,18
0,1
-0,07999998
0,8
0,66
0,76
0,9900001
0,73
0,58
0,71
1,27
1,34
1,36
1,3
1,04
1,25
0,46
0,43
-0,49
-0,01999998
-0,5
-0,6900001
-1,1
-0,96
-0,7600001
-1,33
-1,15
-1,19
-0,13
0,63
0,59
0,8800001
0,65
0,42
-0,43
0,1
-0,27
-0,3
-0,13
-0,28
0,02999997
-0,16
0,43
0,34
0,5300001
-0,1
-0,23
0,8800001
0,9400001
0,94
1,14
-0,17
-0,89
-1,1
-1,23
-0,9900001
-0,61
-0,01999998
-0,25
-0,11
0,4
-0,22
-0,35
-0,96
-1,38
-1,12
-1,11
-0,8600001
-0,67
-1,46
-1,18
-0,74
-0,65
-1,12
-1,25
-1,25
-1,43
-1,14
-1,19
-1,26
-0,81
-0,53
-0,33
0,13
0,08
-1,05
-0,33
-0,06
1,04
1,16
0,4
0,03999999
0,24
0,28
0,21
-0,36
-1,02
-1,92
-1,28
-0,7600002
-0,8000001
-0,8700001
0,04999995
0,89
0,61
0,3800001
1,37
1,12
1,04
0,31
0,4400001
0,53
0,5700001
0,41
0,6900001
-0,27
-0,19
-0,18
-0,14
-0,04000002
-0,7900001
-1,36
-1,31
-1,54
-0,66
-0,32
-0,6900001
-0,93
-0,4400001
-0,3
0,67
1,38
0,73
0,16
-0,17
-0,24
0,32
0,27
0,11
-0,31
-0,63
-0,26
0,1
-0,17
0,42
1,07
0,96
-0,17
0,78
0,78
0,43
0,35
-1,18
-0,65
-0,8700001
-0,64
-0,47
-0,22
0,05000001
0,02999997
-0,1399999
0,1900001
0,35
0,14
-1,27
-1,25
-1,11
-1,69
-0,63
-1,17
-0,6
-0,77
-0,3
-0,74
-0,92
-1,14
-1,16
-1,45
-1,06
-1,14
-0,6900001
-0,52
-0,52
-0,33
0,16
-0,59
-0,7499999
1,08
0,73
0,47
0,52
0,24
0,22
0,38
-0,47
-0,53
-0,92
-0,95
-0,7
-1,04
-1,13
-0,65
-0,4499999
0,1500001
1,67
0,3
0,34
0,75
0,5700001
-0,03999999
-0,09000003
-0,23
0,23
0,58
1,01
0,38
-0,19
-0,8300001
0,27
-0,07999998
-0,21
-0,6900001
-0,93
-0,5
-1,7
-1,14
-1,29
-0,9800001
-0,8700001
-0,09999999
0,67
0,38
-0,15
-0,32
-0,00999999
-0,05000001
0,52
0,53
-0,2
0,16
0,26
0,29
-0,09000003
-0,44
0,25
0,15
0,31
0,53
0,86
1,24
1,46
0,5
-0,32
-0,93
-0,84
-0,14
-0,02000001
0,05000001
0,35
-0,19
0,07999998
0,42
0,12
-0,2400001
-0,1199999
-1,38
-1,59
-1,26
-0,61
-0,44
-0,75
-0,73
-0,63
-0,5
-0,65
-0,81
-0,6
-1,09
-0,76
-0,35
-0,5600001
-0,33
-0,04000002
-0,02000001
-0,07
0,17
-0,2
0,47
1,41
0,72
-0,03
-0,43
-0,13
-0,32
0,67
-0,16
-0,43
-0,46
0,27
-1,08
-0,67
0,36
0,54
0,4
0,49
0,98
1,12
0,77
-0,28
-0,34
-0,74
-1,03
-0,09
0,7
0,66
-0,19
-0,14
-0,17
-0,18
0,00999999
0,01999998
-0,8600001
-0,8700001
-0,73
-0,71
-1,22
-0,9
-0,61
-0,8800001
-0,49
-0,07999998
-0,15
-0,17
-0,29
-0,28
-0,01999998
-0,27
0,76
0,09
0,7499999
0,24
0,52
-0,15
-0,66
-0,95
-0,2
0,2600001
0,67
0,51
1,46
1,47
1,23
0,62
-0,64
-0,5
-0,12
-0,27
0,06999999
0,21
0,51
-0,22
0,23
0,44
-0,09000003
-0,5600001
-0,9
-1,46
-1,31
-1,12
-0,52
-0,83
-0,6
-0,56
-0,03
-0,53
-0,21
-0,42
-0,52
-0,6900001
-0,51
-0,29
0,22
-0,52
-0,54
-0,47
0,18
0,73
0,76
0,21
0,43
-0,06
-0,04000002
0,25
1,08
0,66
-0,59
-1,12
-0,66
-0,4
-0,66
-0,8500001
0,05999994
0,59
-0,18
0,18
0,8700001
0,89
0,03999999
-0,41
-0,6
-0,6
-0,35
-0,15
-0,48
0,19
0,16
0,14
0,07999998
-0,23
-0,14
-0,13
-0,73
-0,63
-0,96
-0,77
-0,19
-0,8500001
-0,7499999
-0,6900001
-0,55
-0,59
-0,36
0,48
0,26
-0,27
0,25
-0,07999998
0,55
0,77
0,45
0,78
0,3800001
-0,93
-1,6
-1,67
0,29
0,1
0,13
0,58
0,49
1,36
1,49
1,06
0,03
0,37
1,38
0,6800001
0,34
0,8800001
1,27
0,8200001
1,03
0,73
1,03
0,59
-0,5500001
-0,5400001
-1,01
-0,8200001
-0,36
-0,37
0,19
0,21
0,22
-0,02000001
0,07999998
0,19
0,06999999
-0,19
-0,16
-0,3
-0,07999998
-0,13
-0,59
-0,11
0,32
1,28
0,14
0,78
0,44
0,16
0,17
0,5600001
0,39
-0,08000004
-0,8600001
-0,06
-0,16
0,21
-0,5300001
0,22
-0,39
-0,8600001
-0,2600001
0,2600001
0,8700001
0,67
-0,36
-0,85
-0,01999998
-0,32
-0,59
-0,6800001
-0,16
0,06999999
-0,3
-0,03999999
-0,18
-0,06
-0,03999999
0,27
0,22
-0,9
-0,96
-0,8300001
-0,8500001
-1,28
-1,08
-0,61
-0,37
-0,7600001
-0,25
0,75
0,04000002
0,81
0,6900001
0,18
-0,18
0,64
1,12
1,14
0,14
-1,41
-1,6
-1,65
-0,16
0,25
0,42
0,00999999
0,82
0,67
1,62
1,39
1,44
0,4
0,9
0,8
0,6900001
0,86
1,4
0,94
0,85
0,54
0,41
0,7399999
0,82
0,7599999
0,18
-0,3800001
-0,32
-0,18
-0,17
0,37
0,00999999
0,01999998
0,43
0,42
0,1
-0,22
0,23
-0,2
0,09999999
-0,2
-0,23
-0,14
0,31
1,65
0,8
0,53
0,81
0,48
1,28
0,16
0,7399999
-0,43
-0,61
-0,41
-0,03
-0,54
-0,67
-0,33
-0,84
-0,7
0,33
0,39
0,83
0,04000002
-0,12
-0,38
-0,63
-0,73
-0,2
-1,49
-0,8700001
0,09999999
-0,06000002
-0,16
-0,73
-0,35
-0,48
-0,24
-0,03999996
-0,06
-0,6
-0,51
-0,5600001
-0,02999997
-0,67
-0,47
-0,5700001
-1,27
0,45
0,63
0,45
0,25
0,34
0,2
0,06
0,5700001
1,12
0,8700001
-0,02999997
-0,63
-0,94
-1,46
-0,5200001
0,37
0,13
-0,26
0,23
1,04
1,21
1,51
1,73
0,76
0,31
1,01
1,39
1,14
0,95
1,46
0,7
0,64
1,39
0,33
0,91
0,66
1,06
0,67
-0,25
0,04000002
0,06999999
0,5
0,93
0,74
0,6900001
0,8800001
0,8800001
0,26
-0,29
0,27
0,14
0,19
-0,09999999
0,18
0,81
1,33
1,59
1,78
0,8300001
1,42
0,31
0,42
-0,09000003
0,25
-0,14
-0,06999999
-0,52
-0,06999999
-0,58
-0,89
-0,6900001
-0,55
0,28
0,19
0,66
0,41
0,58
0,09000003
-0,83
-0,8800001
-0,47
-0,68
-0,6800001
-0,82
-0,49
-0,6900001
-0,46
-0,89
-0,19
0,18
0,27
-0,13
0,13
-0,7700002
-0,8700001
-0,35
-0,32
-0,8300001
-0,93
-1,05
-0,4
-0,25
-0,06
-0,3
-0,24
-0,52
-0,09000003
-0,3
0,42
0,39
-0,4499999
-1,2
-1,89
-0,9999999
-1,41
0,38
0,5
-0,17
0,43
0,25
0,98
0,37
1,01
0,13
-0,26
0,02999997
0,51
0,7499999
1,06
1,01
1,03
0,8
1,01
1,41
1,02
1,28
1,77
1,12
0,62
-0,27
0,3
0,43
1,09
0,91
0,63
0,8600001
1,16
0,52
0,02999997
0,24
0,05000001
-0,15
0,23
-0,28
0,36
0,73
1,43
1,9
1,46
0,62
0,47
-0,85
0,14
0
-0,04000002
0,24
0,19
-0,00999999
-0,22
-0,9
-0,8
-0,63
-0,2
0,4
0,55
0,8500001
0,17
-0,21
-0,5
-0,53
-0,23
-0,01999998
-0,49
-0,6800001
0,05000001
-0,32
-0,33
-0,52
-0,16
0,58
0,14
-0,13
1,16
-0,6
-0,7499999
-0,36
-0,00999999
-0,72
-0,55
-1,42
-1,13
0,2600001
-0,7600001
-0,5700001
-0,17
-0,23
-0,2600001
0,12
0,06
0,11
-0,35
-1,06
-0,31
-1,32
-1,55
0,18
0,24
-0,39
-0,05000001
0,28
0,5700001
0,7
1,04
0,6900001
-0,14
0,23
0,61
0,7
0,8500001
0,91
1,75
1,79
1,83
1,82
0,9
1,3
1,34
1,28
0,6800001
1,48
1,13
-0,16
0,62
0,93
0,63
1,19
0,77
0,67
0,64
0,5600001
0,59
-0,23
-0,06999999
-0,24
0,71
0,86
1,02
1,24
1,36
1,39
0,66
0,24
0,47
0,65
-0,15
-0,05000001
0,09999999
-0,03
0,18
-0,46
-0,5600001
-0,44
-0,17
-0,34
0,35
0,42
0,38
-0,19
-0,54
-0,44
-0,25
-0,37
-0,55
-0,32
-0,29
-0,12
-0,54
-0,33
-0,1
-0,27
0,8800001
0,39
1,11
0,18
-0,08000004
0,29
-0,03999996
-0,34
-0,4299999
-0,8300001
-1,02
0,49
-0,71
0,2
0,22
0,43
0,24
0,5600001
0,31
-0,00999999
-0,42
-0,59
-0,63
-0,91
-1,67
-0,48
-0,12
-0,11
0,03
0,27
0,19
0,43
0,67
1,34
0,76
0,24
0,84
1,14
0,64
1,25
1,35
2,21
2,63
2,69
2,07
1,65
1,24
1,35
0,95
1,37
1,13
0,7
1,15
1,11
1,05
0,8700001
1,02
1,11
0,94
0,6900001
0,4
0,06999999
-0,06999999
0,2
0,18
0,35
0,12
0,65
0,63
0,8700001
-0,11
-0,00999999
0,51
0,55
0,13
0,06999999
0,06999999
-0,03
-0,29
0,58
-0,83
0,02999997
-0,77
-1,05
-0,5700001
0,68
0,17
0,16
-0,31
0,19
0,42
0,02000001
-0,71
-0,96
-0,35
-0,52
-0,12
-0,5700001
-0,19
0,22
0,02999997
0,58
0,71
0,38
-0,01999998
0,24
-0,12
0,29
-0,23
-1,12
-1,01
-1,06
-0,41
-0,24
-0,29
-0,23
0,23
-0,23
-0,14
-0,51
-0,13
-0,64
-0,84
-1,66
-1,65
-1,64
-1,41
-0,04000002
-0,3
-0,25
0,18
0,94
1,06
0,9900001
0,84
1,28
0,81
0,35
1,07
0,9900002
1,4
2,28
2,48
2,01
2,09
2,07
1,62
1,93
2,32
1,37
1,34
1,31
0,7600001
0,92
0,95
0,67
1,12
0,5700001
1,12
1,01
0,74
0,21
-0,00999999
-0,28
-0,11
-0,45
0,28
0,4
0,42
0,22
-0,14
-0,12
0,19
0,37
-0,12
0,29
-0,13
-0,15
-0,16
0,17
-0,86
-0,34
-0,8700001
-0,48
-0,6900001
0,06999999
0,18
0,43
-0,56
0,17
0,46
0,23
-0,78
-1,15
-0,36
-0,02000001
-0,12
-0,24
-0,59
-0,16
0,89
0,62
0,61
0,89
0,00999999
-0,05000001
-0,39
-0,22
-0,47
-1,15
-1,01
-0,53
-0,77
-0,5600001
-0,23
-0,43
-0,42
-0,14
-0,2
-0,49
-0,34
-1,06
-1,14
-0,96
-2,04
-2,18
-1,45
-0,77
-1,08
-0,4
0,1
0,9999999
0,43
0,89
0,78
0,62
0,25
-0,5700001
-0,19
0,8500001
0,7499999
1,89
2,09
2,08
2,68
2,48
2,2
1,87
1,78
1,27
1,3
1,22
1,46
0,8
0,77
0,74
0,85
0,66
1,43
0,6800001
1,09
0,38
0,26
-0,06999999
-0,05000001
-0,52
-0,37
-0,17
-0,45
-0,25
-0,38
-0,76
-0,26
0,45
-0,05000001
0,17
0,44
-0,22
0,26
0,5700001
-0,78
-0,02999997
-0,7600001
-0,8500001
0,1
0,07999998
0,44
0,22
-0,18
-0,56
0,06
-0,11
-0,8
-1,17
-0,55
-0,53
-0,47
-0,24
-0,28
0,19
0,75
0,5700001
0,8200001
0,53
-0,15
-0,03999999
-0,33
-0,5
-0,35
-1,2
-1,51
-0,73
-0,8
-0,35
-0,35
-0,08000004
-0,37
-0,4
0,13
-0,73
-0,96
-1,19
-1,2
-1,39
-1,52
-1,78
-1,77
-0,59
-0,51
-0,43
-0,26
0,3800001
0,65
0,37
-0,48
-0,7499999
-0,55
-0,09000003
0,5
0,43
0,4
0,63
1,47
2,22
2,45
2,59
1,88
1,95
2,17
1,33
1,64
1,72
1,73
1,05
0,84
0,74
1,16
0,7
1,45
1,32
0,8200001
0,85
0,31
0,37
-0,05000001
-0,6900001
-0,49
-0,8800001
-0,48
-0,8
-0,74
-0,29
-0,3
0,29
0,06000002
0,5
0,33
0,48
0,05000001
0,68
-0,66
-0,12
-0,36
-0,64
-0,27
0,12
-0,16
0,19
-0,48
-0,32
-0,12
-0,36
-0,64
-1,13
-0,9900001
-0,46
-0,58
-0,4
-0,14
0,14
0,37
0,05000001
0,62
0,5600001
0,26
-0,18
-0,39
-0,36
-0,81
-0,8600001
-1,7
-0,82
-0,55
-0,74
-0,42
-0,27
-0,89
-0,26
-0,26
-0,47
-1,14
-1,28
-1,3
-1,06
-1,59
-1,59
-1,45
-0,68
-0,83
-0,39
0,18
0,12
0,31
-0,39
-1,19
-1,02
-1,04
-0,33
-0,00999999
0,2
0,8000001
0,8000001
0,9999999
1,58
1,67
2,2
2,29
2,19
1,99
0,77
0,73
1,77
0,7600001
0,33
0,37
0,75
1,05
1,37
0,95
0,9400001
1,26
1,18
0,46
0,18
-0,14
-0,32
-0,84
-0,77
-0,75
-0,31
-0,73
-0,26
-0,25
0,43
0,53
0,46
0,42
0,42
0,5600001
0,41
-1,18
-0,05000001
-0,5700001
-0,7
-0,22
0,5
0,56
0,58
-0,47
-0,45
-0,28
-0,32
-0,6800001
-1,26
-0,77
-0,39
-0,5700001
-0,09000003
-0,39
0,19
-0,26
0,35
-0,06
0,79
-0,3
0,07999998
-0,38
-0,28
-0,81
-0,9900001
-1,77
-0,8700001
-0,6900001
-0,36
-0,58
-0,19
-0,65
-0,03999996
0,09999999
-0,35
-0,89
-1,13
-1,5
-1,21
-1,83
-1,62
-1,08
-0,8
-1,2
-0,89
-0,48
0,2
0,2
-0,23
-1,14
-0,64
-0,6
-0,17
-0,41
0,29
0,28
0,8400001
1,98
1,71
1,91
2,39
2,17
2,08
1,42
0,92
1,15
1,57
0,71
0,5600001
0,17
0,56
0,64
1,15
0,8200001
1,01
1,46
1,01
0,32
0,07000001
-0,21
-0,17
-0,18
-0,46
-0,73
-0,55
-0,8
-0,18
-0,24
0,7
0,5700001
0,37
0,49
0,68
0,47
0,27
-0,19
-0,16
-0,42
-0,33
-0,24
0,35
-0,21
0,24
-0,11
-0,5
-0,08000001
-0,55
-1
-1,42
-1,47
-0,7399999
-0,39
-0,5
-0,18
0,28
-0,14
0,23
-0,2
0,7599999
0,22
0,42
0
-0,3
-0,32
-1,4
-1,43
-0,64
-0,83
-0,05000001
-0,31
-0,19
-0,68
0,03999996
-0,29
-0,8600001
-0,8700001
-1,02
-1,55
-1,73
-1,37
-1,76
-1,28
-0,32
-0,83
-0,8
-0,45
0,07999998
0,26
-0,72
-1,4
-0,72
-1,17
-0,8800001
-0,55
0,2300001
0,04000002
0,6900001
1,75
1,58
1,22
1,75
1,18
1,15
1,88
1,11
1,14
1,37
0,6900001
0,38
0,24
0,5700001
0,5700001
0,63
0,33
1,07
1,1
1,21
1,12
0,48
-0,06000002
-0,01000002
-0,01000002
-0,42
-0,16
-0,49
-0,52
-0,1
-0,02
0,67
0,89
0,84
0,83
0,16
0,34
0,77
-0,5400001
0,27
-0,7
-0,44
-0,44
0,58
-0,02000001
0,18
-0,37
-0,77
-0,4
-0,9
-0,92
-1,02
-1,17
-1,18
-0,74
-0,53
-0,16
-0,28
0,26
0,09000003
0,09999999
0,5600001
0,43
0,33
-0,12
-0,29
-0,52
-1,2
-1,76
-1,09
-0,62
-1,05
-0,5
-0,07999998
-0,79
-0,54
0,00999999
-0,34
-0,9
-0,79
-1,26
-1,5
-1,6
-2,32
-1,59
-0,8
-1,16
-0,94
-1,12
-0,14
-0,58
-0,8800001
-1,29
-0,63
-1,04
-0,37
-0,8700001
-0,48
-0,51
0,8600001
1,29
1,73
0,9900001
1,28
0,61
1,33
1,58
0,4
0,51
1,59
0,65
0,47
0,00999999
0,14
0,14
0,6900001
0,65
0,94
1,02
0,9800001
0,8700001
0,41
-0,38
-0,13
-0,21
-0,04000002
-0,36
-0,47
-0,54
-0,12
-0,27
0,78
0,76
0,94
0,00999999
0
0,21
0,42
0,06
0,07999998
-0,58
-0,67
-0,55
0,28
-0,2
0,44
-0,3
-0,84
-0,18
-0,84
-1,33
-1,52
-1,8
-1,49
-1,21
-0,62
0,00999999
-0,09
0,29
0,05000001
0,18
0,24
0,04000002
0,03
-0,24
-0,44
-0,6
-0,63
-1,67
-1,36
-0,72
-0,67
0,28
0,33
-0,55
0,03999999
0,05000001
-0,06999999
-0,5400001
-0,66
-0,94
-1,03
-1,5
-1,51
-1,2
-0,85
-1,32
-1,35
-1,45
-0,5700001
-0,61
-0,61
-1,68
-1,5
-1,01
-0,83
-1,02
-0,8800001
-0,09000003
0,5400001
0,7399999
0,62
0,52
0,58
0,48
1,44
1,49
0,86
0,86
0,84
0,52
0,67
0,44
0,04000002
0,6900001
0,61
0,84
0,65
0,92
0,91
1,18
1,05
-0,08000001
-0,2
-0,16
-0,12
-0,49
-0,03
-0,16
-0,02
0,15
0,33
0,00999999
0,72
0,4
0,53
0,24
0,62
0,1
-0,24
-0,55
-0,6900001
-0,12
0,1
-0,2
0,51
-0,15
-1,13
-0,6900001
-0,42
-1,07
-1,68
-1,51
-1
-0,95
-0,92
-0,21
0,12
0,13
0
0,42
0,32
0,72
0,27
-0,22
-0,41
-0,54
-0,89
-1,26
-1,35
-1,14
-0,3800001
-0,36
0,86
-0,05000001
0,06
0,56
-0,18
-0,9
-0,67
-1,17
-1,47
-1,15
-1,25
-1,05
-0,8800001
-1,47
-1,4
-1,04
-0,18
-0,46
-0,78
-1,62
-1,7
-1,27
-0,8700001
-0,8200001
-0,6900001
-0,29
0,51
0,7399999
0,73
0,4299999
0,96
1,02
1,41
1,38
0,33
0,25
0,48
0,31
0,5700001
0,72
-0,11
0,8700001
0,6900001
0,86
0,7600001
1,32
0,95
0,7600001
0,85
-0,46
-0,48
-0,59
-0,37
-0,27
-0,46
0,03
-0,09
0,28
0,35
0,4
0,68
0,38
0,19
0,2
1,19
0,13
0,54
-0,16
-0,9
-0,45
0,58
0,4
0,46
-0,31
-0,92
-1,07
-0,47
-1,13
-1,89
-1,72
-0,95
-1,45
-0,71
-0,02000001
0,00999999
0,05000001
-0,12
0,17
0,03
0,59
0,02999997
0,2
0,26
-0,14
-0,5700001
-1,39
-1,43
-1,01
-0,33
-0,5700001
0,78
-0,09999999
-0,7499999
0,09000003
-0,4399999
-0,8800001
-0,7600002
-0,67
-0,8600001
-1,49
-0,41
-0,7600001
-0,84
-0,93
-1,36
-1,17
-0,12
-0,39
-0,42
-1,57
-1,56
-1,14
-1,09
-0,9
-0,18
-0,53
0,4399999
0,89
1,16
0,77
0,65
0,54
1
1,38
0,49
0,34
0,19
0,4
0,41
1,19
0,2
0,24
0,43
0,32
1,3
1,38
1,34
1,18
0,62
-0,31
-0,38
-0,45
-0,3
-0,27
-0,52
-0,18
0,09
-0,15
0,27
0,39
0,77
0,44
0,5700001
0,47
0,85
-0,06
0,34
0,17
-0,8300001
-0,21
0,7399999
0,08000004
0,1
0,19
-0,27
-0,61
-0,97
-1,42
-1,61
-1,57
-1,27
-1,35
-0,93
-0,64
-0,05000001
-0,09999999
0,23
0,06999999
0,4
0,97
0,54
0,33
-0,18
-0,58
-0,79
-1,15
-1,53
-0,94
-0,53
-0,75
0,74
0,26
-0,09000003
0,22
-0,46
-1,07
-0,8500001
-0,8
-0,31
-1,42
-0,41
-1,49
-0,65
-0,8700001
-1,34
-1,18
-0,43
-0,3
-0,3800001
-1,45
-1,19
-0,63
-1,13
-1,2
-0,45
-0,49
0,5600001
1,27
1,28
1,17
0,32
0,5700001
0,6
0,94
0,09000003
0,2600001
0,53
0,35
0,72
1,01
-0,16
-0,17
0,37
0,91
1,38
1,43
1,27
0,9900001
0,75
-0,52
-0,12
-0,03
-0,26
-0,28
-0,16
0,16
-0,12
-0,39
0,37
0,33
0,47
0,5700001
0,01999998
0,01999998
0,96
0,22
0,3
0,21
0,24
-0,11
0,08000004
0,12
0,78
-0,8
-0,1
-0,42
-0,7
-1,45
-1,69
-1,89
-1,17
-1,63
-0,98
-0,9
-0,82
-0,2600001
-0,07999998
0,27
0,49
0,8200001
0,37
0,32
0,28
-0,82
-0,96
-1,04
-1,4
-0,86
-0,35
-0,34
0,82
-0,45
-0,7599999
0,2600001
0,29
-0,5500001
-0,8100001
-0,97
-0,49
-0,94
-0,64
-1,37
-0,81
-0,75
-0,61
-1,2
-0,85
-0,58
-0,37
-1,19
-0,91
-0,8800001
-0,59
-1,19
-0,49
0,06
1,04
1,29
1,36
0,94
0,37
0,45
0,1
1,05
0,29
0,17
0,01999998
0,55
0,6
0,92
0,25
0,59
0,76
0,83
1,15
1,14
1,42
1,02
0,6900001
-0,36
-0,2
-0,22
-0,5
-0,07000001
-0,33
-0,41
-0,16
-0,47
0,15
0,23
0,51
0,6
0,67
0,37
0,78
-0,2
1,22
0,84
0,16
-0,19
0,58
-0,2
0,31
-0,39
-0,54
-0,31
-0,74
-2,02
-1,75
-1,64
-1,07
-1,49
-1,2
-0,98
-0,96
-0,32
0,05000001
-0,13
0,17
0,6900001
0,33
0,18
0,1
-0,53
-0,79
-0,66
-1,29
-0,82
-0,86
-0,75
0,52
-0,32
-0,34
-0,03
-0,05000001
-0,3
-0,5300001
-0,71
-1,04
-0,63
-0,8800001
-1,15
-0,83
-0,62
-0,81
-0,41
-0,9
-0,7499999
-0,47
-0,4
-0,85
-0,75
-0,24
-0,53
-0,52
-0,21
0,89
1,44
0,9900001
1,01
0,37
-0,53
-0,27
0,5
0,84
0,44
0,05000001
0,01999998
0,86
1,13
0,51
0,75
0,3
0,8
1,26
1,47
1,01
0,71
0,8700001
-0,39
-0,06000002
-0,54
-0,05000001
-0,46
-0,51
-0,53
-0,39
0,19
0,18
0,16
0,3
0,73
0,6900001
0,34
1,09
0,55
1,22
0,46
0,33
0,25
0,13
0,27
0,49
-0,71
-0,00999999
-0,71
-1,06
-1,64
-2,7
-2,3
-1,22
-1,93
-1,54
-1,02
-0,73
-0,59
-0,18
-0,11
0,11
0,47
-0,38
-0,4399999
-0,16
-0,51
-0,67
-1,43
-1,74
-0,64
-0,9
-0,79
-0,35
-0,36
-0,53
-0,28
-0,5300001
-0,33
-0,73
-1,14
-1,05
-0,41
-0,6800001
-1,45
-1,02
-0,82
-1,02
-0,78
-0,44
-0,39
-0,13
-0,42
-0,78
-0,47
0,05000001
-0,14
-0,28
-0,04000002
0,72
1,29
1,15
0,81
0,43
-0,42
0,16
-0,11
0,45
0,04000002
0,1
0,84
0,7
1,09
0,43
0,36
0,64
1,11
1,44
1,07
1,48
0,96
0,8
-0,49
-0,09000002
-0,46
-0,52
-0,49
-0,62
-0,19
-0,42
0,51
0,59
0,1
0,74
0,37
0,4
0,83
0,96
0,34
0,79
0,89
0,22
0,14
0,62
-0,38
0,11
-0,63
-0,55
-0,84
-0,81
-1,36
-1,88
-2,56
-1,22
-1,44
-1,62
-1,36
-0,61
-0,92
-1,11
-1,16
-0,4
-0,27
-0,15
-0,12
-0,06
-0,61
-1,15
-1,45
-1,24
-1,1
-1,06
-1,3
-0,01999998
-0,61
-0,77
-0,54
-0,81
-0,91
-1,17
-1,4
-1,14
-0,38
-0,28
-0,8700001
-0,31
-0,16
-0,78
-0,83
0,18
0,55
-0,06999999
0,06999999
-0,66
-0,7599999
-0,22
-0,42
-0,02000001
-0,17
0,8700001
1,31
1,42
0,59
0,1
-0,02000001
0
0,00999999
-0,14
0,59
0,53
0,42
0,65
1,2
0,85
0,58
0,8800001
0,8800001
1,2
1,02
1,39
0,6900001
0,77
-0,03
-0,44
-0,6
-0,44
-0,83
-0,34
-0,16
-0,1
0,54
0,37
0,55
0,31
0,51
0,78
0,96
0,72
0,34
0,93
0,5700001
0,28
-0,17
0,74
0,06
0,5
-0,3800001
-0,79
-0,95
-0,75
-0,8
-1,92
-2,24
-1,87
-1,62
-1,56
-0,65
-1,08
-1,11
-1,08
-0,6800001
-0,8500001
-0,28
-0,52
-0,32
-0,2600001
-0,51
-0,91
-1,46
-1,4
-1,28
-1,34
-0,64
-0,52
-1,29
-1,09
-0,86
-0,78
-0,8
-1,11
-0,97
-0,35
-0,59
-0,32
-1,4
-0,84
-0,39
-0,59
-0,47
0,26
0,23
0,24
-0,28
-0,68
-0,5
0,22
-0,05000001
-0,56
-0,14
0,32
1,01
0,8300001
0,36
0,44
-0,37
-0,06
0,82
0,38
0,31
0,67
0,5
1,32
1,22
0,6
0,18
0,8700001
0,63
0,93
1,48
1,12
0,73
0,97
-0,14
-0,52
-0,73
-0,33
-0,76
-0,5600001
-0,02000001
-0,31
0,45
0,59
0,56
0,67
0,8800001
0,9
1,08
1,06
0,65
1,06
0,14
0,13
-0,00999999
0,35
0,36
0,4
-0,08000004
-0,8800001
-1,47
-0,48
-1,02
-1,58
-2,04
-1,27
-1,62
-1,77
-1,14
-0,62
-0,93
-0,35
-1,1
-1,03
-0,5
-0,58
-0,09000003
-0,4
-0,15
-0,96
-1,19
-1,92
-1,41
-1,33
-1,22
-1,09
-1,12
-1,2
-0,83
-0,5
-0,8800001
-0,8400001
-1,15
-0,79
-0,59
-0,75
-1,4
-0,37
-0,08000004
-0,5700001
-0,42
0,24
0,83
0,79
-0,41
-0,51
-0,54
-0,04000002
-0,8700001
-0,02999997
-0,16
0,4499999
0,8500001
1,17
0,6
-0,16
-0,27
-0,59
-0,06999999
0,24
0,15
0,18
0,8600001
1,15
0,8600001
0,5
0,2
0,58
1,06
0,8500001
1,12
1,18
0,5700001
0,72
-0,55
-0,83
-0,35
-0,71
-0,33
-0,42
-0,55
-0,49
0,27
0,1
0,26
0,47
1,01
0,67
1,31
0,7600001
0,41
0,6800001
0,59
0,58
0,17
0,6
0,28
0,8700001
-0,68
-0,92
-1,01
-1,42
-1,71
-1,73
-2,05
-1,35
-1,33
-1,38
-0,9800001
-1,27
-1,31
-0,7599999
-0,27
-0,5500001
-0,71
-0,8600001
-0,39
0,16
-0,31
-1,41
-1,71
-1,68
-1,64
-1,2
-1,07
-0,77
-0,91
-1,21
-0,95
-0,55
-0,81
-0,33
-0,64
-0,62
-0,02000001
-0,33
-1,49
-0,71
-0,55
-0,19
0
0,28
0,15
0,18
-0,34
-0,93
-0,55
-0,37
-0,52
0,43
-0,22
0,41
0,28
0,43
0,19
-0,53
-0,39
-0,51
-0,06
-0,39
-0,15
0,47
0,77
1,07
1,03
0,22
-0,13
0,34
0,96
0,8200001
0,92
0,62
0,71
0,77
-0,21
-0,5
-0,63
-0,32
-0,5700001
-0,74
-0,82
-0,25
0,51
0,42
0,86
1,17
0,89
1,03
0,6900001
0,51
-0,25
0,21
0,25
-0,1700001
-0,35
-0,18
-0,1900001
0,27
-0,8600001
-1,46
-1,71
-1,8
-1,94
-1,95
-2
-1,14
-1,2
-1,4
-0,8700001
-1,11
-1,11
-0,97
-0,8400001
-0,8300001
-1,07
-1,4
-1,25
-0,8500001
-0,9999999
-1,34
-0,6800001
-2,07
-1,25
-1,05
-1,03
-1,1
-1,13
-0,93
-0,6800001
-0,94
-0,62
-0,61
-0,67
-0,32
-0,53
-0,52
-1,32
-0,55
-0,29
-0,41
0,26
-0,12
-0,21
0,29
-0,79
-1,39
-0,75
-1,03
-0,91
-0,15
-0,13
-0,24
0,36
0,47
0,41
-0,55
0,03999996
-0,29
-0,32
-0,00999999
-0,00999999
0,01999998
0,47
0,97
0,71
0,1
0,29
0,67
1,2
0,95
1,11
0,79
0,63
0,6
-0,11
-0,5600001
-0,67
-0,64
-0,5700001
-0,55
-0,65
-0,41
-0,03
0,37
0,39
0,52
0,82
0,65
0,46
0,00999999
-0,56
0,47
-0,53
0,00999999
0,2
0,2400001
-0,6
-0,58
-0,72
-1,49
-1,69
-2,03
-1,63
-1,86
-2,17
-1,52
-1,18
-0,85
-0,62
-1,13
-1,39
-1,13
-0,33
-0,97
-1,46
-1,11
-1,16
-0,8
-1,23
-1,32
-1,03
-2,16
-1,29
-0,91
-1,19
-1,46
-0,79
-1,49
-1,4
-0,05000001
-0,8700001
-0,9900001
-0,8200001
-0,58
-0,37
-0,43
-1,18
-0,27
-0,47
-0,5
-0,71
-0,7399999
-0,23
-0,22
-1,61
-1,24
-1,01
-1,06
-0,63
-0,5
-0,71
-0,41
0,34
0,29
0,14
0,47
-0,7399999
-0,13
0,23
0,19
-0,14
-0,29
0,5500001
0,32
0,34
0,5
0,29
0,8500001
1,19
0,7600001
0,97
0,31
0,8700001
1,06
-0,01000002
-0,6
-0,44
-0,48
-0,51
-0,8600001
-1,05
-0,93
0,34
0,59
0,36
0,43
0,7599999
-0,22
0,48
0,05000001
0,00999999
0,14
-0,51
0,5400001
-0,06
-0,42
-0,09000003
-0,25
-0,8600001
-1,22
-1,24
-1,87
-1,66
-2
-1,77
-1,63
-0,6800001
-0,73
-0,6
-0,77
-1,19
-0,8700001
-0,5300001
-1,01
-1,46
-1,02
-1,23
-0,64
-0,65
-0,9900001
-0,8600001
-1,6
-1,13
-0,66
-1,05
-0,98
-0,38
-0,5700001
-0,38
0,11
-1,12
-0,79
-1,12
-1,09
-0,83
-0,6900001
-1,37
-0,97
-0,95
-0,71
-0,4
-0,32
-0,22
-0,56
-1,47
-0,93
-1,44
-1,6
-0,4
-0,54
-0,39
-0,35
0,09000003
-0,17
-0,36
0,05000001
-0,44
0,19
0,54
-0,19
-0,06
-0,11
0,8500001
0,49
0,05000001
0,2
0,25
1,16
1,31
0,72
0,65
0,63
0,6
0,66
-0,6
-0,54
-0,18
-0,5700001
-1
-0,73
-1,05
-0,59
0,42
0,45
0,49
0,73
-0,29
0,25
0,47
-0,29
-0,26
0,5300001
0,28
0,14
0,2400001
-0,59
-0,28
-0,11
-0,92
-0,77
-0,58
-1,7
-1,41
-1,73
-1,79
-1,33
-0,96
-1,17
-0,48
-0,43
-0,67
-0,77
-0,31
-1,14
-0,95
-0,97
-0,84
-0,2
-0,31
-0,6900001
-0,41
-1,21
-1,41
-0,81
-1,42
-1,09
-0,56
-0,44
-0,49
0,58
-0,5700001
-0,07000001
-0,86
-0,83
-0,75
-1,45
-1,28
-1,15
-1,06
-1,18
-0,72
-0,63
-0,18
-0,31
-1,42
-0,9900001
-0,97
-1,58
-1,02
-0,89
-0,65
0,52
0,49
0,37
0,24
0,01999998
-0,3
0,59
0,58
-0,11
0,1299999
0,07999998
0,8100001
0,14
0,13
-0,00999999
0,09000003
1,12
1,11
1,1
0,6
0,9
0,8500001
1,17
-0,28
-0,09000002
-0,13
-0,2
-0,9
-0,73
-0,43
-0,48
-0,03
0,1
0,33
0,11
-0,27
-0,03999996
0,42
-0,18
-0,26
0,22
0,06
0,5400001
0,18
-0,2
-0,24
-0,01999998
-0,45
-1,12
-1,08
-1,79
-2,1
-2,12
-2,1
-1,56
-1,24
-0,6800001
-0,86
-0,58
-0,46
-0,4
0,29
-1,09
-1,19
-0,89
-0,49
-0,19
-0,5
-1,18
-0,64
-1,08
-1,41
-0,82
-1,04
-0,83
-0,06999999
-0,6
-0,22
0,52
-0,15
-0,41
-0,36
-0,09000003
0,03999996
-1,04
-1,09
-0,31
-1,11
-0,8200001
-0,76
-1,09
-0,6900001
-0,5
-1,23
-1,07
-0,67
-0,66
-1,27
-1,03
-0,61
0,24
1,07
0,42
0,42
0,29
-0,07999998
0,51
0,72
0,2300001
-0,3
0,2600001
0,4299999
0,12
-0,13
0,25
0,55
0,67
1,26
0,7499999
0,79
0,71
0,91
0,31
0,17
-0,46
-0,4
-0,31
-0,8
-0,8800001
-0,77
-0,61
-0,23
-0,09
-0,37
-0,1
0,00999999
-0,18
0,08000004
0,03999996
0,24
0,19
-0,13
0,16
0,3799999
-0,12
-0,33
-1,11
-1,28
-1,48
-1,62
-1,64
-1,62
-2,03
-1,52
-1,33
-0,97
-0,75
-0,66
-0,63
0,09000003
-0,08000001
0,71
-0,5
-0,81
-0,59
-0,12
-0,08000004
-0,41
-1,23
-0,97
-1,37
-0,92
-0,89
-0,6900001
-0,61
-0,06
-0,75
-0,37
0,29
-0,13
-0,2
-0,54
-0,52
0,13
-0,93
-1,09
-0,00999999
-0,68
-0,84
-0,63
-0,75
-0,73
-0,8
-1,55
-1,79
-1,12
-0,53
-0,84
-1,13
-0,61
0,34
0,8
0,25
0,98
0,34
0,48
0,7599999
1,06
0,28
-0,07999998
0,67
0,52
0,55
0,1
0,29
1,05
1,22
1,76
1,02
1,4
1,39
1,2
1,02
-0,01
-0,22
-0,04000002
-0,43
-0,54
-0,7
-0,7
-0,73
0,09
-0,44
-0,31
-0,17
0,2
0,11
0,3
0,09000003
-0,22
0,24
-0,17
0,53
0,4299999
-0,71
-0,97
-0,9900001
-1,2
-1,24
-1,65
-2,05
-1,39
-1,87
-1,94
-1,1
-1,16
-0,83
-0,65
-0,9
-0,52
0,3
0,6900001
-0,64
-1,12
-0,55
-0,01999998
-0,54
-0,65
-1,24
-0,8200001
-1,46
-1,48
-1,03
-0,5700001
-0,05000001
-0,24
-0,54
-0,00999999
0,39
-0,16
-0,26
-0,14
0,1
0,04000002
-0,7600001
-1,14
-0,45
-0,31
-0,41
-0,21
-1,08
-0,15
-0,9
-1,8
-1,73
-0,75
-0,44
-0,45
0,07999998
-0,09000003
0,16
0,85
0,64
1,07
0,7
0,33
0,23
0,19
-0,39
-0,5700001
0,27
0,68
0,15
0,75
0,34
1,04
1,48
1,11
1,43
1,18
1,33
0,66
0,36
-0,14
-0,04
-0,41
-0,28
-0,14
-0,34
-0,51
-0,41
-0,1
-0,7
-0,42
-0,02999997
-0,22
-0,18
0,5300001
0,23
-0,49
0,12
0,25
0,38
0,15
-0,19
-0,2600001
-0,61
-0,16
-0,65
-0,97
-1,94
-1,55
-1,88
-2
-1,43
-1,11
-0,71
-0,73
-0,7
-0,09000003
-0,3
-0,23
-0,67
-0,49
-0,16
-0,24
-0,43
-0,33
-1,03
-0,65
-0,29
-1,15
-0,63
-0,79
-0,14
-0,12
-0,02000001
-0,1
0,65
0,22
0,19
-0,13
-0,1
0,01999998
-0,67
-0,96
-0,32
-0,8
-0,1900001
-0,43
-1,02
0,2500001
-0,8800001
-1,78
-1,7
-0,25
-0,89
-0,9400001
-0,6
0,05000001
0,7600001
0,62
1,46
0,89
1,11
0,11
0,8700001
0,1
0,2400001
-0,11
0,11
0,28
0,12
0,58
0,32
0,72
1,06
1,41
0,78
1,4
1,28
0,66
0,45
0,29
-0,23
0,06
-0,28
-0,35
-0,6
-0,2
-0,74
0,02000001
-0,11
-0,01000002
0,05000001
0,17
0,21
0,21
0,1
-0,49
0,2600001
0,17
-0,14
0,21
-0,84
-0,41
-1,07
-0,86
-0,61
-0,92
-1,92
-1,41
-2,03
-2,3
-0,64
-1,11
-0,74
-0,33
-0,08000001
-0,45
-0,22
0,00999999
-0,8
-0,77
0,32
-0,22
-0,21
-0,18
-0,97
-0,7499999
-0,39
-0,65
-0,79
-0,84
-0,37
0,2
0,5
0,54
1,42
0,17
0,23
0,28
-0,05000001
-0,28
-0,6900001
-0,83
0,24
0,09000003
-0,27
-0,35
-0,6
0,8300001
-0,02000001
-0,96
-0,28
-0,35
-0,8300001
-1,17
-0,42
0,58
0,7
1,2
0,71
1,04
0,96
0,53
0,58
0,3
0,17
0,36
0,19
-0,09000003
0,04000002
0,35
0,82
0,4
1,25
1,27
1,11
1,15
1,03
0,6
0,39
-0,03
0,14
-0,02
-0,03
-0,44
-0,26
-0,32
-0,78
0,17
-0,25
-0,06000002
-0,24
0,22
0,17
0,41
-0,64
0,28
0,08000001
-0,06999999
0,22
-0,02999997
-0,84
-0,82
-0,42
-0,3800001
-1,18
-1,28
-1,61
-1,8
-1,69
-1,87
-1,06
-1,1
-0,39
-0,47
-0,61
-0,83
-0,04000002
-0,49
-0,34
-1,02
0,23
0,02000001
-0,14
-0,8
-1,21
-0,31
-0,06999999
-0,96
-0,8
-0,37
-0,14
0,2
0,08000001
0,42
1,11
0,66
0,6900001
0,64
0,43
0,11
-0,22
-1,08
0,05000001
0,12
0,09000003
0,26
-0,6
0,63
0,11
-0,72
-0,59
-0,33
-0,63
-0,8700001
-0,27
0,34
1,12
1,28
0,23
0,32
0,89
0,55
0,19
0,18
0,06
0,24
0,32
0,09000003
0,22
0,23
0,58
1,12
1,47
1,34
0,9900001
0,7
1,16
0,63
0
0,03
0,28
-0,11
0,12
-0,08
-0,08000001
-0,41
-0,68
0,03999999
-0,52
-0,13
-0,17
-0,3
0,11
-0,49
-0,18
-0,47
0,23
-0,13
0,06
-0,45
-0,67
-0,9900001
-0,79
-1,03
-0,71
-1,11
-1,51
-1,08
-0,97
-0,97
-0,83
-0,71
-0,52
-0,7
-1,17
-0,8
-0,48
-0,63
-0,95
-0,7399999
0,00999999
-0,03
-0,29
-0,55
-1,4
-0,62
-0,49
-0,7399999
-1,18
-0,64
-0,43
-0,21
0,26
0,45
1,29
0,67
0,37
0,85
0,62
0,42
0,2
-0,2
0,71
0,74
0,09000003
-0,06
-0,38
0,5
-0,23
0,01999998
0,00999999
-0,35
-0,39
-0,41
0,13
0,25
1,99
1,26
0,37
0,51
0,58
0,42
0,39
-0,02999997
-0,24
0,8800001
0,82
0,8300001
0,1
0,5600001
0,62
1,07
1,14
0,42
1,16
1,1
0,76
0,16
0,25
0,15
-0,25
0,2
0,09
0
-0,05000001
-0,6900001
-0,43
-0,24
-0,59
-0,47
0,17
0,00999999
-0,43
-0,2
-0,46
0,06999999
-0,29
-0,47
-0,22
-0,79
-0,59
-0,91
-0,8
-0,8
-1,21
-1,37
-1,49
-0,8200001
-0,97
-0,97
-0,81
-0,8700001
-1,1
-0,9900001
-1,04
-0,53
-0,5700001
-1,11
-1,19
-1,36
-0,5
-0,15
-0,08000004
-0,02999997
-1,12
-0,59
-0,00999999
-1,37
-0,93
-0,72
-0,41
-0,28
0,06999999
-0,16
1,04
0,66
0,7
1,18
0,3
0,71
0,19
-0,52
0,73
0,67
0,64
0,14
0,5
0,8600001
0,24
-0,23
-0,56
-0,09000003
-0,49
-0,36
-0,3
0,7599999
1,57
0,12
0,32
0,8800001
0,74
0,17
0,1
0,03999996
-0,27
0,36
0,8500001
1,16
0,37
0,9999999
1,47
1,24
0,9800001
0,8
0,54
0,31
0,31
0,44
0,22
-0,07
-0,19
-0,28
-0,11
-0,1
-0,46
-0,02000001
0,2
-0,17
-0,46
-0,33
0,28
-0,63
0,25
-0,58
-0,64
0,01999998
-0,01999998
-0,21
-0,56
-0,62
-0,71
-0,66
-0,42
-1,06
-0,81
-0,91
-1,08
-0,39
-0,61
-0,62
-0,46
-0,97
-0,7
-0,81
-0,73
-0,79
-0,32
-0,71
-1,31
-1,45
-0,7499999
-0,19
0,11
-0,21
-0,79
-0,6
-0,22
-1,44
-0,97
-0,38
-0,8700001
-0,08000001
0,09
0,24
0,63
0,76
0,44
0,64
0,1
0,44
-0,4499999
-0,31
0,14
0,45
0,43
0,05000001
0,67
0,7600001
1,04
-0,16
-0,27
-0,52
-0,41
-0,00999999
-0,17
1,28
1,32
0,3800001
0,63
0,6900001
0,8
0,05000001
0,27
-0,53
0,8400001
0,51
0,44
1,16
1,25
0,6
1,47
1,43
0,98
0,65
0,49
-0,15
0,27
0,26
-0,04
0,06
0,23
-0,08
0,22
-0,51
-0,42
-0,05000001
0,32
-0,21
-0,19
-0,35
-0,86
-0,85
-0,29
0,00999999
-0,37
-0,21
-0,29
-0,53
-0,4
-0,09000003
-0,39
-0,5
-0,19
-0,76
-0,73
-0,8
-1,21
-0,7600001
-1,41
-0,63
-0,49
-1,04
-0,48
-0,64
-0,74
-0,62
-0,47
-1,02
-0,72
-0,61
-0,41
0,03999996
-0,45
-0,5
-0,35
0,22
-0,38
-1,43
-0,79
-0,81
-0,46
-0,41
0,05000001
0,03999999
1,05
0,12
0,71
0,67
0,21
0,38
-0,35
-0,42
0,3
0,74
-0,16
0,48
0,52
0,94
1,34
0,25
0,26
-0,48
-0,12
-0,09999999
0,02000001
1,36
0,55
0,61
0,78
1,14
0,47
0,21
0,33
-0,00999999
0,42
0,81
0,7
0,6800001
1,01
1,24
1,37
0,96
0,5600001
0,4
0,34
-0,3
-0,27
0,3
0,25
-0,23
-0,01
0,17
-0,07
-0,44
-0,47
-0,29
0,01000002
0,14
0,00999999
-0,62
-0,44
-0,8
-0,41
-0,64
-1
-0,5700001
-0,15
-0,3
-0,29
-0,07999998
0,06999999
-0,46
-0,67
-0,81
-0,83
-0,71
-1,05
-1,43
-1,04
-1,49
-0,77
-0,66
-0,55
-0,5
-0,05000001
-0,6
-0,62
-0,73
-0,7499999
-0,49
-0,1
-0,03999996
-0,24
-0,47
-0,12
0,06999999
0,16
-1,5
-0,7
-0,6
-0,75
-0,27
0,59
0,02000001
0,9
0,15
-0,06999999
0,43
0,07999998
0,23
-0,15
-0,06999999
0,5700001
0,59
0,15
0,21
0,94
1,28
1,21
0,19
0,05000001
0,28
0,14
0,5
0,62
0,9999999
1,27
0,9999999
0,81
0,9
0,33
0,45
0,17
0,75
1,36
1,29
1,45
0,92
1,3
1,6
0,96
1,34
0,39
0,22
0,25
0,26
-0,32
-0,24
-0,03
0,26
-0,28
0,08
-0,32
-0,59
-0,35
-0,43
0,49
-0,21
-0,3
-1,01
-0,53
-0,17
-0,09000003
-0,83
-1
-0,00999999
-0,24
-0,18
0,43
-0,25
0,26
0,01999998
-0,33
-0,09000003
-0,48
-0,7
-0,71
-0,98
-0,95
-1,44
-0,78
-0,89
-0,78
-0,36
-0,02000001
-0,36
-1,03
-1,34
-0,7
-0,62
-0,1
0,16
-0,8800001
-0,7
-0,58
-0,06999999
-0,3800001
-0,89
-1,19
-0,65
-0,7
-0,14
0,23
0,22
0,6
-0,00999999
-0,2
0,37
-0,1199999
0,05000001
-0,32
-0,34
0,14
0,54
0,37
0,06
0,6
1,47
0,98
0,26
0,42
0,2
0,51
0,44
1,05
0,39
1,2
0,67
0,7800002
0,7800002
0,27
-0,13
-0,39
1,19
0,7600001
1,45
0,97
1,1
1,14
1,18
1,03
0,6900001
0,8700001
0,45
-0,3
-0,37
-0,28
0,07
0,13
0,26
0,22
-0,35
-0,08000001
-0,56
-0,48
-0,01000002
0,54
-0,22
-0,84
-0,7
-0,00999999
-0,27
-0,11
-0,31
-0,53
-0,19
-0,25
0,14
0,08000004
-0,19
0,28
-0,2
-0,5700001
-0,5
-0,48
-1,18
-0,98
-1,14
-1,36
-1,28
-0,53
-0,6800001
-0,67
0,21
-0,64
-1,19
-1,26
-1,34
-0,74
-1,04
-0,89
-0,31
-1,07
-0,8700001
-1,21
-0,8
-0,7
-0,92
-1,13
-1,01
-1,03
-0,43
-0,00999999
-0,58
0,58
-0,18
-0,38
0,12
-0,6799999
-0,2
-0,53
-0,42
0,24
0,14
-0,17
-0,24
0,6900001
1,17
0,63
0,06
0,16
0,19
0,27
1,11
0,6999999
1,18
1,16
0,59
1,01
0,62
0,12
-0,36
-0,01999998
1,15
0,94
1,1
1,12
1,11
1,73
1,03
0,98
0,72
0,54
0,06
0,07999998
-0,48
-0,85
-0,01
-0,1
-0,08
0
-0,08000001
-0,35
-0,29
-0,58
-0,33
0,49
-0,23
-0,6900001
-0,00999999
-0,14
-0,08000004
-0,6
-0,41
-0,33
-0,17
0,49
0,58
0,39
-0,08000004
-0,16
-0,42
-0,86
-0,41
-0,33
-1,46
-0,95
-1,29
-1,67
-0,93
-0,67
-1,24
-1,11
-0,71
-0,59
-0,71
-0,32
-1,23
-0,98
-0,83
-0,6
-0,46
-0,61
-0,36
-0,63
-0,45
-0,79
-1,46
-0,8200001
-0,95
-0,68
-0,54
0,19
-0,63
0,38
-0,49
-0,12
0,05000001
-0,5600001
-0,01999998
-0,58
-0,32
-0,06
0,23
-0,24
0,19
0,43
1,01
0,18
0,37
0,14
0,22
0,06
0,62
0,52
1,49
1,08
0,4
1,12
0,41
-0,07999998
-0,09000003
0,42
0,47
0,95
1,06
1,27
1,32
1,61
1,39
0,00999999
-0,37
-0,07000001
-0,06
-0,56
-0,29
-0,7
-0,25
0,18
0,07
-0,28
-0,6
-0,44
-0,6
-0,5
-0,01000002
0
-0,13
-0,86
-0,22
-0,67
-0,52
-0,48
-0,98
-0,85
-0,2
0,4599999
0,66
0,18
-0,11
0,12
-0,29
-0,6
-0,01999998
-0,84
-1
-1,21
-1,38
-1,23
-0,7
-1,12
-1,37
-0,98
-0,75
-1,11
-0,68
-0,55
-1,09
-0,23
-0,85
-0,44
-0,41
-0,83
-0,8800001
-0,64
-0,37
-0,79
-1,2
-0,72
-0,97
-0,15
-0,47
-0,13
-0,02000001
0,55
-0,59
-0,00999999
-0,1299999
-0,36
-0,6999999
-0,3
-0,43
0,2
-0,17
0,29
0,9999999
0,16
0,8600001
-0,17
-0,17
0,35
0,34
0,89
0,73
0,32
1,72
0,8300001
0,8700001
0,00999999
0,4299999
-0,22
0,28
0,8400001
0,63
0,65
1,74
1,45
1,13
0,8
0,37
-0,07999998
-0,43
-0,43
-0,44
-0,26
-0,31
-0,31
-0,07
-0,28
-0,14
0,06
-0,46
-0,44
-0,25
-0,42
-0,79
-0,16
-0,8700001
-0,35
-1,18
-0,83
-0,8800001
-0,75
-0,8
-1,09
0,00999999
0,8300001
0,46
-0,22
-0,25
0,14
0,52
-0,24
-0,25
-0,1
-1,32
-1,33
-1,38
-1,72
-1,17
-0,97
-0,91
-0,35
-0,45
-0,84
-0,36
-0,48
-0,71
-0,45
-0,06
-0,5
-0,39
-0,63
-0,72
-0,9
-0,7
-1,19
-1,14
-1,15
-1,17
-0,55
-0,18
-0,45
-0,03
0,32
-0,17
-0,52
-0,4900001
-0,46
-0,61
-0,37
-0,8800001
-0,05000001
0,22
-0,22
0,67
0,06
0,9
-0,26
0,17
0,49
0,34
0,00999999
-0,16
0,8400001
0,8200001
0,5500001
1,08
0,65
0,29
0,4599999
1,01
0,36
0,35
1,47
1,01
1,34
1,17
0,42
0,52
-0,45
-0,6
-0,26
-0,45
-0,9
-0,82
-0,04000002
0,04
-0,21
0,22
-0,17
-0,29
-0,29
-0,12
-0,77
-0,89
-0,19
-0,89
-1,48
-1,1
-1,02
-0,71
-0,55
-1,06
-1,07
0,12
0,25
0,5
0,5400001
0,27
0,53
0,08000001
-0,13
-0,19
-0,89
-1,32
-0,91
-1,65
-1,97
-1,04
-1,25
-1
-0,81
-0,77
-0,74
-0,76
-1,71
-0,73
-0,09000003
-0,35
-0,31
-0,17
-0,35
-0,8800001
-0,8600001
-0,34
-0,65
-1,31
-1,19
-0,72
-0,48
-0,24
0,09999999
-0,49
0,58
-0,5600001
-0,4599999
-0,71
-0,73
-0,35
-0,28
-0,65
-0,13
-0,14
0,7399999
0,5700001
0,4
1,12
0,28
0,58
0,01999998
0,37
0,29
0,28
0,27
0,7
1,03
0,4399999
0,37
0,34
0,5300001
0,9900002
0,4399999
0,5500001
0,93
0,7900001
0,7
0,8700001
0,44
-0,49
-0,9
-0,4
-0,6
-0,35
-0,67
-0,86
-0,04000002
0,08
-0,12
-0,24
0,15
-0,5700001
-0,39
-0,5700001
-0,75
-1,15
-0,54
-1,09
-1,06
-0,73
-0,7
-0,31
-0,49
-0,78
-0,58
0,52
0,11
0,8100001
0,13
0,8400001
0,17
0,13
-0,23
-0,13
-0,92
-1,38
-1,13
-1,77
-1,75
-1,27
-1,66
-1,45
-0,64
-0,59
-0,71
-0,71
-1,62
-0,5
-0,51
-0,02999997
-0,18
0,29
-0,17
-0,02999997
-1
-0,9
-1,12
-0,73
-0,97
-1,2
-0,37
-0,26
-0,05000001
-0,06999999
0,49
-0,28
-0,05000001
-0,5600001
-0,8500001
-0,27
-0,01999998
-0,5700001
-0,25
0,5
0,33
0,45
0,03
0,4
0,5300001
0,42
0,64
0
-0,19
0,15
0,42
0,77
1,2
0,4
0,5600001
0,5700001
0,64
1,39
0,4
0,95
0,9
0,6999999
0,6900001
0,62
0,12
-0,14
-0,66
-0,47
-0,85
-0,84
-0,61
-0,81
-0,37
-0,08
-0,07
-0,25
0,27
-0,03
-0,36
-0,8
-0,95
-0,98
-0,6800001
-1,1
-1,69
-0,89
-1,18
-0,45
-0,53
-0,53
-0,61
-0,21
0,5200001
0,6
0,8
0,53
0,05000001
0,31
-0,01999998
-0,84
-0,72
-0,9900001
-0,96
-1,45
-2,25
-1,78
-1,26
-1,73
-0,44
-0,6900001
-0,61
-1,14
-1,56
-0,9
-0,81
-0,83
0,17
0,29
-0,4
-0,5
-0,7600001
-0,51
-1,15
-0,33
-1,14
-0,7
-0,44
-0,67
0,02000001
0
0,89
-0,35
-0,32
-0,73
-0,6799999
-0,5600001
-0,33
-0,73
-0,06
0,3800001
0,67
0,8400001
0,58
1,06
0,6800001
0,52
0,7399999
-0,38
-0,1
0,12
0,05000001
0,35
0,4
0,77
0,8200001
0,6800001
0,7499999
1,77
1,48
1,14
1,06
0,9
1,25
0,45
-0,09
-0,5700001
-0,53
-1,14
-0,83
-0,85
-0,81
-0,31
-0,56
-0,19
0,03
0,19
0,1
-0,11
-0,11
-1,06
-1,14
-1,27
-0,8800001
-0,71
-1,55
-0,67
-1,05
-0,79
-0,05000001
-0,77
-0,71
0,3
0,48
0,89
0,52
-0,24
-0,11
0,73
-0,36
-0,86
-0,7600001
-1,13
-1,65
-1,95
-2,07
-1,15
-1,79
-1,22
-0,47
-0,58
-0,63
-0,94
-1,13
-0,16
-0,42
-0,06999999
0,28
0,16
0,2
-0,02000001
-0,42
-0,34
-1,09
-0,67
-1,05
-0,81
-0,49
-0,2600001
-0,11
0,27
0,9
0,5700001
-0,06
-0,1499999
-0,00999999
-0,01999998
0,07999998
-0,4299999
0,76
0,49
1,72
0,46
0,5700001
1,43
1,35
1,13
0,53
0,34
-0,19
0,29
0,37
1,23
1,12
1,16
1,35
1,07
1,16
1,41
1,49
1,13
1,14
0,8600001
0,6900001
0,16
-0,28
-0,6
-1,19
-0,98
-1,06
-1,01
-0,76
-0,19
-0,01000002
-0,29
0,05
0,02
0,29
-0,13
-0,22
-0,68
-1,04
-1,13
-0,97
-1,3
-1,61
-0,9400001
-1,15
-0,33
-0,31
-0,78
-0,58
0,16
0,17
1,12
0,24
-0,05000001
0,37
0,11
-0,39
-0,7499999
-0,6900001
-1,5
-1,61
-1,59
-1,36
-0,94
-0,5700001
-0,6900001
-0,4
-0,18
-0,42
-0,22
-0,77
-0,53
-0,5300001
0,17
-0,58
-0,12
0,26
-0,25
-0,65
-0,5600001
-0,9800001
-0,8800001
-0,74
-0,32
-0,36
-0,53
0,06
0,09000003
0,85
0,48
-0,34
-0,07999998
0,00999999
0,1500001
-0,1299999
-0,59
0,66
0,52
1,13
0,73
0,96
1,67
1,43
0,84
0,33
0,39
-0,16
0,06999999
0,23
0,18
0,7399999
0,45
1,1
0,7600001
0,9800001
1,07
0,94
1,06
0,92
0,25
0,14
-0,19
-0,13
-0,6
-1,09
-1
-1,44
-0,98
-0,31
-0,59
-0,18
-0,26
0,12
-0,19
-0,02
-0,25
-0,52
-0,98
-0,96
-1,06
-0,97
-0,92
-1,04
-1,13
-0,8700001
-0,49
-0,28
0,14
0,06
1,19
0,5700001
1,4
0,8
0,5700001
0,28
0,55
-0,00999999
-0,68
-1,08
-1,67
-1,17
-1,59
-1,72
-0,98
-0,54
-0,8
-0,27
-0,22
0,18
-0,5700001
-1,12
-0,79
-0,07999998
-0,12
-0,58
-0,14
-0,06
-0,5
-0,63
-0,9
-1,03
-0,39
-0,75
-0,61
-0,27
-0,09000003
-0,47
0,44
0,42
0,32
0,05000001
0,16
-0,2
-0,2000001
0,11
0,00999999
0,5
0,24
0,3
0,83
1,27
1,43
1,15
0,93
0,21
-0,15
-0,32
0,00999999
0,54
0,42
0,91
1,09
1,15
0,41
0,8500001
0,71
0,96
0,68
0,78
0,14
0,56
-0,11
-0,65
-1,05
-0,62
-0,98
-1,19
-1,09
-0,83
-0,59
-0,05
0,29
-0,21
0,03
-0,07
0,23
-0,65
-1,08
-0,8200001
-1,02
-0,67
-0,78
-0,71
-0,9
-0,29
-0,15
0,21
0,58
0,44
0,59
1,15
1,01
0,66
0,16
-0,03
0,48
-0,32
-0,8
-0,8500001
-1,51
-1,07
-1,64
-1,56
-0,37
-0,74
-0,59
0,4
0,51
0,18
-0,29
-0,4499999
-0,06999999
-0,3
-0,00999999
-0,39
-0,16
0,29
-0,05000001
-0,7599999
-0,48
-1,5
-1,18
-0,64
-0,23
-0,24
-0,47
-0,38
0,53
0,66
0,64
0,25
-0,4499999
0,06999999
-0,2100001
-0,2500001
0,05999994
0,17
0,56
0,43
0,89
1,25
1,19
0,4
0,1199999
0,1399999
-0,29
-0,49
-0,23
0,5400001
0,42
0,48
0,63
1,16
0,82
1,18
0,71
0,79
0,47
0,17
0,02000001
-0,21
-0,13
-0,7600001
-1,07
-1,14
-1,2
-0,74
-0,39
-0,66
-0,46
0,26
-0,27
0,11
0,14
-0,23
-0,29
-0,09000002
-1,06
-0,97
-0,8600001
-0,8800001
-1,05
-0,62
-0,37
-0,14
0,52
0,19
0,45
0,4
0,8300001
1,06
0,9
0,38
-0,49
-0,09999999
0,47
-0,16
-0,33
-1,14
-1,66
-1,05
-1,3
-1,07
-0,51
-0,74
-0,15
0,81
0,11
0,44
0,26
-0,41
0,05000001
-0,06
0,12
-0,6
0,23
0,18
0,21
-0,63
-0,7700002
-1,1
-1,2
-0,8
-0,3
-0,01999998
-0,34
-0,36
0,6
0,83
0,49
0,46
0,24
-0,22
-0,2100001
-0,11
0,12
0,32
0,18
0,06999999
0,00999999
0,3
0,67
0,3
0,4299999
0,34
0,41
0,05000001
0,26
0,1
0,2600001
0,89
0,53
0,3
0,52
0,33
0,14
-0,21
-0,48
0,11
0,49
-0,4
-0,6900001
-0,72
-0,66
-1,1
-0,95
-0,63
-0,75
-0,67
-0,72
-0,09
0
-0,17
-0,05
-0,18
-0,27
-0,6
-0,94
-0,64
-1,03
-0,7
-0,92
-1,01
-0,34
0,2
0,5300001
0,23
0,15
0,35
0,34
0,92
0,79
0,37
-0,13
-0,2
0,39
-0,71
-0,55
-0,8700001
-1,72
-1,07
-0,4
-0,8700001
-0,08000001
-0,55
-0,31
0,6900001
0,34
0,6900001
0
-0,4599999
0,13
-0,1399999
-0,06
-0,31
-0,08000004
-0,28
0,51
-0,56
-0,7399999
-1,49
-1,09
-0,51
-0,42
-0,15
-0,58
0,22
0,55
1,05
0,33
0,14
-0,06
0,52
0,1700001
-0,5700001
-0,31
0,24
-0,03999996
0,21
0,51
0,43
0,49
0,65
0,65
1,1
0,7900001
0,01999998
0,13
0,18
0,18
0,3699999
-0,02999997
0,31
-0,13
0,06999999
-0,8800001
-0,79
-0,76
-0,23
-1,18
-0,84
-1,36
-1,01
-1,14
-0,74
-0,4
-0,4
-0,61
-0,7
-0,01000002
0,27
0,05
-0,3
-0,18
-0,27
-0,18
-0,25
-1,16
-0,92
-0,64
-0,9
-0,81
-1,14
-0,04000002
0,5500001
0,1599999
0,52
0,05000001
0,39
0,00999999
0,78
0,4
0,19
-0,11
-0,45
-0,00999999
-0,00999999
-0,91
-0,71
-1,8
-0,31
-0,58
-0,6800001
-0,41
-0,09000002
-0,59
0,8600001
0,49
0,43
0,24
-0,03999996
-0,5300001
0,16
-0,5
-0,29
-0,04000002
-0,23
-0,07999998
-0,8
-0,00999999
-0,63
-1,06
-0,4
-0,42
-0,19
0,17
-0,14
0,41
0,27
-0,27
0,12
-0,54
-0,46
-0,32
-0,33
-0,32
-0,14
0,17
-0,25
0,8400001
0,49
0,02999997
0,51
1,04
1,25
0,4
0,8300001
0,08000004
0,17
-0,12
0,22
0,06999999
-0,11
-0,1
-0,8800001
-0,7600001
-1,08
-1,17
-0,83
-1,46
-1,35
-1,35
-1,29
-1,4
-0,48
-0,7
-0,38
-0,72
-0,77
-0,27
-0,51
-0,11
-0,13
-0,14
0,09
-0,06
-0,08000001
-0,55
-0,77
-0,9
-0,67
-0,82
-0,67
-0,22
0,11
0,05000001
0,4599999
-0,06
0,55
0,72
1,06
0,13
0,39
-0,29
-0,52
-0,56
-0,49
-1,09
-0,8800001
-1,36
-0,73
-0,5600001
-0,66
-0,46
-0,52
0,32
0,5
0,01999998
0,11
0,06999999
-0,3800001
-0,54
0,2
-0,8300001
-0,8
-0,53
0,21
0,12
-0,32
-0,23
-1,17
-0,92
-0,6800001
-0,89
-0,4400001
0,26
-0,51
0,46
-0,23
0,03999999
-0,17
-0,2
-0,58
-0,01999998
-0,7800002
-0,42
-0,47
-0,51
0,29
0,39
0,4499999
0,4399999
0,73
1,38
0,79
0,6900001
-0,06999999
0,32
0,5
0,00999999
-0,18
-0,02000001
-0,47
-0,66
-1,09
-1,01
-1,08
-0,9800001
-1,83
-1,98
-1,58
-0,8700001
-0,96
-0,84
-0,97
-0,78
-0,86
-0,6900001
-0,36
-0,38
-0,37
-0,18
-0,18
-0,11
0,22
0,19
-0,15
-0,86
-0,78
-1,13
-0,5700001
-0,53
-0,65
-0,24
0,22
0,4499999
0,2600001
-0,22
0,47
0,53
0,66
0,2
0,42
-0,4299999
-0,7399999
-0,49
-0,41
-0,8400001
-0,96
-1,13
-0,25
-0,89
-0,52
-0,02000001
-0,23
0,3
0,45
0,54
0,01999998
-0,08000001
-0,5700001
-0,23
-0,2
-0,4
-0,51
-0,7499999
-0,82
-0,42
-0,46
-0,8200001
-1,05
-0,65
-0,5600001
-0,3
-0,7499999
-0,5700001
-0,00999999
0,55
-0,27
0,11
0,29
-0,22
-0,21
-0,2600001
-0,29
-0,59
-0,01999998
-0,03
0,29
0,51
0
0,32
0,65
1,14
0,7900001
0,28
0,09999996
0,5200001
0,98
0,3
0,03
0
-0,68
-1,04
-1,88
-1,71
-1,53
-1,43
-1,68
-2,06
-1,2
-1,31
-0,7
-0,9900001
-0,6800001
-0,66
-0,32
-0,55
-0,12
-0,53
-0,44
-0,2
0,18
-0,08
-0,23
-0,18
0,2
-0,2
-0,19
-0,43
0,22
-0,23
-0,74
-0,8700001
0,38
0,28
0,16
0,23
0,12
0,52
0,64
0,21
0,44
-0,35
-0,7
-0,5
-0,48
-1,36
-1,19
-0,66
-0,3
-0,26
0,03
0,00999999
0,13
0,22
0,42
0,29
0,07999998
-0,51
-0,41
-0,13
0,25
-0,35
-0,49
-0,06999999
-0,8800001
-0,13
-0,18
-1,26
-1,13
-0,56
-0,67
-0,05000001
-0,8800001
-0,05000001
-0,05000001
-0,06999999
-0,29
0,5700001
0
-0,55
-0,22
-0,44
-0,4399999
-0,42
-0,5700001
-0,15
-0,09999999
-0,15
0,1599999
0,47
0,4399999
0,32
0,33
0,47
0,8500001
1,69
0,73
0,8700001
0,06999999
0,24
-0,89
-1,43
-1,64
-1,55
-1,7
-1,72
-1,82
-1,03
-1,24
-1,02
-0,63
-0,79
-0,81
-0,77
-0,82
-0,51
-0,21
-0,07000001
-0,11
-0,43
-0,03
-0,03
0,07
-0,1
0,2
-0,39
-0,08000001
-0,15
-0,00999999
-0,54
-0,81
-0,5600001
0,2
0,35
0,04000002
-0,29
-0,00999999
-0,1
0,67
0,25
0,17
-0,28
-0,42
-0,62
-0,71
-1,17
-0,98
-1,6
-0,82
-0,74
-0,5
-0,4
-0,22
0,2
0,27
0,03999999
-0,3
-0,64
-0,55
-0,11
-0,15
-0,48
-1,02
-0,4
-0,52
0,23
-0,1
-1,17
-0,81
-0,53
-0,2
-0,12
-0,45
-0,37
-0,00999999
0,25
-0,22
0,09000002
-0,29
-0,44
-0,32
-0,28
-0,23
-0,47
-0,05000001
-0,12
-0,05000001
-0,61
-0,22
0,59
0
0,62
0,7499999
0,78
0,9900001
1,25
1,33
0,8800001
0,19
-0,04000002
-1,08
-1,62
-1,39
-1,8
-1,75
-1,89
-1,45
-1,66
-0,7
-0,89
-0,64
-0,7
-0,65
-1,02
-0,4
-0,47
-0,55
-0,55
-0,36
-0,4
-0,02
0,2
0,25
-0,21
-0,24
-0,53
-0,27
-0,33
0,13
-0,36
-0,49
-0,8
0,2
0,04000002
0,33
-0,21
0,21
0,06
0,67
0,34
0,13
0,1
-0,81
-0,53
-0,5700001
-1,41
-0,8300001
-0,64
-0,63
-0,64
-0,3
-0,82
-0,8700001
-0,01999998
-0,02000001
0,21
-0,06999999
-0,59
-0,36
-0,62
-0,12
-0,82
-1,2
-0,95
-0,41
-0,15
-0,3
-0,9999999
-1,05
-0,8
-0,68
-0,62
-0,63
-0,1
-0,54
-0,13
-0,49
-0,72
0,05000001
-0,04000002
-0,61
-0,23
-0,00999999
-0,43
-0,36
-0,27
-0,24
-0,6900001
0,36
1,01
1,06
0,79
0,72
0,6900001
0,7599999
1,55
1,29
1,03
0,47
-0,13
-0,81
-1,33
-1,7
-1,34
-2,07
-1,49
-1,09
-1,67
-0,9800001
-0,8
-1,1
-1,15
-0,34
-0,33
-0,32
-0,8
-0,52
-0,48
-0,29
-0,44
0,09
-0,21
-0,17
-0,27
0,24
-0,5700001
-0,14
-0,43
0,04000002
-0,29
-0,23
-0,32
0,00999999
0,47
0,17
-0,18
-0,03999996
0,12
0,7399999
0,23
0,52
0,23
0,28
-0,34
-0,89
-1,69
-1,28
-1,06
-1,09
-0,85
-0,34
-0,34
-0,79
-0,3
-0,22
0,29
0,03999999
-0,83
-0,68
-1,2
-0,46
-0,67
-1,41
-0,4
-0,8700001
-0,78
-0,2600001
-1,12
-1,4
-0,7399999
-0,7600001
-0,64
-0,01999998
-0,22
-0,36
-0,15
-0,8
-0,13
0,00999999
-0,17
-0,5
-0,8800001
-0,8400001
-0,62
-0,55
0,09999999
-0,7399999
-1,2
-0,22
1,08
0,9800001
0,48
0,5
0,7399999
0,98
1,18
1,34
0,6800001
0,8300001
-0,41
-0,23
-0,17
-0,8600001
-1,25
-1,29
-1,2
-1,52
-1,17
-1,45
-1,28
-0,42
-0,73
-0,54
-0,51
-0,71
-0,78
-0,43
-0,2
-0,15
-0,08
-0,04
0,03
0
-0,09
-0,22
-0,05
-0,55
-0,16
0
0,56
-0,59
-0,8800001
-0,06999999
-0,48
-0,25
-0,34
-0,01999998
-0,2
0,97
0,03999996
-0,18
-0,7800002
-0,96
-0,7399999
-0,00999999
-0,7
-0,78
-0,5
-0,36
-0,95
-0,8
-0,8700001
-0,68
0
0,23
-0,27
0,13
-0,78
-0,43
-0,95
-0,66
-0,77
-0,8700001
-0,81
-0,9900001
-0,7499999
-0,06999999
-0,96
-0,5700001
-0,06999999
-0,46
-0,54
-0,5700001
-0,5
-0,21
-0,47
-0,22
-0,46
-0,68
-0,13
0,13
-0,35
0,2
0,03999999
0,15
0,27
-0,81
-0,3800001
-0,72
0,31
0,72
0,15
0,23
0,71
0,7
0,8800001
1,29
1,05
1,14
-0,16
0,27
-0,13
-1,13
-0,9
-0,79
-1,16
-1,2
-1,08
-0,6900001
-0,81
-0,95
-0,61
-0,41
-0,6
-0,48
-0,31
-0,67
-0,01000002
-0,36
-0,07
-0,25
-0,3
-0,25
0,01
-0,2
-0,02
-0,17
-0,08000001
0
0,1
0,34
-0,38
-0,41
-0,52
-0,11
-0,35
-0,43
-0,11
0,8300001
-0,19
-0,02999997
-0,93
-1,19
-0,51
-0,54
-1,37
-1,25
-0,67
-0,31
-0,79
-0,55
-0,21
-0,09999999
0,31
0,08000004
0,56
0,12
-0,55
-0,11
-0,78
-0,39
-0,52
-1,38
-0,8
-1,15
-1,18
-0,5
-0,79
-0,5
-0,44
-0,49
-0,27
-0,55
-0,17
-0,03999999
-0,23
0,29
-0,34
0,25
0,5700001
0,01999998
0,19
-0,07999998
0,18
-0,25
0,24
-0,8800001
-0,43
-0,00999999
0,52
-0,17
0,42
0,59
0,1
0,49
1,08
0,75
0,81
0,33
0,03
-0,28
0,13
-0,17
-0,78
-0,91
-0,8800001
-0,5700001
-0,53
-1,15
-0,9
-0,63
-0,75
-0,51
-0,38
-0,81
-0,59
-0,45
-0,67
0,05
-0,2
-0,3
-0,07
0,12
0,17
-0,28
0,28
0,03
-0,35
0,23
0,37
0,22
0,38
-0,08000004
-0,08000004
-0,35
-0,72
-0,84
-0,5
-0,11
-0,27
-0,6999999
-0,36
-1,08
-0,62
-0,66
-1,22
-1,47
-1,43
-0,89
0,18
-0,5700001
-0,08000001
0,15
0,23
0,01999998
0,39
0,00999999
-0,35
-0,51
-0,29
0,28
-0,52
-1,06
-0,63
-1,42
-1,31
-0,08000004
-0,7399999
-0,04000002
-0,1
-0,35
-0,25
-0,5700001
-0,28
0,19
0,06
0,09999999
-0,17
0,23
0,34
0,55
0,55
0,23
0,05000001
0,03999999
-0,00999999
0,22
-0,32
-0,11
0,16
-0,13
0,41
0,3
0,78
0,64
1,02
0,7
0,15
-0,09999999
-0,26
0,05000001
-0,14
-0,49
-0,2
-1,28
-1,53
-0,42
-0,47
-0,8600001
-0,9400001
-0,62
-0,72
-0,8800001
-0,55
-0,54
-0,58
-0,76
-0,22
0,22
0,08
-0,03
-0,07
0,27
0,1
0,03
-0,16
0,04
-0,45
0,27
0,37
0,25
-0,05000001
0,22
-0,42
-0,32
-0,52
-0,76
-0,77
-0,18
-0,24
-0,2
-1,12
-0,96
-0,3800001
-0,73
-1,21
-1,11
-1,26
-1,08
-0,58
-0,03
-0,59
-0,38
0,11
0,06999999
-0,19
-0,11
-0,6
-0,53
-0,82
-0,37
-0,5700001
-1,35
-0,94
-1,19
-1,17
-0,35
-1,07
-0,24
-0,02999997
-0,13
-0,29
0,5600001
0,16
0,8700001
-0,42
-0,02000001
0,04000002
0,23
0,04000002
0,65
0,39
0,03
-0,05000001
0,09999999
0,23
0,02999997
-0,5
-0,19
-0,43
0,18
1,04
0,66
0,63
1,03
0,67
0,83
0,28
-0,39
-0,16
-0,27
-0,05000001
0,18
-1,06
-0,7600001
-0,34
-0,85
-1,15
-1,36
-1,32
-1,08
-1,06
-1,13
-0,8700001
-0,5700001
-0,47
-0,31
-0,1
-0,44
-0,23
-0,01
0,14
0,02
0,19
0,08
0,03
0,25
-0,38
0,33
0,49
-0,05000001
-0,3
-0,18
-0,21
-0,3
-1,11
-0,9900001
-0,42
-0,49
0,13
0,18
-0,93
-1,24
-0,68
-1,16
-1,16
-0,53
-1,17
-0,6
-0,00999999
-0,23
-0,58
0,11
-0,17
0,14
0,49
-0,08000001
-0,32
-0,55
-1,1
-1,49
-1,08
-1,48
-0,66
-0,97
-1,39
-1,18
-0,63
0,02999997
-0,06999999
-0,07999998
0,11
-0,21
-0,28
0,19
-0,58
0,17
0,1
0,45
0,34
0,8600001
0,81
0,52
0,03
0,12
0,53
0,79
-0,31
-0,35
0,1
0,47
0,52
1,02
0,91
1,02
0,35
0,24
0,02000001
-0,00999999
-0,38
0,02000001
-0,21
-0,31
-0,84
-0,84
-0,34
-0,67
-1,12
-0,96
-1,69
-1,18
-1,08
-1,37
-1,19
-0,77
-0,51
-0,41
-0,01000002
-0,18
0
-0,08
-0,28
-0,28
0,22
-0,24
0,29
-0,02
0,08
0,49
0,13
-0,23
0,14
-0,2
-0,08000001
-0,58
-0,43
-0,68
-1,04
-0,64
-0,45
-0,00999999
-0,2
-1,16
-1,07
-1,12
-0,5600001
-0,81
-1,09
-0,73
0,03
-0,44
-0,35
-0,1
0,59
0,29
0,59
-0,24
-0,23
-0,31
-1,13
-0,92
-1,05
-1,01
-1,09
-0,8700001
-0,73
-0,8800001
-0,4
0,58
0,25
0,17
0,03
0,02000001
0,5600001
0,3
0,72
0,58
0,79
0,44
0,32
0,8
0,17
0,5
0,46
0,27
0,42
1,14
1,01
-0,07999998
0,63
0,7
0,7399999
0,46
0,79
0,17
-0,46
-0,39
-0,07999998
-0,51
-0,7
-0,58
-0,12
-0,78
-0,39
-0,14
-0,48
-0,97
-0,97
-0,62
-1,03
-1,8
-1,33
-0,9800001
-1,23
-1,04
-0,5
-0,06000002
-0,58
-0,16
-0,09
0,22
-0,09
0,28
-0,05
0,15
-0,28
0,16
-0,18
0,39
0,16
-0,39
-0,5500001
-0,51
-0,37
-0,6
-1,19
-1,16
-1,22
-0,61
-0,16
0,19
-0,3
-0,48
-0,55
-0,5700001
-0,97
-0,9800001
-1,02
-0,28
0,36
-0,11
-0,12
0,07999998
-0,12
-0,03
0,11
-0,4
-0,43
-1,14
-0,7600001
-0,65
-1,1
-1,06
-1,38
-0,94
-0,66
-0,82
-0,32
-0,33
-0,45
-0,24
-0,05000001
0,03
0,3
1,21
0,52
0,68
0,52
0,8200001
0,81
0,6900001
0,8800001
0,9900001
0,62
1,16
0,92
1,17
0,8
0,85
0,49
0,11
0,47
0,8200001
0,44
0,18
-0,21
-0,15
-0,31
0,09000003
-0,22
-0,76
-0,37
-0,39
-0,43
0
-0,36
-0,7600001
-0,8200001
-0,73
-1,15
-1,18
-1,53
-0,95
-1,06
-0,85
-0,63
-0,3
-0,18
-0,14
-0,07
-0,03
-0,13
0,02
0,08
-0,27
0,19
-0,27
0,18
0,41
0,22
-0,24
-0,51
-0,77
-0,47
-0,54
-0,45
-1,14
-0,9900001
-0,58
-0,28
-0,42
0,18
-0,5700001
0,2
-0,44
-0,47
-0,9900001
-0,53
-0,81
-0,09999999
-0,82
-0,5700001
-0,18
-0,15
-0,5
-0,03
-0,7
-0,77
-0,7599999
-0,79
-0,7
-0,64
-1,24
-0,66
-0,92
-0,68
-0,7599999
-0,49
-0,23
0,19
0,21
-0,22
0,4
1,04
0,65
0,68
0,43
0,72
0,51
1,09
0,8700001
0,85
0,68
1,11
0,73
0,63
0,5600001
1,77
1,23
0,09000003
1,14
1,13
0,37
0,51
0,41
0,21
0,22
-0,52
-0,09
-0,06
-0,61
-0,2
0,29
-0,09999999
-0,00999999
-0,00999999
-0,37
-0,93
-0,8
-0,89
-1,07
-1,42
-1,29
-0,96
-1,07
-0,66
-0,43
-0,25
-0,5
0,24
0,25
0,16
0,08
-0,02
0,24
-0,03
-0,29
-0,11
0,63
0,13
-0,14
-0,5500001
-0,4
-0,63
-0,1
-0,73
-0,65
-1,02
-0,6900001
0,14
0,09999999
0,28
0,16
0,00999999
-0,35
-0,7399999
-0,89
-1,07
-0,83
-0,44
-0,86
-0,44
-0,33
-0,64
-0,32
-0,48
-1,19
-0,89
-0,94
-1,19
-0,32
-0,5600001
-0,66
-0,63
-1,05
-0,52
-0,73
-0,36
-0,27
-0,05000001
0,28
-0,00999999
0,43
0,8600001
0,44
0,56
0,89
0,37
0,62
0,67
0,5600001
1,37
0,41
0,46
0,9900001
0,89
0,97
1,44
1,18
0,37
1,05
1,44
0,81
0,2
0,7499999
0,36
-0,56
-0,11
-0,75
0,17
0,29
-0,24
0,09000003
-0,19
-0,13
-0,56
-0,28
-0,59
-1,08
-1,19
-0,77
-0,96
-1,21
-1,32
-1,46
-0,8
-0,08000001
-0,23
-0,42
0,15
0
0,23
0,25
0,26
0,1
-0,26
-0,23
0,23
0,71
0,37
0,22
-0,2
-0,09000003
-0,7599999
-0,52
-0,41
-0,22
-0,31
-0,01000002
0,03999999
0,26
0,06
0,11
0,27
0,24
0,21
-0,65
-0,5700001
-0,75
0,03999999
-0,77
-0,64
-0,59
-0,61
-0,74
-0,84
-1,4
-1,38
-1,19
-1,38
-0,93
-1,11
-1,3
-1,76
-1,72
-0,8800001
-1,48
-0,46
-0,5
-0,46
-0,28
0,53
0,98
1,04
0,78
0,54
0,41
0,58
0,91
1,38
0,6900001
0,64
0,67
0,36
0,54
1,16
1,28
1,11
1,17
1,21
0,9900001
0,55
1,17
1,06
0,67
-0,43
-0,14
-0,24
-0,72
0,21
-0,12
0,1
0,22
0
-0,28
0,2
-0,13
-0,43
-0,5
-0,68
-0,36
-0,78
-1,09
-1,07
-0,8700001
-0,68
-0,59
-0,17
-0,5
0,12
0,23
0,1
-0,14
-0,21
0,05
-0,23
-0,05
0,22
0,36
0,61
0,38
0,03999996
-0,21
0,1
0,59
-0,32
-0,48
-0,23
-0,27
-0,27
0,07999998
0,21
0,11
0,05000001
-0,24
-0,04000002
-0,16
-0,76
-0,77
-0,16
-0,45
-0,58
-0,34
-0,24
-0,03
-0,52
-0,67
-1,07
-0,96
-0,65
-0,96
-0,65
-1,1
-1,41
-1,36
-1,01
-1,18
-0,9
-0,47
-0,86
-0,21
0,24
0,9900001
0,66
0,33
0,32
0,89
1,01
0,62
0,39
-0,38
-0,19
0,6900001
0,81
0,75
0,95
0,9800001
0,93
1,02
1,71
1,24
0,89
0,72
0,3800001
0,38
0,43
-0,19
-0,29
-0,09000003
0,77
0,83
0,73
0,31
0,08000004
0,05000001
0,51
0,22
-0,41
-0,58
-0,05000001
-0,52
-0,78
-1,39
-0,75
-0,8800001
-0,77
-0,74
-0,12
0,23
-0,22
-0,19
0,29
-0,13
0,21
-0,01
-0,2
-0,19
0,01
0,5700001
0,5
0,81
0,27
0,19
0,15
0,15
-0,21
-0,21
-0,3
-0,14
-0,06
0,12
-0,12
-0,29
0,17
-0,47
-0,68
-0,42
-0,63
-0,24
-0,05000001
-0,33
-0,38
-0,22
-0,48
-0,25
-0,36
-0,94
-0,81
-0,81
-0,66
-0,8
-0,6900001
-0,9800001
-1,09
-1,46
-0,8
-0,67
-0,34
-0,61
-0,37
0,03
0,45
0,31
0,58
0,25
0,53
0,8800001
0,9
0,08000001
-0,23
-0,07999998
0,14
-0,06
0,32
1,43
0,8800001
1,38
1,27
1,59
1,11
1,03
0,9
0,51
0,22
0,44
0,51
0,8500001
0,79
0,43
0,32
0,8800001
0,82
0,5700001
-0,17
0,21
0,42
-0,09999999
-0,21
-0,14
-0,18
-0,64
-0,05000001
-0,59
-0,89
-0,58
-0,35
-0,34
0,2
-0,12
0,05
0,21
0,16
-0,14
0,08
0,1
0,03
0,23
-0,21
0,74
0,64
0,5700001
0,38
0,46
0,05000001
0,38
-0,3
-0,14
-0,49
-0,49
-0,5
-0,53
-0,21
-0,09999999
-0,63
-0,66
-0,73
-0,61
-0,71
-0,7
0,18
-0,06000002
-0,85
-0,6
-0,53
-0,5
-0,18
-0,85
-1,02
-1,18
-1,03
-0,72
-0,79
-0,95
-1,08
-1,06
-1,03
-1,11
-0,65
-0,37
-0,29
-0,21
0,15
0,38
0,37
0,5700001
0,42
0,85
1,09
-0,47
-0,67
-0,5700001
-0,27
0,49
1,45
1,3
1,11
1,28
1,59
1,75
1,45
1,44
1,17
0,6800001
1,13
0,52
1,46
0,73
0,6800001
1,32
0,67
0,6800001
0,64
0,2600001
0,18
0,09000003
-0,52
-0,34
-0,38
-0,21
-0,02999997
-0,44
0,16
-0,55
-0,51
-0,76
-0,76
-0,39
-0,01
0,01
-0,08
0,08
-0,01
-0,01
0,27
-0,23
0,11
0,07
0,15
0,15
0,61
0,89
0,47
0,36
0,06
-0,45
-0,01000002
-0,54
-0,59
-0,74
-0,59
-0,36
-0,74
-0,31
-0,02999997
-0,21
-0,82
-0,68
-0,62
-0,51
-1,13
-0,25
-0,16
-0,54
-0,71
-0,62
-1,12
-1,16
-1,21
-1,09
-0,63
-0,89
-0,79
-1,13
-1,42
-1,22
-1,21
-1,1
-0,92
-0,96
-0,16
-0,23
-0,1
-0,48
-0,00999999
0,28
0,22
0,6
-0,28
-0,72
-0,32
-0,42
-0,22
-0,24
0,67
1,45
1,35
1,61
1,66
1,58
1,27
1,14
0,97
0,8
1,08
1,2
0,73
1,28
1,4
1,48
1,29
0,28
0,54
0,04000002
0,24
-0,01000002
0,15
0,00999999
-0,24
0,21
-0,55
-0,23
-0,28
0,1
-0,48
-0,51
-0,37
-0,26
0,29
-0,18
0,13
-0,13
0,23
-0,1
0,17
0,19
0
-0,01
0,24
0,29
-0,16
0,74
0,6900001
0,63
0,08
0
-0,06000002
-0,56
-0,18
-0,53
-0,8
-0,47
-0,86
-0,36
-0,58
-0,31
-0,38
-0,34
-0,52
-0,81
-0,84
-0,81
-0,21
-0,22
-0,46
-1,29
-1,16
-1,17
-1,04
-0,8600001
-0,91
-1,05
-0,84
-1,13
-1,13
-1,29
-1,53
-1,52
-1,18
-0,49
-0,16
-0,71
-0,09000003
-0,6900001
-0,8800001
-0,00999999
-0,17
0,28
-0,42
-0,73
-0,64
-0,5700001
-0,39
0,7399999
0,8200001
1,24
1,54
1,51
1,69
1,36
2,06
1,41
0,77
0,67
0,9800001
1,45
0,97
1,76
1,07
1
0,32
0,84
0,54
0,26
-0,05000001
-0,13
-0,13
-0,13
0,36
-0,15
-0,22
0,05000001
0,15
0,58
-0,23
0,25
-0,07000001
-0,38
-0,16
-0,28
-0,14
-0,05
-0,22
-0,14
0,15
0,22
0,01
0,13
-0,17
-0,24
0,22
0,16
0,11
0,07
-0,15
0,01
-0,21
0,24
-0,11
-0,26
-0,14
-0,13
-0,35
-0,56
-0,52
-0,7
-0,54
-0,41
-0,31
-0,48
-0,89
-0,45
-0,78
-0,76
-0,66
-0,54
-0,44
-0,53
-0,49
-1,18
-0,74
-1,16
-1,17
-1,21
-1,28
-1,29
-0,97
-1,42
-1,38
-0,84
-1,04
-0,61
-0,8800001
-0,81
-0,75
-0,31
0,59
-0,26
-0,23
-0,06
-0,14
-0,19
-0,16
0,91
0,95
0,97
1,24
1,76
1,93
1,89
1,65
1,21
1,03
1,06
1,08
1,32
1,63
1,46
1,91
1,66
1,17
0,58
-0,24
0,23
-0,35
-0,58
-0,18
0,02000001
0,59
0,24
0,36
0,41
0,29
-0,13
0,46
0,04000002
-0,11
0,02
-0,07
-0,16
0,17
-0,03
0,25
-0,27
0,2
0,14
0,15
0,15
0,21
0,02
0,16
-0,27
-0,08
-0,09
0,26
-0,12
0,05
-0,1
-0,25
-0,27
-0,05
0,01
-0,33
-0,42
-0,58
-0,56
-0,89
-0,35
-0,6
-0,77
-0,68
-0,5
-0,28
-0,34
-0,01000002
-0,6
-0,5700001
-0,5700001
-0,27
-0,19
-0,44
-0,04000002
-0,79
-0,94
-0,8200001
-0,8700001
-1,02
-1,12
-1
-0,33
-0,31
-0,01000002
-0,03999999
-0,09999999
0,19
0,15
0,59
0,06
-0,29
0,15
-0,18
-0,1
-0,45
0,67
0,7
0,95
0,9
1,75
2,02
2,06
1,65
1,22
1,66
1,44
1,66
1,18
1,09
1,21
1,9
2,08
1,65
1,73
0,64
0,63
0,13
-0,37
-0,17
-0,48
0,06999999
0,73
0,3
0,5600001
0,01000002
0,47
0,58
0,26
0,71
0,33
-0,15
-0,28
-0,27
-0,08
0,16
-0,07
-0,18
0,27
-0,18
-0,28
0,03
-0,1
0,25
0,27
0,26
0,03
-0,3
0,19
-0,15
-0,18
0,23
0,17
0,21
-0,13
-0,12
-0,22
-0,04000002
-0,12
-0,3
-0,01000002
-0,35
-0,4
-0,13
-0,15
-0,15
-0,23
-0,36
-0,37
-0,54
-0,49
-0,1
-0,14
-0,5
-0,19
-0,52
-0,74
-0,43
-0,8800001
-0,61
-0,62
-0,43
-0,82
-0,49
-0,02000001
0,09999999
-0,02000001
-0,19
0,45
-0,56
-0,53
-0,33
-0,37
-0,33
-0,47
0,36
0,13
0,92
0,9900001
1,32
1,39
0,9800001
2,16
1,63
1,24
1,11
0,97
1,56
1
1,29
0,91
1,7
2,33
1,69
0,91
1,01
0,17
-0,21
-0,41
-0,55
-0,74
-0,03999999
0,6900001
0,19
0,8800001
0,43
0,27
0,19
0,8700001
0,34
0,25
0,13
0,08
0,2
-0,2
-0,1
-0,2
-0,05
-0,24
-0,23
0,03
0,22
-0,3
-0,24
-0,28
-0,13
0,04
-0,26
-0,05
-0,29
-0,11
-0,26
-0,17
-0,26
0,25
0,23
-0,01
-0,13
0,14
-0,1
-0,06000002
-0,12
-0,21
-0,55
-0,46
-0,43
-0,48
-0,5700001
-0,52
-0,19
-0,59
-0,09000002
-0,58
-0,48
-0,28
-0,66
-0,65
-0,58
-0,73
-0,49
-0,82
-0,67
-0,37
-0,05000001
0,45
0,21
0,3
0,33
0,24
-0,13
0,2
0,23
0,11
0,16
0,13
0,44
-0,18
0,55
1,12
1,64
1,24
1,51
1,15
1,63
0,9
1,17
0,91
0,61
0,91
1,2
1,17
1,46
1,5
1,22
1,32
0,9
1,14
0,44
-0,1
0,22
0,17
0,07999998
0,38
0,8
0,81
0,37
0,1
0,46
0,89
0,77
0,12
0
0,1
0,02
0,07
0,07
-0,03
-0,2
0,25
-0,13
-0,11
-0,02
-0,28
-0,07
0,19
0,24
0,23
0,08
0,04
0,12
0,2
-0,02
0,04
0,29
0,27
-0,05
-0,08
-0,25
0,22
0,22
-0,13
0,15
-0,28
0,13
-0,42
-0,03
-0,45
-0,33
-0,35
-0,26
-0,5700001
-0,17
-0,12
-0,5700001
-0,27
-0,72
-0,54
-0,45
-0,9
-0,34
-0,77
-0,58
-0,48
-0,44
-0,03
-0,17
-0,05000001
-0,19
0,05000001
-0,19
-0,15
-0,08
-0,12
-0,28
0
0,33
0,26
0,18
0,34
1,42
1,28
0,8600001
0,72
0,89
0,6900001
0,96
1,29
0,9
0,8600001
0,98
1,08
0,97
0,64
1,15
1,28
1,34
0,93
0,45
0,76
0,03999999
0,00999999
0,34
0,21
0,44
0,48
0,7
0,85
0,75
0,33
0,89
0,22
-0,12
0,1
-0,22
-0,13
0,17
-0,1
0,12
0,07
0,2
-0,26
-0,06
-0,16
0,27
-0,08
0,08
-0,12
-0,08
-0,06
-0,15
0
0,1
0,01
0
0,2
-0,27
0,04
0,27
0,11
0,28
0,1
0,24
-0,03
-0,04
0,15
0
0,27
0,25
0,08
0,21
-0,06
-0,1
-0,22
0,26
0
-0,24
-0,41
-0,06000002
-0,09000002
-0,2
-0,38
-0,5700001
-0,39
0,17
-0,01
-0,18
0,16
-0,2
0,18
0,13
0,13
0,22
0,01000002
0,39
0,39
0,09000002
0,5700001
0,48
0,41
0,82
1
0,8200001
0,74
0,63
0,81
0,39
0,91
0,95
1,19
0,73
1,04
0,9900001
0,66
0,9
0,95
0,97
0,92
0,4
0,5700001
0,63
0,73
0,47
0,06
0,24
0,67
0,62
0,79
0,89
0,76
0,2
0,09
0,01
0,13
0,29
0,29
0,29
-0,11
0,18
0,26
-0,11
0,1
-0,19
-0,2
-0,26
-0,01
0,03
-0,15
-0,29
-0,27
0,02
0,07
-0,14
0,21
0,07
-0,22
0,23
0,15
-0,1
0,25
0,19
0,2
-0,28
0,19
0,08
0,04
-0,18
0,26
-0,24
-0,3
0,05
-0,12
0,14
0,14
0,08
0,23
0,02
-0,24
-0,28
-0,06000002
-0,56
-0,14
-0,42
-0,05
-0,17
0,13
-0,07
0,1
-0,25
0,5
0,06000002
0,13
0,58
0,53
0,06000002
0,59
0,37
0,21
0,31
0,6
0,47
0,66
0,39
0,3
0,5700001
0,44
0,83
0,32
0,12
1,03
0,96
0,77
0,73
0,85
1,11
0,92
0,91
0,36
0,36
0,55
0,1
0,32
0,51
0,15
0,84
0,8200001
0,49
0,81
0,67
0,38
-0,14
-0,2
-0,26
-0,29
0,07
-0,03
0,07
-0,13
0,28
0,28
0,2
0,2
-0,03
-0,09
-0,16
0,18
-0,3
0,03
-0,29
-0,26
0,27
-0,3
0,15
0,06
-0,11
0,14
0,15
0,23
-0,25
-0,25
0,25
-0,28
0,24
-0,26
-0,03
-0,05
-0,18
-0,18
0,18
-0,06
-0,05
-0,17
0,08
0,07
-0,25
-0,1
-0,26
-0,01
-0,6
-0,55
-0,39
-0,14
0,19
0,03
-0,19
-0,15
-0,05
-0,02
0,11
0,22
0,41
0,43
0,11
0,52
0,03
0,17
0,56
0,23
0,54
0,79
0,66
0,48
0,44
0,37
0,38
0,43
0,22
-0,23
0,31
0,59
0,4
0,7600001
1,12
0,6
1,03
0,6900001
0,42
0,51
0,52
0,11
0,59
0,73
0,6
0,86
0,72
0,72
0,61
0,75
0,64
0,17
-0,07
0,11
0,04
-0,19
-0,02
0,03
